[{"tipo":"conv2d","inChannels":1,"outChannels":8,"kernelSize":5,"lastOutputShape":[8,3,3],"kernels":[[[{"0":-0.027477703988552094,"1":0.3172256350517273,"2":-0.001019543269649148,"3":-0.20282597839832306,"4":-0.2145899385213852},{"0":0.053209394216537476,"1":0.2305307239294052,"2":0.3107590973377228,"3":-0.32956409454345703,"4":-0.28799745440483093},{"0":-0.16102007031440735,"1":0.25692906975746155,"2":0.5187859535217285,"3":-0.16860875487327576,"4":-0.29062747955322266},{"0":-0.14587946236133575,"1":0.3558868169784546,"2":0.1870378851890564,"3":-0.19569893181324005,"4":0.0872572809457779},{"0":0.1513865888118744,"1":0.0049200840294361115,"2":0.36109256744384766,"3":0.3384706377983093,"4":0.3772990107536316}]],[[{"0":0.0759788528084755,"1":0.17567197978496552,"2":-0.18539364635944366,"3":-0.27924516797065735,"4":0.19216427206993103},{"0":-0.17169368267059326,"1":0.31402769684791565,"2":-0.08965060114860535,"3":-0.219322070479393,"4":0.25020766258239746},{"0":-0.2113397866487503,"1":0.06737338751554489,"2":-0.03086443804204464,"3":0.03614062815904617,"4":0.10306959599256516},{"0":-0.2856748700141907,"1":0.17536358535289764,"2":-0.11103260517120361,"3":0.22449202835559845,"4":0.010549645870923996},{"0":0.22737447917461395,"1":0.34389060735702515,"2":0.3079822063446045,"3":0.3606521487236023,"4":0.20156517624855042}]],[[{"0":-0.05813007801771164,"1":-0.07415571063756943,"2":0.2745218276977539,"3":0.2325243055820465,"4":-0.3269626796245575},{"0":-0.17696450650691986,"1":-0.2790201008319855,"2":0.3726920783519745,"3":0.5362263917922974,"4":-0.44829437136650085},{"0":-0.29611268639564514,"1":-0.27044692635536194,"2":0.22581177949905396,"3":0.5106576085090637,"4":-0.19285839796066284},{"0":-0.1180783063173294,"1":0.1421491652727127,"2":-0.29546430706977844,"3":0.26270022988319397,"4":0.16992147266864777},{"0":0.03879208490252495,"1":-0.013852105475962162,"2":-0.1809721738100052,"3":0.14989802241325378,"4":0.082148976624012}]],[[{"0":0.018265480175614357,"1":0.12235464155673981,"2":0.16708673536777496,"3":0.37486371397972107,"4":0.13740739226341248},{"0":-0.15469560027122498,"1":-0.12303610891103745,"2":0.09445774555206299,"3":0.13533957302570343,"4":-0.1542494297027588},{"0":-0.10086246579885483,"1":0.09720302373170853,"2":0.22532065212726593,"3":0.008803637698292732,"4":-0.2968091666698456},{"0":0.14224053919315338,"1":0.3896316587924957,"2":0.5443808436393738,"3":0.43902450799942017,"4":0.2415456473827362},{"0":0.10412866622209549,"1":0.2792155146598816,"2":0.22443707287311554,"3":-0.13617804646492004,"4":0.052078112959861755}]],[[{"0":0.23972339928150177,"1":0.13174167275428772,"2":0.12842857837677002,"3":0.08427971601486206,"4":0.2517508566379547},{"0":-0.12985283136367798,"1":0.029011886566877365,"2":0.1693824678659439,"3":-0.15177711844444275,"4":0.43518558144569397},{"0":-0.1489359736442566,"1":-0.1739533543586731,"2":0.06370890140533447,"3":-0.07777857780456543,"4":0.5409016609191895},{"0":0.08566799759864807,"1":0.09759549796581268,"2":0.016536030918359756,"3":0.08839866518974304,"4":0.3816719353199005},{"0":0.0014789837878197432,"1":-0.09536369889974594,"2":0.12790614366531372,"3":-0.10009737312793732,"4":0.29049769043922424}]],[[{"0":0.07739411294460297,"1":-0.15262408554553986,"2":-0.18403081595897675,"3":0.054923076182603836,"4":0.012452214024960995},{"0":-0.349148690700531,"1":-0.2652071714401245,"2":-0.39690345525741577,"3":0.34139201045036316,"4":0.15706472098827362},{"0":-0.44261860847473145,"1":-0.41488584876060486,"2":0.03197677806019783,"3":0.16756847500801086,"4":0.3215758204460144},{"0":-0.19896626472473145,"1":0.18414552509784698,"2":0.32436755299568176,"3":0.3855780065059662,"4":0.056026946753263474},{"0":0.35565364360809326,"1":0.4169144630432129,"2":0.24880371987819672,"3":0.07662812620401382,"4":0.0330604650080204}]],[[{"0":-0.03380557522177696,"1":-0.02558293752372265,"2":-0.09761056303977966,"3":0.1730501502752304,"4":0.23801207542419434},{"0":-0.008994425646960735,"1":0.11830665916204453,"2":0.11201772093772888,"3":0.5866987705230713,"4":0.5920934677124023},{"0":0.09536487609148026,"1":-0.11531037837266922,"2":0.14233991503715515,"3":0.46647101640701294,"4":0.324995756149292},{"0":-0.021151825785636902,"1":0.11361168324947357,"2":0.11393314599990845,"3":0.017600949853658676,"4":0.46505340933799744},{"0":0.050874266773462296,"1":0.009239601902663708,"2":-0.06555474549531937,"3":-0.24997033178806305,"4":-0.22081537544727325}]],[[{"0":-0.31812307238578796,"1":0.12910859286785126,"2":-0.07594528049230576,"3":-0.167978897690773,"4":-0.11890576034784317},{"0":0.03083501197397709,"1":0.31348931789398193,"2":0.1806926131248474,"3":-0.21020828187465668,"4":0.06887131184339523},{"0":0.24207822978496552,"1":-0.00434770155698061,"2":-0.02299255132675171,"3":-0.07759102433919907,"4":-0.36799272894859314},{"0":0.26580461859703064,"1":-0.14158815145492554,"2":0.4611755907535553,"3":0.2577698230743408,"4":0.0322783999145031},{"0":-0.33169621229171753,"1":0.2339722067117691,"2":0.027638522908091545,"3":0.2795659899711609,"4":0.2839822769165039}]]],"bias":{"0":0.04561338573694229,"1":-0.2754078805446625,"2":-0.20112617313861847,"3":0.06036612391471863,"4":-0.3096666634082794,"5":-0.1250196099281311,"6":-0.1561882048845291,"7":0.0692850798368454}},{"tipo":"relu"},{"tipo":"maxPool","size":2},{"tipo":"conv2d","inChannels":8,"outChannels":16,"kernelSize":3,"lastOutputShape":[16,3,3],"kernels":[[[{"0":0.12990595400333405,"1":-0.011215383186936378,"2":0.12174330651760101},{"0":-0.16520467400550842,"1":-0.15530221164226532,"2":-0.01743771880865097},{"0":-0.11638059467077255,"1":-0.19354291260242462,"2":-0.05160282179713249}],[{"0":0.09509007632732391,"1":0.11070145666599274,"2":-0.14654956758022308},{"0":0.1706314980983734,"1":-0.08092038333415985,"2":-0.26491808891296387},{"0":-0.09182313084602356,"1":-0.33049991726875305,"2":-0.1676107794046402}],[{"0":-0.19224271178245544,"1":-0.07828512042760849,"2":0.010796784423291683},{"0":-0.12241538614034653,"1":0.029812905937433243,"2":-0.06629328429698944},{"0":-0.00046359491534531116,"1":-0.14650361239910126,"2":-0.2689501941204071}],[{"0":0.11327879130840302,"1":0.07820340245962143,"2":0.05499359220266342},{"0":0.06814968585968018,"1":0.046448297798633575,"2":-0.05196834355592728},{"0":0.06951846182346344,"1":-0.16369669139385223,"2":-0.20495960116386414}],[{"0":0.14117431640625,"1":0.04692530259490013,"2":0.01222389005124569},{"0":0.10226009041070938,"1":-0.19184723496437073,"2":-0.24753999710083008},{"0":-0.005635381676256657,"1":-0.09633300453424454,"2":-0.22854962944984436}],[{"0":-0.04163745790719986,"1":0.3227267265319824,"2":0.15570558607578278},{"0":0.26429733633995056,"1":-0.07420126348733902,"2":-0.29248180985450745},{"0":-0.003461869666352868,"1":-0.059948910027742386,"2":-0.036239489912986755}],[{"0":-0.1604861170053482,"1":0.08199188113212585,"2":0.09736935794353485},{"0":0.1556665152311325,"1":0.2745571434497833,"2":-0.01813841611146927},{"0":0.1753225177526474,"1":-0.28926417231559753,"2":-0.22601696848869324}],[{"0":0.0015176116721704602,"1":-0.10813318938016891,"2":-0.1034267246723175},{"0":-0.002801273250952363,"1":-0.044422414153814316,"2":0.20377995073795319},{"0":-0.013664654456079006,"1":0.07921678572893143,"2":-0.06564647704362869}]],[[{"0":0.13631871342658997,"1":0.15681126713752747,"2":0.15538811683654785},{"0":-0.04657066985964775,"1":-0.18168330192565918,"2":-0.23983289301395416},{"0":-0.03283367305994034,"1":-0.1533976048231125,"2":-0.19270935654640198}],[{"0":0.12199945002794266,"1":0.17106924951076508,"2":-0.07485576719045639},{"0":-0.11187349259853363,"1":0.055403146892786026,"2":-0.3422916531562805},{"0":-0.17369580268859863,"1":-0.3325576186180115,"2":-0.3491661250591278}],[{"0":-0.10491231828927994,"1":-0.06440549343824387,"2":-0.12635257840156555},{"0":-0.17273929715156555,"1":-0.09023814648389816,"2":-0.1259450763463974},{"0":-0.05899946764111519,"1":-0.010032323189079762,"2":-0.12882021069526672}],[{"0":0.06758634746074677,"1":0.1443295180797577,"2":0.22558705508708954},{"0":-0.06173831969499588,"1":-0.029820265248417854,"2":0.09994419664144516},{"0":0.08822586387395859,"1":-0.05361561477184296,"2":-0.3042723834514618}],[{"0":-0.08732332289218903,"1":-0.09240834414958954,"2":0.13489633798599243},{"0":-0.12112977355718613,"1":0.09049069881439209,"2":0.014653180725872517},{"0":-0.1544114351272583,"1":-0.19322118163108826,"2":-0.10434608906507492}],[{"0":0.08293171972036362,"1":0.25941312313079834,"2":0.07444807142019272},{"0":0.14962773025035858,"1":-0.03752589970827103,"2":-0.10895148664712906},{"0":-0.053060926496982574,"1":-0.27061915397644043,"2":-0.12875787913799286}],[{"0":0.13144615292549133,"1":0.189992755651474,"2":0.04013524577021599},{"0":0.1648387610912323,"1":0.23043125867843628,"2":0.009357431903481483},{"0":0.07873106747865677,"1":-0.04279749095439911,"2":-0.19292733073234558}],[{"0":0.0958729162812233,"1":0.1624813824892044,"2":0.11277709901332855},{"0":0.026745375245809555,"1":0.12846685945987701,"2":-0.06665749102830887},{"0":0.13393819332122803,"1":-0.23143775761127472,"2":-0.1733492761850357}]],[[{"0":0.019619664177298546,"1":-0.08693244308233261,"2":0.20872357487678528},{"0":-0.18883588910102844,"1":-0.17381426692008972,"2":-0.0947616845369339},{"0":0.08595301955938339,"1":0.12779711186885834,"2":-0.1665649265050888}],[{"0":-0.023680347949266434,"1":-0.10137951374053955,"2":0.05004475638270378},{"0":0.05184732750058174,"1":0.05899326503276825,"2":0.06155999377369881},{"0":-0.06095382198691368,"1":0.05526362359523773,"2":-0.04177970439195633}],[{"0":-0.13733035326004028,"1":0.06020563095808029,"2":0.1060657799243927},{"0":0.09236324578523636,"1":-0.17265759408473969,"2":0.2003219872713089},{"0":-0.014232691377401352,"1":0.006380890030413866,"2":-0.038863662630319595}],[{"0":0.050979286432266235,"1":-0.08473764359951019,"2":0.002638292033225298},{"0":0.05615437403321266,"1":-0.07492654025554657,"2":0.07690204679965973},{"0":-0.09519720822572708,"1":-0.04216543212532997,"2":-0.08675944805145264}],[{"0":0.13217264413833618,"1":0.07637599110603333,"2":0.18150125443935394},{"0":-0.17910656332969666,"1":0.0803876742720604,"2":0.14351309835910797},{"0":0.027552178129553795,"1":-0.14843687415122986,"2":-0.03222038224339485}],[{"0":-0.014120862819254398,"1":0.07915657013654709,"2":-0.12616972625255585},{"0":0.015764348208904266,"1":-0.0850975289940834,"2":0.017855621874332428},{"0":0.11999465525150299,"1":-0.1174623966217041,"2":-0.08130841702222824}],[{"0":0.18785622715950012,"1":0.132449671626091,"2":0.08304400742053986},{"0":-0.11922077089548111,"1":-0.05187126249074936,"2":0.0478890985250473},{"0":0.006250058766454458,"1":0.0706663504242897,"2":0.04949936643242836}],[{"0":0.019834673032164574,"1":0.0739448219537735,"2":0.0777718722820282},{"0":0.016519878059625626,"1":-0.09426790475845337,"2":-0.1479381024837494},{"0":0.04637232422828674,"1":-0.043462373316287994,"2":-0.11883379518985748}]],[[{"0":0.17834462225437164,"1":0.19108635187149048,"2":-0.27866634726524353},{"0":0.14086082577705383,"1":0.09671304374933243,"2":-0.13234327733516693},{"0":0.037285853177309036,"1":0.18972191214561462,"2":-0.18686813116073608}],[{"0":-0.039897892624139786,"1":-0.08588473498821259,"2":-0.2361045479774475},{"0":-0.08924911171197891,"1":-0.027307305485010147,"2":-0.20999370515346527},{"0":-0.1388414055109024,"1":0.10951521247625351,"2":0.06908532977104187}],[{"0":0.2143351286649704,"1":0.03377310931682587,"2":-0.055597174912691116},{"0":0.1003253161907196,"1":-0.14912256598472595,"2":-0.014964746311306953},{"0":0.28302374482154846,"1":0.034069351851940155,"2":-0.03353343904018402}],[{"0":0.13255201280117035,"1":0.07357911020517349,"2":-0.22918817400932312},{"0":0.0255157221108675,"1":-0.08712942898273468,"2":-0.2725180983543396},{"0":0.10592646151781082,"1":-0.14346681535243988,"2":-0.18130460381507874}],[{"0":-0.11833231896162033,"1":-0.08268808573484421,"2":0.07550914585590363},{"0":0.032285913825035095,"1":0.00522543815895915,"2":-0.19587591290473938},{"0":-0.0028944688383489847,"1":-0.08523470908403397,"2":-0.06247700750827789}],[{"0":0.08906005322933197,"1":-0.2613028287887573,"2":-0.04675043746829033},{"0":0.028597211465239525,"1":-0.22919625043869019,"2":-0.18527530133724213},{"0":0.09624644368886948,"1":-0.3059241473674774,"2":-0.15531812608242035}],[{"0":0.1420484334230423,"1":-0.10693841427564621,"2":-0.02487299032509327},{"0":0.06002803519368172,"1":-0.19447973370552063,"2":-0.0987720638513565},{"0":0.0812700018286705,"1":-0.10495060682296753,"2":-0.07471594214439392}],[{"0":0.025165917351841927,"1":0.10661222785711288,"2":-0.22881661355495453},{"0":0.19173651933670044,"1":0.02574075199663639,"2":-0.13274864852428436},{"0":0.14527922868728638,"1":-0.1325235217809677,"2":-0.04651905596256256}]],[[{"0":0.08370796591043472,"1":-0.03875141590833664,"2":0.11039436608552933},{"0":-0.09873270243406296,"1":-0.25651970505714417,"2":-0.18280544877052307},{"0":-0.027698833495378494,"1":0.0773465633392334,"2":0.027966158464550972}],[{"0":0.09919530153274536,"1":0.17275749146938324,"2":0.21499867737293243},{"0":-0.18443162739276886,"1":-0.19867263734340668,"2":-0.07445236295461655},{"0":0.023099727928638458,"1":0.0934157595038414,"2":0.1147805005311966}],[{"0":-0.0672152191400528,"1":-0.09122733026742935,"2":-0.08815501630306244},{"0":-0.04508442431688309,"1":-0.14901146292686462,"2":-0.15561388432979584},{"0":-0.24345490336418152,"1":-0.025296280160546303,"2":-0.058716509491205215}],[{"0":0.1092553585767746,"1":0.12311013042926788,"2":-0.06524574011564255},{"0":0.1224932000041008,"1":-0.07172389328479767,"2":0.1386086493730545},{"0":0.18907414376735687,"1":0.16385385394096375,"2":0.09069472551345825}],[{"0":0.03777110576629639,"1":-0.16361184418201447,"2":-0.15433093905448914},{"0":0.09937708079814911,"1":0.09944585710763931,"2":0.12206032127141953},{"0":0.09810283035039902,"1":0.15675516426563263,"2":0.09156351536512375}],[{"0":0.20768900215625763,"1":0.06346235424280167,"2":0.14680792391300201},{"0":-0.12786920368671417,"1":-0.2076447457075119,"2":-0.13950245082378387},{"0":0.0866684690117836,"1":0.1988891065120697,"2":0.1437874436378479}],[{"0":-0.1061980277299881,"1":0.05215051770210266,"2":0.04213801398873329},{"0":-0.06513538956642151,"1":-0.08213824778795242,"2":0.09493187069892883},{"0":-0.05934423953294754,"1":-0.03170820698142052,"2":-0.09219636023044586}],[{"0":0.03105146996676922,"1":0.2157086730003357,"2":-0.07983894646167755},{"0":-0.00007061665382934734,"1":-0.1173921525478363,"2":0.04654905945062637},{"0":-0.059319160878658295,"1":-0.13646471500396729,"2":-0.15963588654994965}]],[[{"0":0.05251578241586685,"1":-0.008944293484091759,"2":-0.3196486234664917},{"0":0.1965787410736084,"1":-0.11126954108476639,"2":-0.22113986313343048},{"0":0.07985780388116837,"1":-0.2812676727771759,"2":0.11313522607088089}],[{"0":0.13302677869796753,"1":-0.009926652535796165,"2":-0.07935167104005814},{"0":0.06982239335775375,"1":0.09644325077533722,"2":0.05721757560968399},{"0":-0.1817581057548523,"1":-0.07735384255647659,"2":-0.08801351487636566}],[{"0":0.18338295817375183,"1":-0.08293139934539795,"2":-0.11794007569551468},{"0":0.0779399573802948,"1":-0.21978189051151276,"2":0.10077822953462601},{"0":0.0015779922250658274,"1":0.009691606275737286,"2":0.2557142674922943}],[{"0":0.2880276143550873,"1":-0.13151557743549347,"2":-0.27067673206329346},{"0":0.10725664347410202,"1":-0.28055182099342346,"2":0.10188742727041245},{"0":-0.043131273239851,"1":-0.21357159316539764,"2":0.030154913663864136}],[{"0":-0.0232368353754282,"1":-0.15521113574504852,"2":-0.28228095173835754},{"0":-0.12630987167358398,"1":0.15578041970729828,"2":-0.13335156440734863},{"0":0.002607339760288596,"1":0.17133919894695282,"2":-0.04552624374628067}],[{"0":0.032909974455833435,"1":-0.30804887413978577,"2":-0.26145511865615845},{"0":0.09986045956611633,"1":0.0038187974132597446,"2":0.03184708207845688},{"0":-0.06493926793336868,"1":0.10386648774147034,"2":0.17798936367034912}],[{"0":0.20854489505290985,"1":-0.22668932378292084,"2":-0.2644592225551605},{"0":-0.17997176945209503,"1":-0.027379771694540977,"2":-0.12017293274402618},{"0":-0.11288664489984512,"1":0.13628838956356049,"2":0.13542209565639496}],[{"0":0.09309019148349762,"1":-0.05594338849186897,"2":-0.19722409546375275},{"0":0.06361990422010422,"1":-0.07929433137178421,"2":-0.019341271370649338},{"0":0.10451260954141617,"1":-0.19168221950531006,"2":0.009389346465468407}]],[[{"0":-0.19535541534423828,"1":0.11217688769102097,"2":0.1717250794172287},{"0":-0.35088056325912476,"1":-0.17946438491344452,"2":-0.004917880054563284},{"0":-0.2682027816772461,"1":-0.2727871835231781,"2":-0.07365825027227402}],[{"0":-0.06542949378490448,"1":0.07629650831222534,"2":0.12436868995428085},{"0":0.04347772151231766,"1":-0.1394495964050293,"2":0.04853679612278938},{"0":-0.155988872051239,"1":-0.1552860140800476,"2":-0.27768459916114807}],[{"0":-0.19695372879505157,"1":0.30178093910217285,"2":0.2289685159921646},{"0":-0.09356322884559631,"1":0.04919596016407013,"2":0.02025250345468521},{"0":-0.12687860429286957,"1":-0.25836992263793945,"2":0.034674450755119324}],[{"0":-0.424390584230423,"1":-0.021554064005613327,"2":0.07249295711517334},{"0":-0.5365374684333801,"1":-0.12674303352832794,"2":0.08816949278116226},{"0":-0.3788370192050934,"1":-0.11935434490442276,"2":-0.1640755981206894}],[{"0":0.15681634843349457,"1":0.3123919665813446,"2":0.1966795176267624},{"0":0.042538195848464966,"1":0.22531408071517944,"2":0.039611414074897766},{"0":-0.315116286277771,"1":0.05224866420030594,"2":-0.04090304300189018}],[{"0":0.051622241735458374,"1":0.1225130558013916,"2":-0.03714681789278984},{"0":0.030777165666222572,"1":0.11739332228899002,"2":0.11718922853469849},{"0":-0.3016939163208008,"1":-0.09345642477273941,"2":-0.04245049133896828}],[{"0":-0.057067129760980606,"1":0.14385934174060822,"2":-0.02486930973827839},{"0":-0.10575329512357712,"1":0.17357949912548065,"2":-0.05041775107383728},{"0":-0.40864047408103943,"1":-0.15649284422397614,"2":0.13824987411499023}],[{"0":-0.35249364376068115,"1":-0.03132770210504532,"2":0.1739405393600464},{"0":-0.4813613295555115,"1":-0.41975244879722595,"2":0.03511468321084976},{"0":-0.22471284866333008,"1":-0.25604772567749023,"2":-0.15508586168289185}]],[[{"0":-0.3061892092227936,"1":0.13826000690460205,"2":0.2084890604019165},{"0":-0.26868975162506104,"1":0.049371276050806046,"2":0.17594380676746368},{"0":-0.2865166962146759,"1":0.01903054490685463,"2":0.197434663772583}],[{"0":-0.1367005854845047,"1":-0.01887887716293335,"2":0.08042728155851364},{"0":0.14244696497917175,"1":0.03348598629236221,"2":0.1959303468465805},{"0":-0.033756323158741,"1":-0.03130926936864853,"2":0.014337228611111641}],[{"0":0.056257136166095734,"1":0.3162904381752014,"2":-0.07187764346599579},{"0":0.027885476127266884,"1":0.07890678197145462,"2":-0.08077351003885269},{"0":-0.25160571932792664,"1":0.21743778884410858,"2":-0.07279014587402344}],[{"0":-0.16330772638320923,"1":0.028222734108567238,"2":-0.01642141118645668},{"0":-0.22654426097869873,"1":-0.010905563831329346,"2":0.09588626772165298},{"0":-0.2966013252735138,"1":0.09368883818387985,"2":0.21438859403133392}],[{"0":-0.005693032406270504,"1":-0.06828642636537552,"2":-0.232426255941391},{"0":0.1648758351802826,"1":-0.002226881217211485,"2":-0.04033704102039337},{"0":0.08198312669992447,"1":0.18375900387763977,"2":0.04910102114081383}],[{"0":0.061628714203834534,"1":-0.0042785643599927425,"2":-0.2651973366737366},{"0":0.014335249550640583,"1":0.19565609097480774,"2":-0.13831397891044617},{"0":-0.12210296094417572,"1":0.12675966322422028,"2":-0.1819157600402832}],[{"0":-0.13893482089042664,"1":0.03351878002285957,"2":-0.3821589946746826},{"0":0.11695153266191483,"1":0.05708439648151398,"2":-0.05925661325454712},{"0":-0.053630467504262924,"1":-0.06993614882230759,"2":-0.21592296659946442}],[{"0":-0.2613665461540222,"1":-0.00977933406829834,"2":-0.11328531056642532},{"0":-0.27511024475097656,"1":0.022799687460064888,"2":-0.0664878562092781},{"0":-0.09484545886516571,"1":0.07610095292329788,"2":0.04303257539868355}]],[[{"0":-0.026674287393689156,"1":0.13107295334339142,"2":0.1301419585943222},{"0":-0.13704152405261993,"1":-0.03309871256351471,"2":0.12052691727876663},{"0":-0.16107703745365143,"1":-0.20946356654167175,"2":-0.09694197028875351}],[{"0":-0.07193596661090851,"1":-0.09536032378673553,"2":0.1125667467713356},{"0":0.09028822183609009,"1":0.10309559851884842,"2":-0.02021160162985325},{"0":-0.007744219154119492,"1":0.11551808565855026,"2":0.1328326165676117}],[{"0":0.10977071523666382,"1":0.11875823140144348,"2":-0.02971176616847515},{"0":-0.05524216219782829,"1":-0.07607869803905487,"2":0.061531003564596176},{"0":0.05913597717881203,"1":-0.098761186003685,"2":0.054175496101379395}],[{"0":0.14265111088752747,"1":-0.13708029687404633,"2":0.002821918809786439},{"0":-0.09349018335342407,"1":-0.1600155383348465,"2":0.08188065141439438},{"0":-0.23419450223445892,"1":-0.1997080147266388,"2":0.18658562004566193}],[{"0":0.05127625912427902,"1":0.15966957807540894,"2":0.013356830924749374},{"0":-0.12473942339420319,"1":0.084515281021595,"2":0.022271567955613136},{"0":-0.1571170836687088,"1":0.01176915131509304,"2":0.10301095992326736}],[{"0":0.13241605460643768,"1":0.14485473930835724,"2":-0.1643076241016388},{"0":0.06271737813949585,"1":0.21191993355751038,"2":-0.11644614487886429},{"0":0.1005706787109375,"1":0.04271065071225166,"2":0.16145408153533936}],[{"0":0.15496090054512024,"1":0.13458868861198425,"2":0.011364592239260674},{"0":0.1409539133310318,"1":0.09460325539112091,"2":0.0714639350771904},{"0":0.11516726016998291,"1":0.1229502335190773,"2":-0.004231167957186699}],[{"0":0.1119418740272522,"1":0.10305726528167725,"2":0.0006352345226332545},{"0":0.047650016844272614,"1":0.04147488623857498,"2":-0.051452185958623886},{"0":-0.25158482789993286,"1":-0.05109424889087677,"2":-0.027002155780792236}]],[[{"0":0.0013782501919195056,"1":-0.10643451660871506,"2":0.07653214037418365},{"0":0.036566611379384995,"1":0.07629849016666412,"2":0.10593754053115845},{"0":0.06915127485990524,"1":-0.12036432325839996,"2":-0.030442014336586}],[{"0":-0.14266632497310638,"1":-0.07679647952318192,"2":0.11377087235450745},{"0":0.06832501292228699,"1":0.09911048412322998,"2":-0.037205129861831665},{"0":-0.0066011385060846806,"1":-0.1556011140346527,"2":0.0010032617719843984}],[{"0":-0.09625589847564697,"1":-0.0778924822807312,"2":-0.07376966625452042},{"0":-0.09600773453712463,"1":0.11834680289030075,"2":0.10383956879377365},{"0":0.1756879836320877,"1":0.15418359637260437,"2":0.10579828917980194}],[{"0":0.09865926951169968,"1":-0.08235015720129013,"2":-0.1422383338212967},{"0":0.19094504415988922,"1":-0.1295437216758728,"2":0.03425760567188263},{"0":-0.13580204546451569,"1":0.08148173242807388,"2":0.15483225882053375}],[{"0":-0.12251465767621994,"1":-0.14518216252326965,"2":-0.01532493345439434},{"0":-0.009002015925943851,"1":0.1536799520254135,"2":-0.052645448595285416},{"0":0.13969889283180237,"1":0.048696037381887436,"2":-0.04085274785757065}],[{"0":-0.044552795588970184,"1":0.09980447590351105,"2":-0.18627485632896423},{"0":0.02055005170404911,"1":-0.07067534327507019,"2":-0.20951786637306213},{"0":-0.13599668443202972,"1":-0.18822084367275238,"2":-0.1378173977136612}],[{"0":0.07038825005292892,"1":-0.023937027901411057,"2":0.020583707839250565},{"0":-0.11546006053686142,"1":0.04650099202990532,"2":-0.01731616072356701},{"0":0.17254693806171417,"1":0.08270701766014099,"2":0.005695782136172056}],[{"0":0.13646887242794037,"1":0.03920160233974457,"2":0.10623500496149063},{"0":0.004531968850642443,"1":0.08121901750564575,"2":0.23536652326583862},{"0":-0.07406453788280487,"1":0.1828904002904892,"2":0.13127073645591736}]],[[{"0":-0.022045312449336052,"1":-0.23276059329509735,"2":-0.03813117742538452},{"0":-0.17256928980350494,"1":-0.05948755890130997,"2":0.12211000174283981},{"0":-0.25116217136383057,"1":-0.07511002570390701,"2":-0.13518056273460388}],[{"0":-0.08238007128238678,"1":-0.07872361689805984,"2":0.15476465225219727},{"0":-0.16388066112995148,"1":-0.04154510423541069,"2":0.01609855517745018},{"0":-0.15484517812728882,"1":-0.10430300235748291,"2":0.05411958321928978}],[{"0":-0.00019209399761166424,"1":-0.20495504140853882,"2":0.1135554239153862},{"0":-0.02355552278459072,"1":-0.13886964321136475,"2":0.10576343536376953},{"0":-0.14027728140354156,"1":-0.27504944801330566,"2":0.22188279032707214}],[{"0":-0.2882384955883026,"1":-0.22079330682754517,"2":-0.08429557085037231},{"0":-0.29359567165374756,"1":-0.12822867929935455,"2":-0.05039936676621437},{"0":-0.28932780027389526,"1":-0.3330044746398926,"2":0.2378692924976349}],[{"0":-0.2178487926721573,"1":0.1681722104549408,"2":0.19964151084423065},{"0":-0.1852114051580429,"1":0.11700491607189178,"2":0.19227232038974762},{"0":-0.11639488488435745,"1":0.3048713803291321,"2":0.17999175190925598}],[{"0":-0.11699516326189041,"1":0.07535077631473541,"2":0.16611512005329132},{"0":-0.11282191425561905,"1":-0.032821208238601685,"2":-0.018159586936235428},{"0":-0.2583950459957123,"1":0.01679867133498192,"2":0.19577434659004211}],[{"0":-0.36783385276794434,"1":0.03838527947664261,"2":-0.10512331128120422},{"0":-0.1724829077720642,"1":0.009041709825396538,"2":0.12633666396141052},{"0":-0.046907808631658554,"1":-0.018526246771216393,"2":0.05873331427574158}],[{"0":-0.1581224501132965,"1":-0.2578689455986023,"2":-0.018842529505491257},{"0":-0.2094944417476654,"1":-0.02907276153564453,"2":-0.11541523784399033},{"0":-0.09025692939758301,"1":-0.0789242535829544,"2":0.10757363587617874}]],[[{"0":0.13587310910224915,"1":0.09684812277555466,"2":-0.09444154798984528},{"0":0.15510259568691254,"1":0.005076026078313589,"2":-0.12009868025779724},{"0":-0.027391880750656128,"1":0.06268029659986496,"2":0.12919896841049194}],[{"0":0.008955445140600204,"1":0.0045202746987342834,"2":-0.22228913009166718},{"0":0.09779959917068481,"1":-0.005362178664654493,"2":-0.1622770130634308},{"0":-0.017296969890594482,"1":0.028357775881886482,"2":0.10844157636165619}],[{"0":0.14261238276958466,"1":-0.0584057942032814,"2":-0.043307896703481674},{"0":0.27602773904800415,"1":0.2335960417985916,"2":-0.14849354326725006},{"0":0.2191309779882431,"1":0.19231756031513214,"2":-0.23059715330600739}],[{"0":-0.11564059555530548,"1":-0.0751449316740036,"2":-0.10348495841026306},{"0":-0.01761203445494175,"1":0.08620579540729523,"2":-0.05081884562969208},{"0":0.07662254571914673,"1":0.12585783004760742,"2":-0.17718511819839478}],[{"0":0.21515771746635437,"1":-0.12959764897823334,"2":-0.0964902713894844},{"0":0.1653701364994049,"1":-0.18536296486854553,"2":-0.20178943872451782},{"0":-0.06537618488073349,"1":-0.05710311979055405,"2":-0.17768539488315582}],[{"0":-0.014845382422208786,"1":0.12589184939861298,"2":-0.06032221019268036},{"0":-0.043913986533880234,"1":-0.21891139447689056,"2":-0.06533768028020859},{"0":0.17977695167064667,"1":-0.10152186453342438,"2":-0.115082748234272}],[{"0":0.16458667814731598,"1":-0.05757949873805046,"2":-0.10436729341745377},{"0":0.1803876906633377,"1":-0.18061134219169617,"2":-0.18349207937717438},{"0":0.16929900646209717,"1":-0.1292923390865326,"2":-0.26078149676322937}],[{"0":-0.04287152737379074,"1":0.09807513654232025,"2":-0.01465834304690361},{"0":-0.07105078548192978,"1":0.0929432064294815,"2":0.06172901391983032},{"0":-0.14737291634082794,"1":0.16450083255767822,"2":0.14136902987957}]],[[{"0":-0.10352873802185059,"1":0.1234368160367012,"2":-0.06112642586231232},{"0":0.029675154015421867,"1":-0.07177642732858658,"2":0.028268864378333092},{"0":-0.05433471500873566,"1":-0.021913127973675728,"2":-0.12335224449634552}],[{"0":0.07350543886423111,"1":0.12948212027549744,"2":0.2480107545852661},{"0":0.17632654309272766,"1":0.051425348967313766,"2":0.23140700161457062},{"0":0.041772060096263885,"1":-0.053076256066560745,"2":-0.2816121578216553}],[{"0":-0.22793924808502197,"1":-0.11772480607032776,"2":-0.13529753684997559},{"0":-0.245439812541008,"1":-0.19737188518047333,"2":0.10474313795566559},{"0":-0.15247878432273865,"1":0.04013371840119362,"2":-0.18235629796981812}],[{"0":-0.08855988085269928,"1":-0.025229675695300102,"2":-0.09438713639974594},{"0":-0.05182301253080368,"1":0.19608038663864136,"2":0.15114103257656097},{"0":-0.17679405212402344,"1":0.07059386372566223,"2":-0.05711515247821808}],[{"0":-0.24484126269817352,"1":0.12746812403202057,"2":0.10720717906951904},{"0":-0.11447165161371231,"1":0.04575984179973602,"2":0.010775167495012283},{"0":0.11739539355039597,"1":-0.16831384599208832,"2":-0.2278209924697876}],[{"0":-0.10733256489038467,"1":0.014911600388586521,"2":0.2928805351257324},{"0":0.06231590732932091,"1":0.37074196338653564,"2":0.22179429233074188},{"0":0.03689468279480934,"1":0.1674051433801651,"2":-0.042353179305791855}],[{"0":-0.27398669719696045,"1":-0.25089627504348755,"2":0.09719476103782654},{"0":-0.2415112406015396,"1":0.17951588332653046,"2":0.1862107366323471},{"0":0.09260692447423935,"1":0.08674520254135132,"2":-0.07809099555015564}],[{"0":-0.10001824051141739,"1":0.06843328475952148,"2":0.04246506467461586},{"0":-0.13428305089473724,"1":-0.0009560888283886015,"2":-0.13108056783676147},{"0":-0.15340247750282288,"1":-0.20655447244644165,"2":0.029741179198026657}]],[[{"0":-0.02973984181880951,"1":-0.06800235062837601,"2":-0.26288411021232605},{"0":-0.0789269357919693,"1":0.07797496765851974,"2":0.24310193955898285},{"0":-0.004660232923924923,"1":0.07375958561897278,"2":-0.02257050760090351}],[{"0":-0.17377164959907532,"1":0.005519526544958353,"2":-0.050942160189151764},{"0":-0.006377745419740677,"1":-0.0646054744720459,"2":-0.006573043297976255},{"0":0.11420612782239914,"1":0.05415558069944382,"2":0.12667211890220642}],[{"0":-0.003689792472869158,"1":-0.15873190760612488,"2":-0.47799646854400635},{"0":-0.002375106792896986,"1":-0.06669752299785614,"2":0.058080025017261505},{"0":-0.027036815881729126,"1":0.24625572562217712,"2":0.2581595480442047}],[{"0":-0.19405382871627808,"1":-0.23027180135250092,"2":-0.14556507766246796},{"0":-0.19362647831439972,"1":-0.05929020419716835,"2":-0.023323779925704002},{"0":0.06929455697536469,"1":0.16182240843772888,"2":0.13789433240890503}],[{"0":-0.21031036972999573,"1":-0.39421629905700684,"2":-0.47764110565185547},{"0":-0.07709150016307831,"1":0.02524818666279316,"2":-0.050621211528778076},{"0":0.010055780410766602,"1":0.07155533134937286,"2":-0.027158772572875023}],[{"0":-0.07724929600954056,"1":-0.030961137264966965,"2":-0.025272168219089508},{"0":-0.11587885767221451,"1":0.05308527499437332,"2":-0.03325710818171501},{"0":0.09893052279949188,"1":0.2625613510608673,"2":0.19020912051200867}],[{"0":-0.40527549386024475,"1":-0.3461987376213074,"2":-0.4700639843940735},{"0":-0.1153092011809349,"1":-0.05835997685790062,"2":-0.33764931559562683},{"0":0.08886127173900604,"1":0.2346184104681015,"2":0.270529180765152}],[{"0":-0.15693436563014984,"1":-0.10171087086200714,"2":-0.07500306516885757},{"0":-0.041084978729486465,"1":0.11949537694454193,"2":0.34959128499031067},{"0":0.19945424795150757,"1":0.029105793684720993,"2":0.18888698518276215}]],[[{"0":0.07012225687503815,"1":-0.10501731187105179,"2":-0.19318954646587372},{"0":-0.004521241877228022,"1":-0.04212215170264244,"2":-0.1843416541814804},{"0":0.04277202486991882,"1":0.02262166701257229,"2":-0.24142706394195557}],[{"0":0.24190057814121246,"1":-0.05016777291893959,"2":0.021465832367539406},{"0":0.15189287066459656,"1":0.09160632640123367,"2":0.07106809318065643},{"0":-0.21809591352939606,"1":-0.11855681240558624,"2":0.28772884607315063}],[{"0":0.24805010855197906,"1":-0.059659648686647415,"2":0.05408201366662979},{"0":0.0754416286945343,"1":0.22243361175060272,"2":0.19138725101947784},{"0":-0.0010723029263317585,"1":-0.01169354747980833,"2":0.1459685117006302}],[{"0":0.0050573209300637245,"1":-0.10811647772789001,"2":0.0005191948730498552},{"0":0.08913975208997726,"1":-0.07561703771352768,"2":-0.056429605931043625},{"0":-0.013640559278428555,"1":-0.29536697268486023,"2":0.06208106875419617}],[{"0":0.10360956192016602,"1":-0.207243412733078,"2":0.24567632377147675},{"0":0.08944772183895111,"1":-0.20134520530700684,"2":0.17227531969547272},{"0":-0.14936718344688416,"1":-0.15615469217300415,"2":0.27586138248443604}],[{"0":0.09446950256824493,"1":-0.12491423636674881,"2":-0.008894856087863445},{"0":-0.15156789124011993,"1":-0.23790301382541656,"2":0.026315394788980484},{"0":-0.1396920084953308,"1":-0.32371950149536133,"2":0.0954926460981369}],[{"0":-0.00047094401088543236,"1":-0.15261508524417877,"2":0.05146351084113121},{"0":-0.1629955768585205,"1":-0.2907941937446594,"2":0.15111972391605377},{"0":-0.16180281341075897,"1":-0.3802277743816376,"2":0.2093833088874817}],[{"0":0.028232647106051445,"1":-0.13999785482883453,"2":-0.24088133871555328},{"0":-0.04202717915177345,"1":-0.18257355690002441,"2":-0.13785573840141296},{"0":-0.19149135053157806,"1":-0.06220719963312149,"2":-0.19295455515384674}]],[[{"0":0.019453154876828194,"1":0.06594535708427429,"2":0.07375891506671906},{"0":0.03392414376139641,"1":0.043068576604127884,"2":0.02908150851726532},{"0":0.03615710511803627,"1":0.068825863301754,"2":0.16558784246444702}],[{"0":-0.09654995799064636,"1":0.13089288771152496,"2":-0.15982669591903687},{"0":0.21487972140312195,"1":0.0927240401506424,"2":-0.038887083530426025},{"0":0.03799119591712952,"1":-0.07056586444377899,"2":0.12322957813739777}],[{"0":0.212258443236351,"1":-0.07542726397514343,"2":0.07931201159954071},{"0":0.07994575053453445,"1":0.17109808325767517,"2":0.16692130267620087},{"0":0.1387210339307785,"1":0.09893417358398438,"2":-0.003689515870064497}],[{"0":-0.050732094794511795,"1":0.09060061722993851,"2":0.10377344489097595},{"0":-0.07616390287876129,"1":0.09954995661973953,"2":0.1036871001124382},{"0":-0.10003556311130524,"1":0.02213515341281891,"2":-0.015268536284565926}],[{"0":0.22282105684280396,"1":0.17452499270439148,"2":-0.09886320680379868},{"0":0.19799593091011047,"1":0.17131537199020386,"2":-0.0741250142455101},{"0":0.17094005644321442,"1":0.04407605528831482,"2":0.11810407042503357}],[{"0":-0.09080510586500168,"1":0.05477188900113106,"2":-0.044838469475507736},{"0":0.14797557890415192,"1":-0.08442971110343933,"2":-0.12006182223558426},{"0":0.08492948859930038,"1":0.021957628428936005,"2":0.011243144981563091}],[{"0":-0.07353883236646652,"1":-0.06936513632535934,"2":0.03615403547883034},{"0":0.06580617278814316,"1":-0.09863840788602829,"2":-0.07123381644487381},{"0":0.10643216967582703,"1":0.1513969898223877,"2":0.11647002398967743}],[{"0":0.11422481387853622,"1":-0.12784618139266968,"2":-0.025828871876001358},{"0":-0.09764909744262695,"1":-0.029172956943511963,"2":0.08184404671192169},{"0":0.0343572162091732,"1":0.10586658865213394,"2":0.22613517940044403}]]],"bias":{"0":-0.005271376576274633,"1":-0.003159182146191597,"2":-0.1873869150876999,"3":0.1310349702835083,"4":-0.12423477321863174,"5":0.21296067535877228,"6":0.11781077831983566,"7":0.09518446028232574,"8":-0.20922400057315826,"9":-0.18699555099010468,"10":0.06809929758310318,"11":0.09455878287553787,"12":-0.10970518738031387,"13":0.09484504908323288,"14":0.09626069664955139,"15":-0.327043741941452}},{"tipo":"relu"},{"tipo":"maxPool","size":2},{"tipo":"conv2d","inChannels":16,"outChannels":32,"kernelSize":3,"lastOutputShape":[32,3,3],"kernels":[[[{"0":0.04633886367082596,"1":-0.09503062069416046,"2":-0.11644986271858215},{"0":-0.004430518951267004,"1":-0.1405467689037323,"2":-0.007328370586037636},{"0":-0.13088558614253998,"1":-0.12572640180587769,"2":-0.09980597347021103}],[{"0":-0.12187246978282928,"1":-0.04557162895798683,"2":-0.04597248509526253},{"0":-0.09784241020679474,"1":0.06375434994697571,"2":-0.03738362714648247},{"0":-0.23149354755878448,"1":-0.038213763386011124,"2":-0.10311941802501678}],[{"0":0.028614724054932594,"1":-0.12397104501724243,"2":-0.06769710779190063},{"0":0.03205850347876549,"1":0.08423442393541336,"2":-0.019225427880883217},{"0":0.027078397572040558,"1":-0.02116810902953148,"2":-0.057708073407411575}],[{"0":-0.10802249610424042,"1":-0.08530030399560928,"2":-0.027363209053874016},{"0":-0.08813150972127914,"1":-0.16462594270706177,"2":0.05132225155830383},{"0":-0.07147515565156937,"1":0.0050519909709692,"2":0.07970457524061203}],[{"0":-0.024554181843996048,"1":-0.05852419510483742,"2":0.027261575683951378},{"0":-0.1194014698266983,"1":-0.09191053360700607,"2":0.041222356259822845},{"0":-0.14427044987678528,"1":-0.02860650233924389,"2":0.056774310767650604}],[{"0":-0.1505814790725708,"1":0.07841581851243973,"2":-0.0009203518857248127},{"0":-0.09846830368041992,"1":-0.07893224060535431,"2":-0.15135782957077026},{"0":-0.08088310807943344,"1":-0.07721792906522751,"2":0.06033710762858391}],[{"0":-0.008897528052330017,"1":0.16239653527736664,"2":-0.1114681288599968},{"0":0.17164546251296997,"1":-0.07332684099674225,"2":-0.07486262172460556},{"0":0.19157597422599792,"1":0.09366212040185928,"2":-0.1654784083366394}],[{"0":0.08773386478424072,"1":0.08301252871751785,"2":-0.039420004934072495},{"0":-0.0037191431038081646,"1":0.04196391999721527,"2":-0.019854076206684113},{"0":-0.01829550415277481,"1":0.036615677177906036,"2":-0.14040915668010712}],[{"0":-0.020651740953326225,"1":-0.07112608850002289,"2":-0.11851649731397629},{"0":0.04660355672240257,"1":0.08340881764888763,"2":0.024321040138602257},{"0":0.05942453444004059,"1":-0.11397877335548401,"2":0.06985042244195938}],[{"0":-0.07312525063753128,"1":0.10140220075845718,"2":-0.03812330216169357},{"0":-0.12086229771375656,"1":0.05252029374241829,"2":0.07671672850847244},{"0":-0.13877291977405548,"1":0.057650383561849594,"2":-0.017817312851548195}],[{"0":0.09922494739294052,"1":0.16820454597473145,"2":-0.002463571960106492},{"0":0.09874048084020615,"1":0.08506358414888382,"2":0.021577347069978714},{"0":0.08174929767847061,"1":0.07285977900028229,"2":0.08449777960777283}],[{"0":-0.11430945247411728,"1":0.049034710973501205,"2":0.1368226855993271},{"0":-0.30176615715026855,"1":-0.08051659911870956,"2":0.10194505006074905},{"0":-0.21371760964393616,"1":-0.10309261828660965,"2":0.10207875818014145}],[{"0":0.054771538823843,"1":-0.06794735789299011,"2":-0.11074939370155334},{"0":0.043914761394262314,"1":-0.12737563252449036,"2":-0.08517295867204666},{"0":0.09778587520122528,"1":-0.023512354120612144,"2":-0.06669087707996368}],[{"0":-0.26604539155960083,"1":-0.06430315971374512,"2":0.03833373636007309},{"0":-0.25367558002471924,"1":-0.0015627784887328744,"2":-0.19985100626945496},{"0":-0.27860143780708313,"1":-0.10795371234416962,"2":-0.2355644404888153}],[{"0":0.055956073105335236,"1":0.07204404473304749,"2":0.057181648910045624},{"0":0.2111441045999527,"1":0.09346813708543777,"2":0.07322841137647629},{"0":0.21134060621261597,"1":-0.04216429591178894,"2":0.11991085112094879}],[{"0":-0.07682529836893082,"1":0.13664278388023376,"2":0.06621890515089035},{"0":-0.06300215423107147,"1":-0.0006776195368729532,"2":-0.06586810946464539},{"0":0.019910048693418503,"1":-0.009579397737979889,"2":-0.11767872422933578}]],[[{"0":0.21130156517028809,"1":0.14647327363491058,"2":0.19632381200790405},{"0":-0.05559544265270233,"1":0.051377106457948685,"2":0.282193660736084},{"0":-0.022395726293325424,"1":0.006295196712017059,"2":0.09535913914442062}],[{"0":0.08267723768949509,"1":0.1320417821407318,"2":0.26037758588790894},{"0":-0.06330219656229019,"1":0.02236546017229557,"2":0.17781434953212738},{"0":-0.1625657081604004,"1":0.06634819507598877,"2":0.15822981297969818}],[{"0":0.16704191267490387,"1":-0.04057447239756584,"2":-0.08586512506008148},{"0":0.0004922087537124753,"1":0.0483853854238987,"2":0.06458570063114166},{"0":-0.12699733674526215,"1":0.01894281432032585,"2":-0.1280493289232254}],[{"0":0.12808462977409363,"1":0.010328872129321098,"2":-0.19467787444591522},{"0":-0.025775663554668427,"1":-0.15638799965381622,"2":-0.13583868741989136},{"0":-0.07039006054401398,"1":0.07118924707174301,"2":-0.07606096565723419}],[{"0":0.1483357548713684,"1":0.017940465360879898,"2":-0.03958899527788162},{"0":0.04705308377742767,"1":0.13227441906929016,"2":0.0687464028596878},{"0":-0.028770294040441513,"1":0.012631325051188469,"2":0.14431096613407135}],[{"0":-0.012397176586091518,"1":0.049420084804296494,"2":-0.13264551758766174},{"0":-0.12321598082780838,"1":0.019641924649477005,"2":-0.16225379705429077},{"0":-0.1184825450181961,"1":-0.042307838797569275,"2":-0.06066526472568512}],[{"0":-0.15128393471240997,"1":-0.17942234873771667,"2":-0.3334122896194458},{"0":-0.12677277624607086,"1":-0.1498846858739853,"2":-0.25598227977752686},{"0":-0.09735656529664993,"1":-0.1376512348651886,"2":-0.28548693656921387}],[{"0":-0.07407153397798538,"1":0.04342697933316231,"2":-0.19792746007442474},{"0":-0.07344917953014374,"1":-0.01280047744512558,"2":-0.23432938754558563},{"0":-0.0028893002308905125,"1":0.08465779572725296,"2":-0.28131750226020813}],[{"0":-0.0318593792617321,"1":-0.03816503286361694,"2":0.09068738669157028},{"0":-0.06532533466815948,"1":0.030242938548326492,"2":-0.11253084987401962},{"0":-0.037094663828611374,"1":0.0077967569231987,"2":-0.11050955206155777}],[{"0":0.008931774646043777,"1":-0.04692590981721878,"2":0.10294368863105774},{"0":0.027972962707281113,"1":-0.05933791399002075,"2":-0.028483638539910316},{"0":0.0075368741527199745,"1":0.14841687679290771,"2":-0.030802281573414803}],[{"0":0.2134559005498886,"1":0.16470390558242798,"2":-0.05076643079519272},{"0":0.05903051421046257,"1":0.10075901448726654,"2":-0.25786659121513367},{"0":0.04424426332116127,"1":0.12945720553398132,"2":-0.15410667657852173}],[{"0":-0.04381420463323593,"1":0.043715380132198334,"2":0.037942178547382355},{"0":-0.015441661700606346,"1":-0.008862117305397987,"2":-0.008231071755290031},{"0":-0.11010914295911789,"1":-0.0034140690695494413,"2":0.07278833538293839}],[{"0":0.03656080737709999,"1":0.0787961557507515,"2":0.2256079614162445},{"0":0.06416069716215134,"1":-0.028553377836942673,"2":0.07081902027130127},{"0":0.1131962463259697,"1":0.12904807925224304,"2":-0.17951750755310059}],[{"0":-0.2634526789188385,"1":-0.037134941667318344,"2":0.2358313500881195},{"0":-0.11838526278734207,"1":0.04098210111260414,"2":0.17493954300880432},{"0":0.02285820245742798,"1":-0.07434430718421936,"2":-0.028804833069443703}],[{"0":0.0370946004986763,"1":-0.14535829424858093,"2":-0.2426304668188095},{"0":0.010134722106158733,"1":-0.038221217691898346,"2":-0.22585099935531616},{"0":-0.06494641304016113,"1":-0.01002456247806549,"2":-0.3235742747783661}],[{"0":0.09439992159605026,"1":-0.017724670469760895,"2":-0.09612496942281723},{"0":-0.0990620031952858,"1":-0.08527439832687378,"2":0.06034589558839798},{"0":0.14108367264270782,"1":0.061264943331480026,"2":-0.09732189029455185}]],[[{"0":-0.1826612502336502,"1":-0.05571811646223068,"2":-0.06664226204156876},{"0":-0.1469440460205078,"1":-0.15037059783935547,"2":-0.10272672027349472},{"0":-0.06347925215959549,"1":-0.16325905919075012,"2":-0.1115933507680893}],[{"0":-0.3003048598766327,"1":-0.16876205801963806,"2":-0.1311059147119522},{"0":0.017301402986049652,"1":-0.21779969334602356,"2":-0.09678313136100769},{"0":0.09429415315389633,"1":-0.09395778179168701,"2":-0.2652425467967987}],[{"0":-0.0973241925239563,"1":-0.11095811426639557,"2":-0.023768367245793343},{"0":-0.048061516135931015,"1":-0.03834191709756851,"2":-0.035572074353694916},{"0":0.04032617062330246,"1":0.0027366012800484896,"2":-0.1008709967136383}],[{"0":0.033376261591911316,"1":-0.0382477268576622,"2":-0.15111057460308075},{"0":-0.0309747327119112,"1":-0.028387902304530144,"2":-0.135122612118721},{"0":0.0990968868136406,"1":0.03187346085906029,"2":0.10130522400140762}],[{"0":0.11355453729629517,"1":-0.035066694021224976,"2":-0.1256697177886963},{"0":0.02880425937473774,"1":0.13962288200855255,"2":-0.1337847262620926},{"0":0.11712004244327545,"1":-0.0227939635515213,"2":-0.01950748823583126}],[{"0":-0.007907815277576447,"1":0.004528951831161976,"2":-0.14823655784130096},{"0":0.010044697672128677,"1":-0.004631442483514547,"2":-0.05624217912554741},{"0":0.04247404634952545,"1":-0.033840470016002655,"2":-0.043420299887657166}],[{"0":-0.08779946714639664,"1":0.0075768460519611835,"2":0.019299034029245377},{"0":-0.17225268483161926,"1":0.021789465099573135,"2":-0.009042295627295971},{"0":0.17201630771160126,"1":0.02492496185004711,"2":-0.002280218293890357}],[{"0":-0.006236500572413206,"1":-0.13043628633022308,"2":0.015431427396833897},{"0":0.04893015697598457,"1":-0.2073395699262619,"2":-0.08364827930927277},{"0":0.10890582948923111,"1":0.1141587570309639,"2":0.03177870810031891}],[{"0":-0.12264485657215118,"1":-0.26344749331474304,"2":-0.09262603521347046},{"0":0.043859660625457764,"1":-0.253841370344162,"2":-0.18641707301139832},{"0":0.24925245344638824,"1":0.06289426237344742,"2":-0.035848960280418396}],[{"0":-0.018324535340070724,"1":-0.19583088159561157,"2":-0.11313314735889435},{"0":0.1843472570180893,"1":0.08557963371276855,"2":-0.16037942469120026},{"0":0.12110847979784012,"1":0.06952336430549622,"2":0.1812809407711029}],[{"0":-0.22266140580177307,"1":-0.047708820551633835,"2":-0.01662478782236576},{"0":-0.14010418951511383,"1":-0.15826940536499023,"2":-0.19905926287174225},{"0":0.0681738629937172,"1":-0.008532930165529251,"2":-0.20144930481910706}],[{"0":0.050587259232997894,"1":-0.1065482571721077,"2":-0.13371644914150238},{"0":0.06557521969079971,"1":0.08304839581251144,"2":-0.0850253775715828},{"0":-0.004973803646862507,"1":0.054778389632701874,"2":0.18638257682323456}],[{"0":-0.11819728463888168,"1":-0.11503871530294418,"2":0.007080877665430307},{"0":0.02985900640487671,"1":-0.07669834792613983,"2":-0.20586606860160828},{"0":0.14799857139587402,"1":-0.08637532591819763,"2":-0.1732846200466156}],[{"0":0.032166704535484314,"1":-0.1548505276441574,"2":-0.13378582894802094},{"0":0.0578690767288208,"1":0.01151375100016594,"2":-0.10679274052381516},{"0":-0.03920206427574158,"1":-0.092261902987957,"2":0.01705017313361168}],[{"0":-0.11968760937452316,"1":-0.0637572780251503,"2":-0.028248583897948265},{"0":-0.026921844109892845,"1":0.046525247395038605,"2":-0.06858789175748825},{"0":0.21552811563014984,"1":-0.0032064830884337425,"2":-0.14912395179271698}],[{"0":-0.05793049558997154,"1":-0.042623937129974365,"2":-0.21286383271217346},{"0":0.020795200020074844,"1":0.04942256212234497,"2":-0.11815524846315384},{"0":0.13031278550624847,"1":0.0793021023273468,"2":-0.0031503094360232353}]],[[{"0":-0.19620567560195923,"1":-0.24618354439735413,"2":-0.03720266744494438},{"0":-0.1416684091091156,"1":-0.1689152717590332,"2":0.013215070590376854},{"0":-0.0023087565787136555,"1":-0.33994385600090027,"2":-0.020937884226441383}],[{"0":0.07023446261882782,"1":0.005056393798440695,"2":-0.1588432937860489},{"0":-0.06605356186628342,"1":-0.12048991024494171,"2":-0.15613071620464325},{"0":-0.22361630201339722,"1":-0.13450740277767181,"2":-0.02989961765706539}],[{"0":0.003909047693014145,"1":-0.04259593039751053,"2":-0.010340097360312939},{"0":0.06662943214178085,"1":-0.07562310993671417,"2":0.08878231793642044},{"0":0.11951681226491928,"1":-0.07814335078001022,"2":-0.0037929213140159845}],[{"0":0.06307536363601685,"1":-0.06464271247386932,"2":-0.36320748925209045},{"0":0.016273628920316696,"1":0.12103500962257385,"2":-0.35000672936439514},{"0":0.0832892432808876,"1":-0.003301676595583558,"2":-0.4927087724208832}],[{"0":-0.06257615983486176,"1":-0.07782364636659622,"2":-0.10246514528989792},{"0":0.043494921177625656,"1":-0.00040704806451685727,"2":-0.06264365464448929},{"0":-0.08397843688726425,"1":-0.11682919412851334,"2":0.06408511847257614}],[{"0":-0.18306772410869598,"1":-0.11651433259248734,"2":-0.1568862348794937},{"0":-0.13212093710899353,"1":-0.2215871959924698,"2":-0.17971809208393097},{"0":-0.17156757414340973,"1":0.017798637971282005,"2":-0.33789923787117004}],[{"0":0.20191045105457306,"1":0.14516913890838623,"2":0.0993088111281395},{"0":0.09808386117219925,"1":0.1617465615272522,"2":-0.11073441058397293},{"0":0.06813839823007584,"1":0.2385929524898529,"2":-0.12853163480758667}],[{"0":-0.09288021177053452,"1":0.2217462956905365,"2":0.09627432376146317},{"0":-0.022092534229159355,"1":0.09579979628324509,"2":-0.0957949087023735},{"0":-0.08619044721126556,"1":0.27744531631469727,"2":0.017540980130434036}],[{"0":0.11070293188095093,"1":-0.0047954679466784,"2":0.0188929233700037},{"0":-0.0019960193894803524,"1":-0.04197964817285538,"2":-0.05063531547784805},{"0":0.1032402291893959,"1":-0.03241345286369324,"2":0.07896660268306732}],[{"0":-0.0010511232540011406,"1":0.07065247744321823,"2":-0.035808395594358444},{"0":0.013493547216057777,"1":0.015353759750723839,"2":-0.06509445607662201},{"0":-0.05183616280555725,"1":0.1558542549610138,"2":0.09513267129659653}],[{"0":0.17163652181625366,"1":0.1266128420829773,"2":0.005360068753361702},{"0":0.062290310859680176,"1":0.1061551421880722,"2":0.0015267676208168268},{"0":-0.04209732636809349,"1":0.1867244839668274,"2":-0.2400922030210495}],[{"0":0.20477375388145447,"1":-0.16626834869384766,"2":-0.19170141220092773},{"0":0.09367406368255615,"1":0.07460629940032959,"2":-0.1434093415737152},{"0":0.07531915605068207,"1":-0.0020167967304587364,"2":-0.22863733768463135}],[{"0":0.156656414270401,"1":-0.05324341729283333,"2":0.08702024817466736},{"0":-0.0857117548584938,"1":0.0013851211406290531,"2":0.010589531622827053},{"0":0.04805567488074303,"1":-0.039542458951473236,"2":-0.059768207371234894}],[{"0":-0.12679657340049744,"1":-0.11847951263189316,"2":0.10183154791593552},{"0":-0.30437135696411133,"1":-0.16128307580947876,"2":-0.06720118224620819},{"0":-0.24539335072040558,"1":-0.26598891615867615,"2":-0.09308863431215286}],[{"0":0.12104351818561554,"1":0.22779598832130432,"2":0.2170378863811493},{"0":0.04228541627526283,"1":0.14514775574207306,"2":0.07338784635066986},{"0":0.08777117729187012,"1":0.12926968932151794,"2":-0.4008488357067108}],[{"0":-0.029651442542672157,"1":0.005735594779253006,"2":0.11330115050077438},{"0":0.037378452718257904,"1":0.09412861615419388,"2":-0.06302006542682648},{"0":-0.022514596581459045,"1":0.15833105146884918,"2":0.11607404053211212}]],[[{"0":-0.09546095877885818,"1":0.028451627120375633,"2":-0.01889186166226864},{"0":-0.008088510483503342,"1":-0.0684221088886261,"2":0.05609288066625595},{"0":-0.0794467180967331,"1":-0.13667361438274384,"2":0.17499931156635284}],[{"0":0.02328990213572979,"1":-0.03670796379446983,"2":0.09367115795612335},{"0":0.05557185411453247,"1":-0.18294374644756317,"2":0.058980654925107956},{"0":-0.06036558002233505,"1":-0.146083265542984,"2":0.04692334309220314}],[{"0":-0.02693045139312744,"1":0.06564044952392578,"2":-0.05147002264857292},{"0":-0.058657024055719376,"1":-0.13478733599185944,"2":-0.08244139701128006},{"0":-0.04656718671321869,"1":0.01821734942495823,"2":-0.10618007183074951}],[{"0":-0.06646957993507385,"1":0.1435839682817459,"2":-0.025180013850331306},{"0":-0.1589057892560959,"1":-0.009432301856577396,"2":0.16575051844120026},{"0":0.018500471487641335,"1":0.07260145992040634,"2":0.21128727495670319}],[{"0":-0.046465449035167694,"1":0.04736608639359474,"2":0.041133131831884384},{"0":-0.08155477792024612,"1":0.1089470386505127,"2":-0.008719050325453281},{"0":-0.08500734716653824,"1":0.03790844976902008,"2":-0.16758762300014496}],[{"0":-0.010893754661083221,"1":0.061968348920345306,"2":0.1931261122226715},{"0":-0.03273967280983925,"1":0.10915052890777588,"2":-0.0657290443778038},{"0":0.050782281905412674,"1":0.08453485369682312,"2":0.2099176049232483}],[{"0":-0.1011316329240799,"1":0.0016582480166107416,"2":-0.1494494080543518},{"0":-0.026011599227786064,"1":0.00698926392942667,"2":-0.18050171434879303},{"0":0.03680438920855522,"1":0.0876995399594307,"2":0.06679525226354599}],[{"0":0.10049289464950562,"1":-0.039269331842660904,"2":0.0158357135951519},{"0":-0.1071007028222084,"1":-0.026536187157034874,"2":-0.11451208591461182},{"0":-0.37225520610809326,"1":-0.051289062947034836,"2":0.0676245167851448}],[{"0":-0.03780156001448631,"1":-0.016509538516402245,"2":-0.12592336535453796},{"0":0.017565811052918434,"1":0.13140401244163513,"2":-0.14869266748428345},{"0":0.020387083292007446,"1":0.08062023669481277,"2":-0.08392426371574402}],[{"0":-0.07918449491262436,"1":-0.044494979083538055,"2":-0.04590492695569992},{"0":-0.10218670964241028,"1":0.10416777431964874,"2":-0.1312321424484253},{"0":-0.25257739424705505,"1":0.038694605231285095,"2":-0.08063464611768723}],[{"0":-0.06542905420064926,"1":-0.036042362451553345,"2":-0.09184745699167252},{"0":-0.1578488051891327,"1":0.07430054247379303,"2":0.055093105882406235},{"0":0.0075883157551288605,"1":0.1165204644203186,"2":0.17919501662254333}],[{"0":-0.06451467424631119,"1":0.09213358908891678,"2":0.05852901190519333},{"0":-0.16917406022548676,"1":-0.01044097077101469,"2":0.02675279788672924},{"0":-0.37422773241996765,"1":-0.08544736355543137,"2":0.2973001003265381}],[{"0":0.08978435397148132,"1":-0.1114191859960556,"2":-0.12420277297496796},{"0":-0.06368514895439148,"1":0.031035538762807846,"2":0.13225990533828735},{"0":0.08167820423841476,"1":0.0711188092827797,"2":-0.05479610338807106}],[{"0":0.01874469965696335,"1":-0.06754153966903687,"2":0.06513211131095886},{"0":-0.08861835300922394,"1":0.04357995465397835,"2":-0.0354771614074707},{"0":-0.011736747808754444,"1":0.09732517600059509,"2":-0.25273647904396057}],[{"0":0.10880880802869797,"1":0.0868099182844162,"2":-0.2245037853717804},{"0":-0.003954223357141018,"1":0.10232451558113098,"2":-0.0010762822348624468},{"0":0.14537066221237183,"1":0.26800450682640076,"2":0.09541033208370209}],[{"0":-0.06043679267168045,"1":0.08914948999881744,"2":0.0027870023623108864},{"0":-0.1034240797162056,"1":0.05952697992324829,"2":0.04930705949664116},{"0":-0.1597714126110077,"1":-0.09468892216682434,"2":0.1092446967959404}]],[[{"0":0.12497340142726898,"1":0.028574222698807716,"2":-0.13679127395153046},{"0":0.028693826869130135,"1":-0.07049703598022461,"2":0.07279042899608612},{"0":-0.12677790224552155,"1":0.0552738718688488,"2":0.07532843202352524}],[{"0":0.027295725420117378,"1":-0.025395842269062996,"2":-0.022139251232147217},{"0":0.10059262067079544,"1":0.05740053206682205,"2":0.02237975038588047},{"0":-0.14702634513378143,"1":0.14961060881614685,"2":0.06958721578121185}],[{"0":0.06009071320295334,"1":-0.006684762891381979,"2":-0.11169984191656113},{"0":-0.007123097311705351,"1":0.07912421971559525,"2":-0.00010414329153718427},{"0":0.12325175106525421,"1":0.09409361332654953,"2":0.08194402605295181}],[{"0":-0.1885806769132614,"1":-0.20014847815036774,"2":-0.19241642951965332},{"0":-0.058133650571107864,"1":-0.027364935725927353,"2":-0.039568349719047546},{"0":-0.08986454457044601,"1":-0.004049401264637709,"2":-0.04491374269127846}],[{"0":0.006370882969349623,"1":0.0933387279510498,"2":0.009355557151138783},{"0":-0.08099232614040375,"1":-0.007760511711239815,"2":0.031541697680950165},{"0":0.06507506221532822,"1":0.02414281666278839,"2":0.030554063618183136}],[{"0":0.024606604129076004,"1":-0.12351829558610916,"2":-0.084649458527565},{"0":0.020123563706874847,"1":-0.02635776810348034,"2":-0.04943037033081055},{"0":-0.022256668657064438,"1":-0.06399106234312057,"2":0.014180492609739304}],[{"0":0.17938663065433502,"1":-0.0394996777176857,"2":-0.026246411725878716},{"0":0.11742036789655685,"1":0.06112939119338989,"2":-0.0999475046992302},{"0":-0.05099219083786011,"1":0.032901618629693985,"2":-0.23620939254760742}],[{"0":0.20824699103832245,"1":0.07982655614614487,"2":-0.02966163493692875},{"0":0.10369344055652618,"1":0.03476085141301155,"2":0.0467771477997303},{"0":-0.07787156850099564,"1":0.004674807190895081,"2":0.09917570650577545}],[{"0":0.10172063857316971,"1":-0.04903888329863548,"2":0.017636379227042198},{"0":0.046678438782691956,"1":0.023652391508221626,"2":0.05579701066017151},{"0":0.07163947075605392,"1":0.024712663143873215,"2":-0.016941851004958153}],[{"0":0.05937139317393303,"1":-0.023975247517228127,"2":0.08847972005605698},{"0":0.12042336910963058,"1":0.06893282383680344,"2":-0.09707830101251602},{"0":0.005376896820962429,"1":0.05536574497818947,"2":-0.0631878450512886}],[{"0":0.034876953810453415,"1":0.03102215938270092,"2":-0.0711594745516777},{"0":0.17935650050640106,"1":-0.15132269263267517,"2":0.02807902917265892},{"0":-0.084394671022892,"1":-0.22573649883270264,"2":-0.13151943683624268}],[{"0":0.03480936586856842,"1":-0.11192392557859421,"2":-0.054013729095458984},{"0":0.06250926107168198,"1":-0.057712048292160034,"2":-0.08410827070474625},{"0":-0.13950030505657196,"1":0.06736202538013458,"2":0.08708339929580688}],[{"0":-0.09918704628944397,"1":-0.20588526129722595,"2":-0.0984242781996727},{"0":0.01687508635222912,"1":-0.14353612065315247,"2":0.040786657482385635},{"0":0.06900237500667572,"1":0.06910340487957001,"2":0.14987438917160034}],[{"0":-0.11619847267866135,"1":-0.1360543817281723,"2":-0.004841234069317579},{"0":-0.048644788563251495,"1":-0.17040479183197021,"2":-0.07309338450431824},{"0":-0.032281119376420975,"1":-0.08585629612207413,"2":0.12760291993618011}],[{"0":0.13490146398544312,"1":-0.10855941474437714,"2":0.07354379445314407},{"0":0.009819033555686474,"1":-0.11845915019512177,"2":0.04230288416147232},{"0":-0.05828050896525383,"1":-0.19743046164512634,"2":-0.21496963500976562}],[{"0":0.07620520889759064,"1":0.09558099508285522,"2":-0.12762393057346344},{"0":0.1287439912557602,"1":0.053487636148929596,"2":-0.12956388294696808},{"0":-0.046529605984687805,"1":0.07856590300798416,"2":-0.13329075276851654}]],[[{"0":0.06523474305868149,"1":0.005232303868979216,"2":-0.15666845440864563},{"0":0.006464987527579069,"1":-0.1282438337802887,"2":-0.17900463938713074},{"0":-0.13940753042697906,"1":-0.18396823108196259,"2":0.033889587968587875}],[{"0":-0.010523919016122818,"1":0.1365809291601181,"2":-0.13632787764072418},{"0":-0.0816391333937645,"1":-0.005657096393406391,"2":-0.06874734908342361},{"0":-0.20892158150672913,"1":-0.17248037457466125,"2":-0.1468660533428192}],[{"0":0.07508785277605057,"1":0.007717254105955362,"2":-0.010775744915008545},{"0":-0.0005980267887935042,"1":0.1460191309452057,"2":0.026127981022000313},{"0":0.14706018567085266,"1":0.03365655243396759,"2":-0.10341858118772507}],[{"0":-0.00601839367300272,"1":-0.06811165064573288,"2":0.06226177513599396},{"0":0.14069989323616028,"1":0.005755047779530287,"2":-0.04969604313373566},{"0":0.010970287956297398,"1":0.04266930744051933,"2":-0.057369258254766464}],[{"0":0.06463775038719177,"1":-0.02152801677584648,"2":-0.02939707785844803},{"0":0.1430998593568802,"1":0.024386318400502205,"2":0.028731543570756912},{"0":0.09821318089962006,"1":0.025082925334572792,"2":-0.12303303182125092}],[{"0":0.03715737909078598,"1":-0.05839768797159195,"2":-0.257954478263855},{"0":-0.07259662449359894,"1":-0.0851154774427414,"2":-0.2574319839477539},{"0":-0.10580625385046005,"1":-0.090658999979496,"2":-0.12670569121837616}],[{"0":-0.2199784219264984,"1":0.00828109122812748,"2":0.14437514543533325},{"0":0.15167540311813354,"1":-0.1882932037115097,"2":0.11072507500648499},{"0":0.279216468334198,"1":-0.30061599612236023,"2":-0.014721106737852097}],[{"0":0.12755738198757172,"1":0.06107518821954727,"2":0.0908045768737793},{"0":0.12011674791574478,"1":-0.05839722976088524,"2":0.22728341817855835},{"0":0.1760321706533432,"1":-0.0029114948119968176,"2":0.09301894158124924}],[{"0":-0.08571676909923553,"1":0.12498707324266434,"2":-0.03215494006872177},{"0":-0.06977593153715134,"1":-0.013939541764557362,"2":0.17736594378948212},{"0":0.24880903959274292,"1":-0.11656002700328827,"2":0.016191232949495316}],[{"0":-0.05023745447397232,"1":0.011769193224608898,"2":0.07491063326597214},{"0":0.17054584622383118,"1":-0.040237024426460266,"2":0.09153126180171967},{"0":0.018320860341191292,"1":-0.11236552894115448,"2":0.01857120916247368}],[{"0":-0.07058413326740265,"1":-0.11080899089574814,"2":0.06305120140314102},{"0":0.0596761479973793,"1":-0.12266984581947327,"2":0.12392225116491318},{"0":0.165650874376297,"1":-0.1620202362537384,"2":0.10393395274877548}],[{"0":-0.059681765735149384,"1":-0.06670746952295303,"2":0.019555481150746346},{"0":0.004658892285078764,"1":-0.18468189239501953,"2":0.15684549510478973},{"0":0.13357111811637878,"1":-0.011085260659456253,"2":0.098619744181633}],[{"0":0.10052815824747086,"1":0.0763513520359993,"2":-0.08550515025854111},{"0":-0.02626417577266693,"1":0.08005192130804062,"2":-0.14953529834747314},{"0":-0.0865841954946518,"1":-0.24318280816078186,"2":-0.0901365727186203}],[{"0":-0.020586390048265457,"1":-0.060247913002967834,"2":-0.24998195469379425},{"0":-0.1325531154870987,"1":-0.21296526491641998,"2":-0.15603381395339966},{"0":-0.24735599756240845,"1":-0.4123302400112152,"2":-0.3330226540565491}],[{"0":-0.05089057981967926,"1":0.079464390873909,"2":0.20368559658527374},{"0":-0.06663654744625092,"1":-0.04589121788740158,"2":0.16444961726665497},{"0":0.2754260301589966,"1":-0.09563343971967697,"2":0.222818523645401}],[{"0":0.0492665134370327,"1":0.11212598532438278,"2":0.1368328183889389},{"0":0.13518854975700378,"1":-0.12480796128511429,"2":-0.056417059153318405},{"0":0.12702782452106476,"1":0.00806194543838501,"2":-0.09418903291225433}]],[[{"0":0.18450339138507843,"1":-0.0001560793461976573,"2":0.07798289507627487},{"0":0.1523885428905487,"1":-0.007721516769379377,"2":0.08621861785650253},{"0":-0.08713608235120773,"1":0.16704334318637848,"2":-0.2661854326725006}],[{"0":0.09571162611246109,"1":-0.05463660508394241,"2":-0.024190466850996017},{"0":0.18505698442459106,"1":-0.03404799476265907,"2":0.006213657557964325},{"0":-0.022150129079818726,"1":0.21177826821804047,"2":-0.07306446135044098}],[{"0":-0.07079541683197021,"1":-0.032677266746759415,"2":-0.04785677790641785},{"0":0.08010897040367126,"1":0.1025066152215004,"2":-0.0006441734149120748},{"0":0.08904754370450974,"1":0.12404333800077438,"2":0.15656732022762299}],[{"0":-0.2209252417087555,"1":-0.2591240406036377,"2":-0.3029614984989166},{"0":-0.06218290328979492,"1":-0.01558648981153965,"2":-0.15165619552135468},{"0":0.06723015755414963,"1":0.07320674508810043,"2":0.09291697293519974}],[{"0":0.1949937790632248,"1":-0.012869774363934994,"2":-0.009750159457325935},{"0":-0.022156203165650368,"1":-0.06064807251095772,"2":-0.10120780766010284},{"0":-0.010023890994489193,"1":-0.23238800466060638,"2":-0.08019465953111649}],[{"0":-0.05000198259949684,"1":-0.035546496510505676,"2":-0.009828002192080021},{"0":-0.1683485060930252,"1":-0.07198717445135117,"2":-0.14302805066108704},{"0":-0.11448759585618973,"1":-0.12190550565719604,"2":0.11974423378705978}],[{"0":-0.10489440709352493,"1":-0.15038837492465973,"2":-0.0711245909333229},{"0":-0.03395527973771095,"1":0.028976574540138245,"2":0.017115071415901184},{"0":0.10738921165466309,"1":0.05620693415403366,"2":0.16792932152748108}],[{"0":-0.14425085484981537,"1":-0.2219945192337036,"2":-0.06966140121221542},{"0":-0.0334915928542614,"1":-0.18773014843463898,"2":-0.19143205881118774},{"0":-0.06408203393220901,"1":0.12761832773685455,"2":0.12225458770990372}],[{"0":-0.07657032459974289,"1":-0.02347414568066597,"2":-0.13662175834178925},{"0":-0.010526920668780804,"1":0.07775139063596725,"2":0.027936739847064018},{"0":0.0824965238571167,"1":0.11310508102178574,"2":0.05846351757645607}],[{"0":0.020557893440127373,"1":0.11545920372009277,"2":0.07917410880327225},{"0":0.059138223528862,"1":0.023893900215625763,"2":0.018381772562861443},{"0":0.05803738161921501,"1":-0.11508303135633469,"2":0.03833289071917534}],[{"0":-0.034968052059412,"1":-0.11288389563560486,"2":-0.12130409479141235},{"0":-0.03174981474876404,"1":0.13620536029338837,"2":-0.0911235585808754},{"0":0.046879321336746216,"1":0.01017106231302023,"2":0.03178059309720993}],[{"0":0.04235069081187248,"1":-0.04077330604195595,"2":-0.23762470483779907},{"0":-0.09353350102901459,"1":-0.17255303263664246,"2":-0.031168119981884956},{"0":0.11584126204252243,"1":0.20755796134471893,"2":0.14793528616428375}],[{"0":0.14552398025989532,"1":-0.04405947029590607,"2":0.08384916931390762},{"0":0.0060069807805120945,"1":0.04937291145324707,"2":0.06748166680335999},{"0":-0.08502253144979477,"1":0.10450655221939087,"2":-0.17830446362495422}],[{"0":0.28098082542419434,"1":0.11351115256547928,"2":0.13116933405399323},{"0":-0.0645800232887268,"1":0.09497711062431335,"2":0.007780945859849453},{"0":-0.022118249908089638,"1":-0.3175710141658783,"2":-0.3205375671386719}],[{"0":-0.1577731817960739,"1":-0.08707673102617264,"2":-0.0810798779129982},{"0":0.004238536115735769,"1":-0.008977742865681648,"2":-0.014602369628846645},{"0":-0.09307925403118134,"1":0.2531152665615082,"2":0.08327056467533112}],[{"0":0.03565572202205658,"1":-0.14184129238128662,"2":-0.057911086827516556},{"0":0.016413943842053413,"1":-0.044425856322050095,"2":0.08749423176050186},{"0":-0.0847567468881607,"1":-0.0984470546245575,"2":0.032494451850652695}]],[[{"0":0.19521494209766388,"1":-0.08792447298765182,"2":-0.16481272876262665},{"0":0.12784047424793243,"1":-0.09993861615657806,"2":-0.05223937705159187},{"0":0.006079971324652433,"1":0.10964291542768478,"2":-0.09159480035305023}],[{"0":0.0651688501238823,"1":-0.06281983107328415,"2":-0.24138639867305756},{"0":-0.06723136454820633,"1":-0.0775502547621727,"2":-0.19042296707630157},{"0":0.1510283201932907,"1":0.11895962059497833,"2":-0.018660789355635643}],[{"0":0.12796172499656677,"1":-0.14623506367206573,"2":-0.2551986277103424},{"0":-0.014084216207265854,"1":-0.08287383615970612,"2":-0.01335193682461977},{"0":-0.08538159728050232,"1":0.07017388939857483,"2":0.08790680766105652}],[{"0":0.03270704299211502,"1":0.11683842539787292,"2":-0.033641453832387924},{"0":-0.010005302727222443,"1":0.13284942507743835,"2":0.036712922155857086},{"0":0.006839492823928595,"1":-0.07343064993619919,"2":-0.07503250986337662}],[{"0":-0.03724092245101929,"1":0.030108395963907242,"2":-0.15640950202941895},{"0":0.05102809891104698,"1":0.04071074724197388,"2":-0.04566903039813042},{"0":-0.09730446338653564,"1":0.02979716844856739,"2":-0.09565895795822144}],[{"0":0.2491065263748169,"1":0.15092284977436066,"2":0.1785445362329483},{"0":0.07826611399650574,"1":0.2700986862182617,"2":0.09350999444723129},{"0":0.05209460109472275,"1":0.07770714908838272,"2":-0.11459934711456299}],[{"0":0.11983846127986908,"1":-0.08721546828746796,"2":-0.00243726116605103},{"0":0.03263439983129501,"1":-0.06333393603563309,"2":0.11640898883342743},{"0":-0.12759804725646973,"1":0.04305734857916832,"2":0.32984450459480286}],[{"0":0.16359861195087433,"1":0.11878449469804764,"2":-0.03239252418279648},{"0":-0.08433382958173752,"1":-0.016308408230543137,"2":0.023163480684161186},{"0":-0.2166626900434494,"1":0.033736079931259155,"2":0.08508068323135376}],[{"0":0.15613345801830292,"1":-0.11607793718576431,"2":-0.2896125316619873},{"0":0.1197463795542717,"1":0.12508530914783478,"2":0.002325349021703005},{"0":-0.05072556063532829,"1":-0.10021110624074936,"2":-0.017950914800167084}],[{"0":-0.0646866112947464,"1":0.04335125908255577,"2":-0.15157906711101532},{"0":0.022813789546489716,"1":0.058011043816804886,"2":0.10093580186367035},{"0":-0.14988312125205994,"1":-0.06053878739476204,"2":-0.0005622067837975919}],[{"0":0.11949589103460312,"1":-0.10180412232875824,"2":-0.07201234996318817},{"0":-0.011007966473698616,"1":-0.00014919598470441997,"2":-0.18590515851974487},{"0":0.0745549127459526,"1":-0.019720561802387238,"2":0.027262674644589424}],[{"0":0.045136842876672745,"1":0.24221335351467133,"2":-0.0808873176574707},{"0":-0.2025151550769806,"1":0.000015409666957566515,"2":0.0234559066593647},{"0":-0.17862869799137115,"1":-0.08811334520578384,"2":-0.12453760206699371}],[{"0":0.01738082431256771,"1":-0.18775063753128052,"2":-0.03232968598604202},{"0":0.14966444671154022,"1":0.002707773819565773,"2":-0.15029290318489075},{"0":0.10420296341180801,"1":0.1419087052345276,"2":0.030126532539725304}],[{"0":0.08090247958898544,"1":0.05093741789460182,"2":0.1956370621919632},{"0":-0.16457927227020264,"1":-0.11811421066522598,"2":0.13204370439052582},{"0":-0.08029475808143616,"1":-0.30527153611183167,"2":0.061544038355350494}],[{"0":0.1565724015235901,"1":0.04529247060418129,"2":-0.042471569031476974},{"0":0.03180336207151413,"1":0.02106218785047531,"2":-0.044938940554857254},{"0":-0.005218898877501488,"1":0.10722571611404419,"2":0.17346037924289703}],[{"0":0.033079516142606735,"1":0.13293388485908508,"2":-0.14790078997612},{"0":-0.06355145573616028,"1":0.1158859133720398,"2":0.0033491645008325577},{"0":-0.17951242625713348,"1":-0.13995377719402313,"2":-0.06486909836530685}]],[[{"0":0.03797335550189018,"1":-0.09235420823097229,"2":0.032351426780223846},{"0":-0.18828335404396057,"1":-0.034038297832012177,"2":0.06889690458774567},{"0":-0.0008003564435057342,"1":-0.10920189321041107,"2":0.08883287757635117}],[{"0":-0.08943357318639755,"1":-0.27371057868003845,"2":-0.12728463113307953},{"0":0.001674066879786551,"1":-0.06866572797298431,"2":-0.03110799379646778},{"0":-0.13710255920886993,"1":-0.05777227133512497,"2":0.0033297506161034107}],[{"0":-0.12804263830184937,"1":-0.14142607152462006,"2":-0.16266319155693054},{"0":0.1031600832939148,"1":0.08795569092035294,"2":0.04336780309677124},{"0":0.14600786566734314,"1":0.02775638923048973,"2":-0.037845179438591}],[{"0":-0.10373236984014511,"1":-0.06804759055376053,"2":-0.014636841602623463},{"0":-0.10625145584344864,"1":-0.070760577917099,"2":-0.07652940601110458},{"0":-0.12905241549015045,"1":-0.1307867169380188,"2":-0.12930722534656525}],[{"0":0.15904217958450317,"1":0.1807665377855301,"2":-0.005133604630827904},{"0":-0.12517504394054413,"1":0.059471532702445984,"2":0.07835367321968079},{"0":-0.08795712888240814,"1":-0.013460071757435799,"2":0.10681658238172531}],[{"0":0.10148092359304428,"1":0.05123971775174141,"2":0.15951105952262878},{"0":0.09056509286165237,"1":-0.016462938860058784,"2":0.14610926806926727},{"0":-0.10295558720827103,"1":-0.04836400970816612,"2":0.020604072138667107}],[{"0":0.13185903429985046,"1":-0.034780342131853104,"2":-0.12360289692878723},{"0":0.3393467962741852,"1":0.10970348119735718,"2":-0.036131422966718674},{"0":0.08332650363445282,"1":0.18638508021831512,"2":0.04567030072212219}],[{"0":0.1308857947587967,"1":0.0031524975784122944,"2":-0.22464068233966827},{"0":-0.01590142585337162,"1":-0.10182952880859375,"2":-0.333711177110672},{"0":-0.19876138865947723,"1":-0.14673809707164764,"2":-0.21945463120937347}],[{"0":0.03494197502732277,"1":-0.09254604578018188,"2":-0.18692727386951447},{"0":0.10194290429353714,"1":0.12041305005550385,"2":-0.118170827627182},{"0":0.0989101380109787,"1":0.057445649057626724,"2":-0.014207200147211552}],[{"0":0.025094985961914062,"1":0.09045968949794769,"2":0.027533328160643578},{"0":0.024835895746946335,"1":0.04197056591510773,"2":-0.009231867268681526},{"0":0.02791425585746765,"1":-0.13017602264881134,"2":0.09747437387704849}],[{"0":0.0678696557879448,"1":-0.18542519211769104,"2":0.043522678315639496},{"0":0.008939062245190144,"1":-0.02326037548482418,"2":-0.04241897165775299},{"0":0.06012788787484169,"1":-0.008224780671298504,"2":-0.1264302134513855}],[{"0":-0.09461436420679092,"1":-0.1627662181854248,"2":-0.11231157183647156},{"0":-0.07078053802251816,"1":-0.03878450766205788,"2":-0.007884620688855648},{"0":-0.18803894519805908,"1":-0.27197280526161194,"2":-0.107315793633461}],[{"0":0.07870877534151077,"1":-0.12412488460540771,"2":0.008333934471011162},{"0":-0.05893263220787048,"1":-0.14597555994987488,"2":-0.07397197186946869},{"0":0.05127326399087906,"1":-0.11718317866325378,"2":-0.007182887755334377}],[{"0":0.09629237651824951,"1":0.009956622496247292,"2":0.10329379141330719},{"0":0.13433067500591278,"1":-0.031020579859614372,"2":0.05895111337304115},{"0":-0.24355316162109375,"1":-0.1858697235584259,"2":-0.009744578041136265}],[{"0":0.04518942907452583,"1":-0.2022138088941574,"2":-0.2773640751838684},{"0":0.01916848123073578,"1":-0.11655674129724503,"2":-0.1016886830329895},{"0":-0.09525618702173233,"1":-0.12489300221204758,"2":-0.2284315973520279}],[{"0":0.12655243277549744,"1":-0.010782362893223763,"2":-0.04641193524003029},{"0":0.02829507738351822,"1":0.17184601724147797,"2":0.059333521872758865},{"0":-0.06364832818508148,"1":0.09902894496917725,"2":0.08164085447788239}]],[[{"0":0.02011054754257202,"1":0.0035417117178440094,"2":-0.2537745535373688},{"0":-0.11712611466646194,"1":-0.04149332270026207,"2":-0.17624516785144806},{"0":-0.1764049381017685,"1":-0.04828382655978203,"2":0.0018081932794302702}],[{"0":-0.07032402604818344,"1":-0.10474123805761337,"2":-0.10726412385702133},{"0":-0.013583263382315636,"1":-0.01350074727088213,"2":-0.038554783910512924},{"0":-0.04021434858441353,"1":-0.07576268166303635,"2":-0.11295264214277267}],[{"0":0.05691538751125336,"1":0.04965988174080849,"2":-0.08432924747467041},{"0":-0.00474804500117898,"1":0.0290956050157547,"2":0.08731299638748169},{"0":0.04652934893965721,"1":0.0539521761238575,"2":-0.09826171398162842}],[{"0":0.06013958156108856,"1":0.02445461042225361,"2":0.02596909925341606},{"0":0.1449778825044632,"1":-0.012915922328829765,"2":0.11991824954748154},{"0":0.12227363884449005,"1":-0.009553560055792332,"2":0.1366945058107376}],[{"0":0.010197137482464314,"1":0.03350984305143356,"2":-0.1488010585308075},{"0":-0.07427956163883209,"1":-0.08622987568378448,"2":-0.05419941991567612},{"0":-0.1315123289823532,"1":-0.1279749572277069,"2":-0.15708860754966736}],[{"0":0.03752892091870308,"1":-0.03176599368453026,"2":-0.0036879144608974457},{"0":-0.03786648437380791,"1":-0.06067349389195442,"2":-0.07535450905561447},{"0":0.053005725145339966,"1":0.1409197449684143,"2":0.12063925713300705}],[{"0":0.0976928099989891,"1":0.19384600222110748,"2":0.009843302890658379},{"0":0.018595421686768532,"1":0.08573926985263824,"2":0.1900852620601654},{"0":0.13066419959068298,"1":0.21350149810314178,"2":0.02911672741174698}],[{"0":0.06202965974807739,"1":0.12814263999462128,"2":0.21093228459358215},{"0":0.1342010200023651,"1":0.1402035653591156,"2":0.3089732229709625},{"0":0.17005543410778046,"1":0.26098644733428955,"2":0.20591579377651215}],[{"0":-0.01892046071588993,"1":0.04886365309357643,"2":-0.03688841313123703},{"0":0.09100078791379929,"1":0.014819378033280373,"2":-0.02364305965602398},{"0":-0.13275451958179474,"1":0.06815417110919952,"2":0.005453373771160841}],[{"0":-0.0738801434636116,"1":0.023797128349542618,"2":-0.11732565611600876},{"0":0.08231433480978012,"1":-0.06310378760099411,"2":-0.13647408783435822},{"0":-0.01416915375739336,"1":0.04648367315530777,"2":0.09314826130867004}],[{"0":0.014903628267347813,"1":0.06888222694396973,"2":-0.013138886541128159},{"0":0.10109460353851318,"1":0.07079480588436127,"2":0.05994958057999611},{"0":0.060561902821063995,"1":0.11224773526191711,"2":-0.023457681760191917}],[{"0":-0.03562810644507408,"1":0.0631750300526619,"2":0.11485908925533295},{"0":0.00047286920016631484,"1":0.029338018968701363,"2":-0.05123857408761978},{"0":0.21233880519866943,"1":0.08280857652425766,"2":0.16879965364933014}],[{"0":-0.08073598146438599,"1":-0.007557873148471117,"2":-0.1781495362520218},{"0":0.11228447407484055,"1":-0.12290465831756592,"2":-0.04406058043241501},{"0":-0.05504867434501648,"1":-0.04420984536409378,"2":-0.04089422896504402}],[{"0":-0.11518123745918274,"1":-0.1134684681892395,"2":-0.02007158473134041},{"0":-0.12972596287727356,"1":0.0068324352614581585,"2":-0.004264241084456444},{"0":-0.18838058412075043,"1":0.04509221389889717,"2":-0.20316460728645325}],[{"0":0.0008476913208141923,"1":0.12115002423524857,"2":0.26556429266929626},{"0":0.17297762632369995,"1":0.24804888665676117,"2":0.17170780897140503},{"0":0.20203426480293274,"1":0.22097495198249817,"2":0.1617003232240677}],[{"0":0.03393947333097458,"1":-0.07638388127088547,"2":-0.021120114251971245},{"0":-0.01577766425907612,"1":-0.11418686807155609,"2":-0.10062394291162491},{"0":0.035779062658548355,"1":0.09878602623939514,"2":-0.11880897730588913}]],[[{"0":-0.034089602530002594,"1":-0.0267277043312788,"2":-0.05914532393217087},{"0":0.09245612472295761,"1":0.19335441291332245,"2":-0.021302733570337296},{"0":-0.021925920620560646,"1":0.1340034306049347,"2":0.14585644006729126}],[{"0":-0.11035982519388199,"1":-0.0700603649020195,"2":0.047141410410404205},{"0":-0.0042556594125926495,"1":0.2138218730688095,"2":-0.04642792418599129},{"0":-0.0056158388033509254,"1":-0.001292216475121677,"2":0.0896296501159668}],[{"0":0.021033430472016335,"1":-0.03705182299017906,"2":0.11861401051282883},{"0":0.03733096271753311,"1":-0.06479469686746597,"2":0.08658310770988464},{"0":-0.09082076698541641,"1":0.03962213918566704,"2":-0.07428749650716782}],[{"0":0.062144841998815536,"1":-0.15038371086120605,"2":-0.15084019303321838},{"0":-0.04765886440873146,"1":-0.17056305706501007,"2":-0.043015964329242706},{"0":-0.29353758692741394,"1":-0.20729954540729523,"2":-0.0053694481030106544}],[{"0":-0.1523168534040451,"1":0.041890647262334824,"2":0.034530915319919586},{"0":0.08332235366106033,"1":-0.005771431606262922,"2":-0.08323107659816742},{"0":0.08208884298801422,"1":0.16640837490558624,"2":0.06847704201936722}],[{"0":0.04120606184005737,"1":0.13140371441841125,"2":-0.11663854122161865},{"0":-0.015394002199172974,"1":0.12561848759651184,"2":0.02884448878467083},{"0":0.0671914592385292,"1":-0.16579575836658478,"2":0.009895495139062405}],[{"0":0.06626449525356293,"1":0.05054761841893196,"2":-0.03635551780462265},{"0":0.07013216614723206,"1":0.11922459304332733,"2":-0.11191269010305405},{"0":0.038919996470212936,"1":-0.010868724435567856,"2":-0.20354825258255005}],[{"0":0.07593376934528351,"1":0.050232965499162674,"2":-0.044128935784101486},{"0":-0.03289053589105606,"1":-0.15298964083194733,"2":0.026222646236419678},{"0":-0.199751615524292,"1":-0.31946203112602234,"2":0.010685024783015251}],[{"0":-0.05997534468770027,"1":0.02317722514271736,"2":-0.09469898045063019},{"0":0.09617750346660614,"1":-0.03545520827174187,"2":-0.02353031374514103},{"0":0.043735746294260025,"1":-0.12514351308345795,"2":-0.058274783194065094}],[{"0":0.031233355402946472,"1":0.052003756165504456,"2":0.11963169276714325},{"0":0.09083650261163712,"1":-0.01930493488907814,"2":0.0912247970700264},{"0":0.13873407244682312,"1":0.025660637766122818,"2":-0.14315134286880493}],[{"0":0.2539108693599701,"1":0.1673370748758316,"2":0.004394397605210543},{"0":0.0007838857709430158,"1":0.04165954142808914,"2":-0.09725619852542877},{"0":-0.13859623670578003,"1":-0.1769549697637558,"2":-0.12919855117797852}],[{"0":0.009735035710036755,"1":0.022177305072546005,"2":-0.016575707122683525},{"0":-0.011430691927671432,"1":-0.0436583049595356,"2":-0.13795249164104462},{"0":-0.02278745174407959,"1":0.0420544371008873,"2":-0.013294634409248829}],[{"0":0.029413897544145584,"1":0.059800613671541214,"2":-0.11029497534036636},{"0":0.09399714320898056,"1":0.026690348982810974,"2":0.014911296777427197},{"0":-0.12012695521116257,"1":0.07499834150075912,"2":0.16948114335536957}],[{"0":-0.014709562994539738,"1":-0.1249813511967659,"2":-0.11555211246013641},{"0":-0.060496918857097626,"1":0.06359480321407318,"2":0.09367363154888153},{"0":-0.03652278706431389,"1":0.06459257751703262,"2":0.10182231664657593}],[{"0":0.162826269865036,"1":0.15368740260601044,"2":0.06257456541061401},{"0":0.07353135943412781,"1":-0.1367732733488083,"2":-0.11341330409049988},{"0":-0.2069447934627533,"1":-0.2314174622297287,"2":-0.027132200077176094}],[{"0":0.15492524206638336,"1":0.07992324233055115,"2":-0.132819265127182},{"0":0.10772737860679626,"1":0.02070647105574608,"2":-0.02585778944194317},{"0":0.18709056079387665,"1":-0.06880845874547958,"2":-0.14662407338619232}]],[[{"0":-0.10944265872240067,"1":0.05186533182859421,"2":-0.13048069179058075},{"0":0.04172579571604729,"1":-0.08601105958223343,"2":0.023157497867941856},{"0":-0.07118381559848785,"1":0.026510916650295258,"2":0.23380926251411438}],[{"0":-0.06301167607307434,"1":-0.0004178998642601073,"2":-0.08069880306720734},{"0":0.0293309073895216,"1":-0.1792982518672943,"2":0.009750111028552055},{"0":-0.034279387444257736,"1":0.047747742384672165,"2":0.12362124025821686}],[{"0":-0.18339593708515167,"1":0.04290241375565529,"2":0.07653747498989105},{"0":0.029716307297348976,"1":-0.00913750845938921,"2":0.005465843714773655},{"0":0.043377798050642014,"1":-0.038998886942863464,"2":0.037665292620658875}],[{"0":-0.016023175790905952,"1":-0.08962210267782211,"2":-0.08995738625526428},{"0":-0.007269754074513912,"1":0.0544653944671154,"2":-0.03698889911174774},{"0":-0.05464201420545578,"1":-0.10779089480638504,"2":0.05372966453433037}],[{"0":0.08376967161893845,"1":0.14839290082454681,"2":0.11116504669189453},{"0":0.019821811467409134,"1":0.06685711443424225,"2":-0.0077318777330219746},{"0":0.10522915422916412,"1":0.051851700991392136,"2":0.08414409309625626}],[{"0":-0.09423018991947174,"1":-0.06437782198190689,"2":-0.19812467694282532},{"0":0.001843994832597673,"1":0.08063572645187378,"2":0.09881594032049179},{"0":-0.017640048637986183,"1":-0.14357955753803253,"2":-0.08362951874732971}],[{"0":-0.0008689247770234942,"1":-0.051303379237651825,"2":-0.030872231349349022},{"0":0.05596388131380081,"1":0.03881215304136276,"2":-0.19066034257411957},{"0":-0.03018794395029545,"1":-0.13734307885169983,"2":-0.2022254467010498}],[{"0":-0.23599208891391754,"1":-0.11531823128461838,"2":-0.14949198067188263},{"0":-0.002460905583575368,"1":0.01559216994792223,"2":-0.11062578111886978},{"0":0.0825965404510498,"1":-0.0699913501739502,"2":0.06600773334503174}],[{"0":0.11835794150829315,"1":0.020635413005948067,"2":0.11398228257894516},{"0":0.08885635435581207,"1":0.031635433435440063,"2":0.026239771395921707},{"0":-0.0185713991522789,"1":0.07119602710008621,"2":-0.01866825670003891}],[{"0":0.08372732251882553,"1":0.08821114152669907,"2":0.06057748571038246},{"0":0.009317604824900627,"1":-0.030067458748817444,"2":0.06310401856899261},{"0":0.06376063823699951,"1":0.008052263408899307,"2":-0.060835763812065125}],[{"0":0.02022475190460682,"1":0.006933321710675955,"2":-0.11478853225708008},{"0":0.031104229390621185,"1":-0.05116509646177292,"2":-0.02695164829492569},{"0":-0.17223501205444336,"1":-0.12290342897176743,"2":0.0005821811500936747}],[{"0":-0.001666699186898768,"1":0.02671149931848049,"2":0.019124934449791908},{"0":0.0331428125500679,"1":-0.1329573690891266,"2":-0.020583000034093857},{"0":-0.09728752821683884,"1":-0.07165740430355072,"2":-0.04605706036090851}],[{"0":0.10487452149391174,"1":-0.06920725107192993,"2":-0.035819705575704575},{"0":-0.018533436581492424,"1":0.05025949329137802,"2":0.11842759698629379},{"0":0.06004026159644127,"1":-0.07720231264829636,"2":-0.004374315496534109}],[{"0":-0.18737155199050903,"1":-0.15977485477924347,"2":-0.1608174592256546},{"0":-0.2191866785287857,"1":0.02496643364429474,"2":-0.01999388262629509},{"0":0.03623122721910477,"1":0.07328420877456665,"2":-0.10253310948610306}],[{"0":-0.048597194254398346,"1":-0.006147847976535559,"2":-0.10622011125087738},{"0":0.026286937296390533,"1":-0.05736374482512474,"2":-0.15981175005435944},{"0":-0.1651119738817215,"1":-0.027418820187449455,"2":-0.04371118173003197}],[{"0":0.07413385808467865,"1":0.04611513391137123,"2":-0.009212628938257694},{"0":0.10026425868272781,"1":0.031955379992723465,"2":-0.06327500194311142},{"0":0.008761019445955753,"1":0.047172773629426956,"2":0.08062661439180374}]],[[{"0":0.19131797552108765,"1":0.01975356787443161,"2":-0.015872200950980186},{"0":-0.17034505307674408,"1":-0.14827513694763184,"2":-0.14314976334571838},{"0":-0.037159960716962814,"1":0.02184259332716465,"2":-0.017781326547265053}],[{"0":0.04368498548865318,"1":0.1460208147764206,"2":-0.07951723784208298},{"0":-0.23491418361663818,"1":-0.1663854569196701,"2":-0.2586285173892975},{"0":0.01137196458876133,"1":0.11456413567066193,"2":0.10105089843273163}],[{"0":-0.04112432152032852,"1":-0.011270304210484028,"2":0.030611203983426094},{"0":-0.12191427499055862,"1":-0.11001899838447571,"2":-0.16080553829669952},{"0":-0.06991118937730789,"1":-0.02740071713924408,"2":0.07087121158838272}],[{"0":0.1315801739692688,"1":0.13584202527999878,"2":0.1331162452697754},{"0":0.14666776359081268,"1":0.05349070951342583,"2":0.09204624593257904},{"0":-0.08710817992687225,"1":-0.17662039399147034,"2":-0.15238887071609497}],[{"0":0.000616020814049989,"1":-0.16240070760250092,"2":-0.12027674913406372},{"0":-0.059612683951854706,"1":-0.11265935748815536,"2":-0.11759652197360992},{"0":0.0486493855714798,"1":0.13245230913162231,"2":-0.049299873411655426}],[{"0":0.09593471884727478,"1":-0.07302044332027435,"2":-0.049478739500045776},{"0":-0.071026511490345,"1":-0.06085703894495964,"2":-0.037888333201408386},{"0":-0.020318198949098587,"1":-0.07201095670461655,"2":-0.1081792563199997}],[{"0":-0.05832451581954956,"1":-0.25312986969947815,"2":-0.23166128993034363},{"0":-0.02706933580338955,"1":-0.04868721216917038,"2":-0.14594098925590515},{"0":-0.0041971043683588505,"1":-0.048218950629234314,"2":0.06219910457730293}],[{"0":-0.06320161372423172,"1":-0.18321983516216278,"2":-0.11611021310091019},{"0":0.15905825793743134,"1":-0.059464141726493835,"2":-0.0043830955401062965},{"0":0.1913125365972519,"1":0.04797569662332535,"2":0.024042800068855286}],[{"0":0.10190855711698532,"1":0.018883690237998962,"2":0.09827621281147003},{"0":-0.09883826971054077,"1":0.0447833277285099,"2":-0.08868944644927979},{"0":0.07978851348161697,"1":0.10993321239948273,"2":0.1849251538515091}],[{"0":-0.10142187029123306,"1":-0.11153685301542282,"2":0.10475092381238937},{"0":-0.09518655389547348,"1":-0.1268143206834793,"2":0.06047597527503967},{"0":0.1254148930311203,"1":0.0038445370737463236,"2":0.10704131424427032}],[{"0":0.08308204263448715,"1":0.14588677883148193,"2":0.11427793651819229},{"0":0.13574624061584473,"1":0.06651473045349121,"2":0.06784847378730774},{"0":-0.20627358555793762,"1":-0.11894919723272324,"2":-0.008216559886932373}],[{"0":0.015781231224536896,"1":0.04590064287185669,"2":0.028549080714583397},{"0":0.0905541330575943,"1":-0.05480877310037613,"2":0.16755253076553345},{"0":0.08947328478097916,"1":-0.1877480298280716,"2":0.04073311761021614}],[{"0":0.17114625871181488,"1":-0.01232953555881977,"2":-0.02911560609936714},{"0":0.036783404648303986,"1":0.03920510411262512,"2":0.1250745803117752},{"0":0.033770572394132614,"1":0.006750098895281553,"2":0.019566848874092102}],[{"0":-0.31684690713882446,"1":-0.31321054697036743,"2":0.007883523590862751},{"0":-0.2046959102153778,"1":-0.15027660131454468,"2":-0.2633351981639862},{"0":0.12487940490245819,"1":-0.028455298393964767,"2":-0.10677783191204071}],[{"0":0.07687726616859436,"1":0.004953823983669281,"2":0.02102884091436863},{"0":0.031187856569886208,"1":-0.04678349941968918,"2":0.023741185665130615},{"0":-0.1250154823064804,"1":-0.09856405109167099,"2":-0.11624567955732346}],[{"0":0.02836639992892742,"1":0.04939498379826546,"2":-0.1125636175274849},{"0":-0.011320343241095543,"1":-0.039491064846515656,"2":0.14155824482440948},{"0":0.10456431657075882,"1":0.10723502933979034,"2":0.21288618445396423}]],[[{"0":-0.025832271203398705,"1":0.14165984094142914,"2":-0.08360447734594345},{"0":-0.060919228941202164,"1":0.03644683584570885,"2":0.040648121386766434},{"0":-0.12940898537635803,"1":0.027855927124619484,"2":0.19387181103229523}],[{"0":0.023713376373052597,"1":0.2672077417373657,"2":0.03152335807681084},{"0":-0.15594233572483063,"1":0.10166304558515549,"2":0.08121367543935776},{"0":-0.06572136282920837,"1":0.14689700305461884,"2":0.08209546655416489}],[{"0":0.1358783096075058,"1":0.08038926869630814,"2":0.19108694791793823},{"0":-0.02926410175859928,"1":-0.04328557103872299,"2":-0.026496827602386475},{"0":-0.1364121288061142,"1":-0.10561241209506989,"2":0.05263662338256836}],[{"0":0.003726143855601549,"1":-0.17956975102424622,"2":0.04580174759030342},{"0":-0.10146921873092651,"1":-0.36303094029426575,"2":-0.08706275373697281},{"0":-0.017913242802023888,"1":-0.27288249135017395,"2":0.02108020707964897}],[{"0":-0.002637891098856926,"1":0.09673283249139786,"2":0.058321237564086914},{"0":-0.02478126809000969,"1":0.06726790219545364,"2":0.06753536313772202},{"0":-0.12786458432674408,"1":0.01956438086926937,"2":0.08324617892503738}],[{"0":-0.02071533165872097,"1":0.019100576639175415,"2":0.010193473659455776},{"0":-0.07977252453565598,"1":-0.16240034997463226,"2":-0.09836499392986298},{"0":-0.0229510348290205,"1":-0.2118517905473709,"2":-0.023068556562066078}],[{"0":0.3063099682331085,"1":0.173159658908844,"2":0.07008823752403259},{"0":-0.08246500790119171,"1":0.015457273460924625,"2":-0.16367694735527039},{"0":-0.11317528039216995,"1":-0.18568792939186096,"2":-0.2106098085641861}],[{"0":0.15459559857845306,"1":0.09262140095233917,"2":-0.028709571808576584},{"0":-0.17671556770801544,"1":-0.04459933936595917,"2":0.04370186850428581},{"0":0.09156143665313721,"1":-0.17391203343868256,"2":-0.06335897743701935}],[{"0":0.10601609945297241,"1":0.1115206852555275,"2":0.16410988569259644},{"0":-0.1697576493024826,"1":0.006160399876534939,"2":0.13965854048728943},{"0":-0.05634545907378197,"1":-0.055852919816970825,"2":-0.05468935891985893}],[{"0":0.12326940894126892,"1":0.07728847116231918,"2":0.14158283174037933},{"0":-0.06849432736635208,"1":-0.08112115412950516,"2":-0.08136329799890518},{"0":0.06302019208669662,"1":-0.06059230491518974,"2":0.13882207870483398}],[{"0":-0.07300347834825516,"1":-0.142940491437912,"2":-0.05856146663427353},{"0":-0.048516422510147095,"1":-0.11553481966257095,"2":0.05594606697559357},{"0":-0.018776530399918556,"1":-0.10472717136144638,"2":0.013825621455907822}],[{"0":0.03544393554329872,"1":-0.014681478962302208,"2":0.013582576997578144},{"0":-0.09552557021379471,"1":-0.3236241340637207,"2":-0.01471449714154005},{"0":-0.1412992775440216,"1":-0.28986528515815735,"2":-0.16857172548770905}],[{"0":0.021967776119709015,"1":0.1351068764925003,"2":0.09913209825754166},{"0":-0.11387971043586731,"1":-0.017665019258856773,"2":-0.05676596239209175},{"0":0.011132758110761642,"1":0.1337198168039322,"2":0.1950991302728653}],[{"0":0.12733952701091766,"1":0.22642508149147034,"2":0.01613868772983551},{"0":0.1007520854473114,"1":0.027877729386091232,"2":-0.23667164146900177},{"0":0.09036853164434433,"1":0.17371518909931183,"2":0.07032462954521179}],[{"0":0.043637778609991074,"1":-0.12749901413917542,"2":0.046604547649621964},{"0":-0.11698748171329498,"1":-0.16311010718345642,"2":0.12488633394241333},{"0":-0.06405322998762131,"1":0.005984230898320675,"2":-0.11693678796291351}],[{"0":0.07938490808010101,"1":0.18466749787330627,"2":0.02492910623550415},{"0":-0.21960178017616272,"1":-0.10503076016902924,"2":-0.024915196001529694},{"0":-0.03921519219875336,"1":0.030280109494924545,"2":0.09484995156526566}]],[[{"0":-0.016174711287021637,"1":-0.007811338175088167,"2":-0.12977176904678345},{"0":-0.026685398072004318,"1":-0.1206066682934761,"2":0.029701028019189835},{"0":-0.09677058458328247,"1":-0.08410409092903137,"2":0.022918881848454475}],[{"0":-0.17297042906284332,"1":-0.0625692680478096,"2":-0.14256492257118225},{"0":0.06341859698295593,"1":-0.02359747514128685,"2":-0.05752505362033844},{"0":-0.1322118490934372,"1":-0.11698099970817566,"2":-0.047144584357738495}],[{"0":-0.06083578243851662,"1":0.038059767335653305,"2":-0.045748911798000336},{"0":0.041512805968523026,"1":-0.1132730022072792,"2":-0.011608928442001343},{"0":0.038627274334430695,"1":0.05018997937440872,"2":0.005321839824318886}],[{"0":0.07287240028381348,"1":0.11127489060163498,"2":0.07875203341245651},{"0":0.13485032320022583,"1":-0.009625242091715336,"2":0.18414056301116943},{"0":0.146930992603302,"1":0.041718367487192154,"2":0.25162091851234436}],[{"0":-0.1536337286233902,"1":-0.19737786054611206,"2":-0.035245899111032486},{"0":-0.05193222686648369,"1":-0.15551990270614624,"2":-0.040443841367959976},{"0":-0.1237870454788208,"1":-0.10013996809720993,"2":-0.12149608135223389}],[{"0":0.16816595196723938,"1":0.14085166156291962,"2":0.09874434769153595},{"0":0.041281744837760925,"1":-0.0068563842214643955,"2":0.0639614388346672},{"0":0.0029358549509197474,"1":-0.11834447830915451,"2":0.2721787989139557}],[{"0":0.029975075274705887,"1":-0.003632271895185113,"2":0.09669504314661026},{"0":0.08289790898561478,"1":-0.17633986473083496,"2":-0.0031060499604791403},{"0":0.1141982302069664,"1":0.016839617863297462,"2":0.016026930883526802}],[{"0":0.07723519951105118,"1":0.045001767575740814,"2":0.19832763075828552},{"0":0.02036089077591896,"1":0.08608303964138031,"2":0.1703852266073227},{"0":0.017467256635427475,"1":-0.020295724272727966,"2":0.16466863453388214}],[{"0":-0.07073988765478134,"1":-0.18927623331546783,"2":0.005631797015666962},{"0":0.041427962481975555,"1":0.04473791643977165,"2":-0.048257824033498764},{"0":-0.15006469190120697,"1":0.12005876004695892,"2":0.023741811513900757}],[{"0":-0.04080202803015709,"1":0.04484567418694496,"2":-0.11544472724199295},{"0":-0.06528601795434952,"1":-0.09910282492637634,"2":0.04080580547451973},{"0":-0.13793256878852844,"1":-0.005629281047731638,"2":0.13474303483963013}],[{"0":0.04995862767100334,"1":-0.05479387193918228,"2":0.06715425103902817},{"0":0.06779646128416061,"1":-0.009764261543750763,"2":-0.0059907580725848675},{"0":0.047436971217393875,"1":0.06539429724216461,"2":0.1201896071434021}],[{"0":0.11293186992406845,"1":-0.08199997991323471,"2":0.09614773839712143},{"0":0.0442536436021328,"1":0.08813019096851349,"2":0.15073774755001068},{"0":0.1624411642551422,"1":0.14773038029670715,"2":0.12948404252529144}],[{"0":-0.24535155296325684,"1":-0.03539196774363518,"2":-0.055056020617485046},{"0":-0.18209458887577057,"1":-0.11114349216222763,"2":0.05116705968976021},{"0":-0.2167906016111374,"1":-0.012990999966859818,"2":0.032142236828804016}],[{"0":0.013662951067090034,"1":0.05102350935339928,"2":-0.12496887147426605},{"0":-0.05236627906560898,"1":0.06616076081991196,"2":-0.10817006230354309},{"0":0.05073719099164009,"1":0.06211536005139351,"2":-0.22387562692165375}],[{"0":-0.038770534098148346,"1":0.18007276952266693,"2":0.10225534439086914},{"0":0.006714989896863699,"1":0.0365036278963089,"2":0.049551934003829956},{"0":0.12844625115394592,"1":-0.021551815792918205,"2":0.13436733186244965}],[{"0":-0.03331207111477852,"1":-0.0810285434126854,"2":-0.06303630024194717},{"0":0.06288786232471466,"1":-0.12593472003936768,"2":0.0022658042144030333},{"0":0.012270220555365086,"1":-0.07464855164289474,"2":0.11258123070001602}]],[[{"0":0.03363816440105438,"1":-0.10195676237344742,"2":-0.050697892904281616},{"0":-0.0694567933678627,"1":-0.05151832848787308,"2":-0.04999746009707451},{"0":-0.046766992658376694,"1":-0.171304851770401,"2":-0.008555551990866661}],[{"0":0.015646755695343018,"1":0.011003751307725906,"2":0.04952513426542282},{"0":-0.03340243548154831,"1":0.08686840534210205,"2":-0.03118991293013096},{"0":-0.0048015122301876545,"1":-0.016515467315912247,"2":-0.0779784619808197}],[{"0":0.018066639080643654,"1":0.06250684708356857,"2":-0.08733870089054108},{"0":0.04494250565767288,"1":0.029070306569337845,"2":-0.016285723075270653},{"0":0.004718020558357239,"1":0.020456889644265175,"2":0.015077680349349976}],[{"0":-0.0017508968012407422,"1":-0.12324368208646774,"2":-0.19487151503562927},{"0":0.03014526329934597,"1":-0.07462246716022491,"2":-0.14515934884548187},{"0":0.19300851225852966,"1":-0.026675445958971977,"2":-0.03961201384663582}],[{"0":0.024459047242999077,"1":0.09775529056787491,"2":0.03921595215797424},{"0":0.016274577006697655,"1":0.005302460864186287,"2":-0.07063242793083191},{"0":0.0032228934578597546,"1":-0.11236393451690674,"2":-0.07250632345676422}],[{"0":-0.006503816228359938,"1":-0.0032722256146371365,"2":-0.10839299112558365},{"0":0.019876407459378242,"1":-0.11471141129732132,"2":-0.31936272978782654},{"0":-0.006073215510696173,"1":0.048639457672834396,"2":-0.1987321674823761}],[{"0":-0.10726841539144516,"1":-0.0832332894206047,"2":0.024832898750901222},{"0":0.12746429443359375,"1":0.06712760031223297,"2":-0.07192663848400116},{"0":0.09866983443498611,"1":0.026107382029294968,"2":-0.2352915108203888}],[{"0":0.16738508641719818,"1":0.17641907930374146,"2":0.01053809653967619},{"0":0.03168041259050369,"1":0.11433301120996475,"2":-0.028697140514850616},{"0":0.15128351747989655,"1":0.0428999699652195,"2":-0.13448485732078552}],[{"0":0.009721006266772747,"1":-0.033446844667196274,"2":-0.0658351331949234},{"0":0.11722146719694138,"1":-0.07078518718481064,"2":-0.001119785476475954},{"0":0.06904007494449615,"1":-0.1384475976228714,"2":-0.11182043701410294}],[{"0":0.12467706203460693,"1":-0.044880494475364685,"2":0.0829179659485817},{"0":-0.07975675910711288,"1":0.014271455816924572,"2":-0.038592543452978134},{"0":-0.07900615781545639,"1":-0.025521647185087204,"2":-0.08097962290048599}],[{"0":0.18244454264640808,"1":0.11233017593622208,"2":-0.06196436658501625},{"0":0.19100132584571838,"1":0.01376275159418583,"2":-0.05260509252548218},{"0":0.18480199575424194,"1":-0.026259703561663628,"2":-0.07503292709589005}],[{"0":-0.039046239107847214,"1":-0.07340000569820404,"2":0.0483759269118309},{"0":-0.0193330068141222,"1":0.02630644477903843,"2":-0.10941401869058609},{"0":-0.013343283906579018,"1":0.10607709735631943,"2":-0.17517830431461334}],[{"0":0.029823793098330498,"1":-0.09147512912750244,"2":0.09754081070423126},{"0":0.10309820622205734,"1":-0.050053671002388,"2":-0.15352419018745422},{"0":0.10430952161550522,"1":-0.15961900353431702,"2":0.05207754299044609}],[{"0":0.12800994515419006,"1":0.2458185851573944,"2":0.1045026183128357},{"0":0.05235437676310539,"1":-0.1570364236831665,"2":-0.19903883337974548},{"0":0.14138254523277283,"1":-0.2005533128976822,"2":0.02622455731034279}],[{"0":0.1734989583492279,"1":-0.0905376523733139,"2":-0.08179885894060135},{"0":0.23122908174991608,"1":-0.18071486055850983,"2":0.012999081052839756},{"0":0.07766356319189072,"1":-0.17135456204414368,"2":-0.1322343349456787}],[{"0":-0.00789673998951912,"1":0.05072733014822006,"2":0.09194282442331314},{"0":-0.06411924958229065,"1":-0.031038401648402214,"2":-0.08972398936748505},{"0":0.08806522935628891,"1":0.0552317276597023,"2":-0.18798086047172546}]],[[{"0":0.02773190476000309,"1":0.22511835396289825,"2":0.2700261175632477},{"0":0.07153505831956863,"1":0.1651054173707962,"2":0.040536217391490936},{"0":0.06566969305276871,"1":-0.05761277303099632,"2":-0.14884957671165466}],[{"0":-0.07906545698642731,"1":0.005192675162106752,"2":0.031824324280023575},{"0":0.048823077231645584,"1":0.14883337914943695,"2":0.03769306465983391},{"0":0.03324330225586891,"1":-0.08127249777317047,"2":0.05396620184183121}],[{"0":-0.040342386811971664,"1":-0.009831463918089867,"2":-0.0733296200633049},{"0":-0.04944939538836479,"1":-0.05513758584856987,"2":0.03169841691851616},{"0":-0.11163538694381714,"1":0.029100682586431503,"2":-0.16874347627162933}],[{"0":-0.017180752009153366,"1":0.017579227685928345,"2":0.06181985139846802},{"0":0.09645875543355942,"1":-0.07869678735733032,"2":0.19328267872333527},{"0":0.13755415380001068,"1":0.003950168844312429,"2":-0.015989573672413826}],[{"0":-0.08514310419559479,"1":-0.01716197282075882,"2":-0.11129169166088104},{"0":0.08698591589927673,"1":-0.0906500294804573,"2":-0.1743740290403366},{"0":-0.10377174615859985,"1":-0.15628817677497864,"2":-0.09275013208389282}],[{"0":0.03186216205358505,"1":0.07674030214548111,"2":0.1609702855348587},{"0":-0.027807628735899925,"1":0.09995578229427338,"2":0.13826097548007965},{"0":0.15229102969169617,"1":-0.008109916932880878,"2":-0.06852660328149796}],[{"0":0.026911349967122078,"1":-0.11465363949537277,"2":-0.13226467370986938},{"0":0.10684128105640411,"1":0.010982245206832886,"2":0.17788949608802795},{"0":0.29124268889427185,"1":0.14159119129180908,"2":0.2132662683725357}],[{"0":0.05707133561372757,"1":0.07768791168928146,"2":-0.17999903857707977},{"0":0.12372896820306778,"1":-0.0045255799777805805,"2":-0.1841290444135666},{"0":0.07081907987594604,"1":0.09903250634670258,"2":-0.27400317788124084}],[{"0":-0.008959261700510979,"1":0.014157097786664963,"2":-0.18584774434566498},{"0":0.13087724149227142,"1":-0.037489354610443115,"2":-0.16859430074691772},{"0":-0.041345447301864624,"1":-0.07464670389890671,"2":-0.11705241352319717}],[{"0":0.004957528784871101,"1":0.012210522778332233,"2":-0.0027653053402900696},{"0":-0.023268183693289757,"1":-0.07562011480331421,