[{"tipo":"conv2d","inChannels":1,"outChannels":8,"kernelSize":5,"lastOutputShape":[8,3,3],"kernels":[[[{"0":-0.05013803765177727,"1":-0.17302003502845764,"2":-0.23438681662082672,"3":-0.15573273599147797,"4":0.0035429708659648895},{"0":-0.057668328285217285,"1":-0.04170544818043709,"2":-0.1663563847541809,"3":-0.052515264600515366,"4":-0.02410472184419632},{"0":-0.14757470786571503,"1":-0.0843525230884552,"2":0.21282623708248138,"3":0.09151886403560638,"4":-0.07817502319812775},{"0":0.08027985692024231,"1":0.22160707414150238,"2":0.47472119331359863,"3":0.41738539934158325,"4":0.26677843928337097},{"0":0.06904050707817078,"1":0.036167822778224945,"2":-0.31946179270744324,"3":-0.33654364943504333,"4":-0.1680949479341507}]],[[{"0":-0.025654757395386696,"1":0.006703834980726242,"2":-0.04870643839240074,"3":0.08054883033037186,"4":0.025419462472200394},{"0":-0.03196326643228531,"1":-0.0020977030508220196,"2":-0.008258963003754616,"3":0.17434149980545044,"4":-0.0307932049036026},{"0":-0.08068482577800751,"1":0.0726979598402977,"2":0.09487320482730865,"3":0.07454222440719604,"4":-0.09952189028263092},{"0":-0.04387163370847702,"1":0.16942735016345978,"2":0.006595300976186991,"3":0.015652872622013092,"4":-0.030971582978963852},{"0":0.07124760746955872,"1":0.06509657204151154,"2":-0.06839937716722488,"3":-0.0037092608399689198,"4":-0.04246983677148819}]],[[{"0":-0.1124475821852684,"1":0.04154593497514725,"2":0.4597947597503662,"3":-0.2342860847711563,"4":-0.3181452453136444},{"0":-0.11810065060853958,"1":0.34818077087402344,"2":0.4558020532131195,"3":-0.29355403780937195,"4":-0.4041297435760498},{"0":0.08212515711784363,"1":0.06790697574615479,"2":0.4725833833217621,"3":-0.07472795993089676,"4":-0.49927082657814026},{"0":0.07478758692741394,"1":-0.0381283313035965,"2":0.45925894379615784,"3":0.3697051703929901,"4":-0.002611036179587245},{"0":-0.08679573982954025,"1":-0.1884452849626541,"2":0.11584746092557907,"3":0.21143461763858795,"4":0.04850071296095848}]],[[{"0":0.028083782643079758,"1":-0.038707900792360306,"2":0.25940078496932983,"3":-0.2382778376340866,"4":-0.21904955804347992},{"0":-0.2523775100708008,"1":-0.13063782453536987,"2":0.306047260761261,"3":0.22257043421268463,"4":0.23171783983707428},{"0":-0.19507694244384766,"1":-0.17642097175121307,"2":0.33837008476257324,"3":0.5205409526824951,"4":0.19378982484340668},{"0":-0.18712712824344635,"1":-0.2610591650009155,"2":-0.19941890239715576,"3":0.0334090031683445,"4":-0.05716400966048241},{"0":-0.2183285802602768,"1":-0.3268745541572571,"2":-0.47918370366096497,"3":-0.3552667200565338,"4":-0.24558109045028687}]],[[{"0":0.1824573278427124,"1":0.33586642146110535,"2":0.33734455704689026,"3":0.008331168442964554,"4":-0.14937902987003326},{"0":0.026702266186475754,"1":0.1492406725883484,"2":-0.011022476479411125,"3":-0.30949312448501587,"4":-0.2495841532945633},{"0":0.12664946913719177,"1":0.21497471630573273,"2":-0.03734629973769188,"3":-0.32696008682250977,"4":-0.31364262104034424},{"0":0.26954326033592224,"1":-0.021153513342142105,"2":-0.11931613087654114,"3":-0.26444751024246216,"4":-0.2456303983926773},{"0":0.32275819778442383,"1":0.0800681859254837,"2":-0.1012871041893959,"3":-0.23255909979343414,"4":-0.1887383908033371}]],[[{"0":0.25340452790260315,"1":0.35574084520339966,"2":0.20234116911888123,"3":0.026793498545885086,"4":0.07180576026439667},{"0":-0.056837841868400574,"1":0.3251742124557495,"2":-0.0017636696575209498,"3":0.05644947662949562,"4":-0.025683525949716568},{"0":0.09037913382053375,"1":0.2208699882030487,"2":-0.13635756075382233,"3":0.3336067497730255,"4":-0.15600965917110443},{"0":0.2491241842508316,"1":0.2677234709262848,"2":-0.02428356185555458,"3":0.35407277941703796,"4":0.22153036296367645},{"0":0.054458655416965485,"1":0.014844666235148907,"2":-0.052088961005210876,"3":0.21688218414783478,"4":0.12074422836303711}]],[[{"0":0.057676758617162704,"1":-0.2787320911884308,"2":-0.38630250096321106,"3":-0.34403860569000244,"4":-0.14884212613105774},{"0":-0.08282050490379333,"1":-0.23398438096046448,"2":-0.4823383688926697,"3":-0.23170071840286255,"4":-0.07629325985908508},{"0":0.1818048059940338,"1":0.42414590716362,"2":0.2941563129425049,"3":0.08673808723688126,"4":0.07343380898237228},{"0":-0.02438933402299881,"1":0.3179335296154022,"2":0.43263986706733704,"3":0.37785959243774414,"4":0.17826718091964722},{"0":-0.16098463535308838,"1":-0.026511726900935173,"2":0.18022850155830383,"3":-0.06335091590881348,"4":-0.03159353882074356}]],[[{"0":0.16204047203063965,"1":-0.08090756088495255,"2":-0.020656857639551163,"3":0.3087844252586365,"4":-0.01666698232293129},{"0":0.06901811063289642,"1":-0.15087001025676727,"2":-0.0888066366314888,"3":0.39971038699150085,"4":-0.029009416699409485},{"0":0.1223909854888916,"1":-0.2710133194923401,"2":0.0084367785602808,"3":0.5811408162117004,"4":0.30116403102874756},{"0":0.1702573448419571,"1":-0.1304115504026413,"2":0.20337699353694916,"3":0.2939353585243225,"4":0.21904456615447998},{"0":0.3578449487686157,"1":0.359515517950058,"2":0.1385457068681717,"3":0.2817641794681549,"4":0.004355255048722029}]]],"bias":{"0":-0.1850481927394867,"1":-0.38793548941612244,"2":0.09165104478597641,"3":0.2116188108921051,"4":0.351539671421051,"5":-0.526515007019043,"6":-0.019317254424095154,"7":-0.41069087386131287}},{"tipo":"relu"},{"tipo":"conv2d","inChannels":8,"outChannels":16,"kernelSize":5,"lastOutputShape":[16,3,3],"kernels":[[[{"0":-0.03719520568847656,"1":-0.029257165268063545,"2":-0.00446933601051569,"3":-0.014520963653922081,"4":-0.03626018762588501},{"0":-0.03647541627287865,"1":-0.03010031022131443,"2":-0.013497570529580116,"3":-0.006915740668773651,"4":-0.03065379709005356},{"0":-0.039412982761859894,"1":-0.021111520007252693,"2":-0.010178417898714542,"3":-0.013229643926024437,"4":-0.026009922847151756},{"0":-0.02351413667201996,"1":-0.0312800370156765,"2":-0.03311283886432648,"3":-0.018145237118005753,"4":-0.01601444184780121},{"0":-0.030100660398602486,"1":-0.024208635091781616,"2":-0.008956081233918667,"3":-0.012194585986435413,"4":-0.03261963650584221}],[{"0":0.0008960652048699558,"1":-0.006147103849798441,"2":0.007606998085975647,"3":0.012392598204314709,"4":0.005933849141001701},{"0":-0.0132224690169096,"1":-0.010370835661888123,"2":0.01008574664592743,"3":0.008537372574210167,"4":-0.001768061425536871},{"0":-0.017034122720360756,"1":-0.00496120098978281,"2":0.009510970674455166,"3":0.0031373430974781513,"4":-0.006857722997665405},{"0":-0.015538249164819717,"1":-0.002048811176791787,"2":-0.0024991072714328766,"3":0.005234855227172375,"4":-0.00797430519014597},{"0":-0.009153184480965137,"1":-0.005193424876779318,"2":-0.00031871715327724814,"3":0.012001117691397667,"4":-0.0056493282318115234}],[{"0":-0.06908897310495377,"1":-0.04937097802758217,"2":0.10906821489334106,"3":0.1903688907623291,"4":0.1018483117222786},{"0":-0.0365196093916893,"1":-0.022652363404631615,"2":0.013127977959811687,"3":0.20523680746555328,"4":0.1392708271741867},{"0":-0.030999397858977318,"1":-0.008385068736970425,"2":0.0289172176271677,"3":0.21659450232982635,"4":0.13343113660812378},{"0":-0.02655620127916336,"1":-0.028280606493353844,"2":0.02655504085123539,"3":0.12891460955142975,"4":0.18543741106987},{"0":-0.02023988775908947,"1":-0.034918174147605896,"2":0.004760351963341236,"3":0.09621482342481613,"4":0.16560451686382294}],[{"0":-0.044535886496305466,"1":0.008725273422896862,"2":0.04000940918922424,"3":0.021973134949803352,"4":-0.016578147187829018},{"0":-0.051860611885786057,"1":0.014442340470850468,"2":0.08996350318193436,"3":0.06385780870914459,"4":-0.021301547065377235},{"0":-0.030672529712319374,"1":-0.01317326445132494,"2":0.06914147734642029,"3":0.11593149602413177,"4":0.019259484484791756},{"0":-0.03108331747353077,"1":-0.020531466230750084,"2":0.018898770213127136,"3":0.12569193542003632,"4":0.06214610114693642},{"0":-0.033250804990530014,"1":-0.03793645650148392,"2":-0.010393518954515457,"3":0.05126368626952171,"4":0.04582754522562027}],[{"0":0.0065626357682049274,"1":-0.01731017604470253,"2":-0.02143552340567112,"3":-0.03709854185581207,"4":0.03456886485219002},{"0":0.02242981269955635,"1":-0.02819870226085186,"2":-0.03947818651795387,"3":-0.03609840199351311,"4":0.03727509081363678},{"0":0.015842454507946968,"1":-0.024901341646909714,"2":-0.021618269383907318,"3":-0.02682569995522499,"4":0.04447543993592262},{"0":-0.0006475070840679109,"1":-0.02963796630501747,"2":-0.012015610933303833,"3":-0.008255564607679844,"4":0.0755162388086319},{"0":-0.013189266435801983,"1":-0.029997367411851883,"2":-0.009619651362299919,"3":-0.01373239979147911,"4":0.09247340261936188}],[{"0":-0.07103744149208069,"1":-0.028917580842971802,"2":0.03961753100156784,"3":0.011685551144182682,"4":-0.003248829860240221},{"0":-0.06885494291782379,"1":-0.05305355414748192,"2":0.030868832021951675,"3":0.08722254633903503,"4":-0.00869969092309475},{"0":-0.0790947675704956,"1":-0.07957180589437485,"2":-0.060953494161367416,"3":0.02113429456949234,"4":-0.02388947643339634},{"0":-0.0802769586443901,"1":-0.08767416328191757,"2":-0.0660887211561203,"3":-0.06934301555156708,"4":-0.05257595330476761},{"0":-0.056090861558914185,"1":-0.06197283789515495,"2":-0.062286172062158585,"3":-0.06385388225317001,"4":-0.03854742646217346}],[{"0":-0.06317982822656631,"1":-0.07586953788995743,"2":-0.0616011917591095,"3":-0.002176528563722968,"4":0.04138665646314621},{"0":-0.054860785603523254,"1":-0.058155421167612076,"2":-0.043271325528621674,"3":-0.034658096730709076,"4":0.05736378952860832},{"0":-0.041980158537626266,"1":-0.04125513881444931,"2":-0.03791230916976929,"3":-0.030782515183091164,"4":0.018939662724733353},{"0":-0.03591268137097359,"1":-0.05302931368350983,"2":-0.04574908688664436,"3":-0.027143677696585655,"4":0.0025855153799057007},{"0":-0.01780131459236145,"1":-0.018724465742707253,"2":-0.027010144665837288,"3":-0.03468294069170952,"4":-0.02516801841557026}],[{"0":-0.07102391123771667,"1":0.019890815019607544,"2":0.06948643922805786,"3":-0.07177507877349854,"4":-0.15246474742889404},{"0":-0.09774429351091385,"1":-0.04628279060125351,"2":0.06488456577062607,"3":-0.02639756351709366,"4":-0.1326637715101242},{"0":-0.09617459028959274,"1":-0.06360179930925369,"2":0.05186581611633301,"3":0.06003853306174278,"4":-0.12850648164749146},{"0":-0.08662835508584976,"1":-0.05159630626440048,"2":0.02329261042177677,"3":0.06382310390472412,"4":-0.12503868341445923},{"0":-0.050095584243535995,"1":-0.015886645764112473,"2":0.06572515517473221,"3":0.0467754602432251,"4":-0.13055048882961273}]],[[{"0":0.001746553578414023,"1":0.02330007590353489,"2":-0.0120781771838665,"3":-0.02669139951467514,"4":-0.03135945275425911},{"0":-0.042225420475006104,"1":-0.0349859781563282,"2":-0.008343146182596684,"3":-0.021787861362099648,"4":-0.06220056861639023},{"0":-0.03556846082210541,"1":-0.03905003145337105,"2":-0.023846754804253578,"3":0.004157739691436291,"4":-0.013625302352011204},{"0":-0.04850107058882713,"1":-0.04338590428233147,"2":-0.04735250025987625,"3":-0.036488477140665054,"4":-0.004587304312735796},{"0":-0.028636254370212555,"1":-0.03804338350892067,"2":-0.028337839990854263,"3":-0.01516881212592125,"4":-0.008579877205193043}],[{"0":0.00013996209600009024,"1":-0.010485473088920116,"2":-0.02490018680691719,"3":0.0026332582347095013,"4":-0.008316750638186932},{"0":-0.0047853318974375725,"1":-0.018406974151730537,"2":-0.011663566343486309,"3":0.004735097289085388,"4":-0.010257049463689327},{"0":-0.008543526753783226,"1":-0.01744695194065571,"2":-0.0026187829207628965,"3":0.00104682391975075,"4":-0.012848326936364174},{"0":-0.014101553708314896,"1":-0.012261465191841125,"2":-0.002843154827132821,"3":-0.020298080518841743,"4":-0.0114465756341815},{"0":-0.010372698307037354,"1":-0.008025889284908772,"2":-0.019808271899819374,"3":-0.01589709334075451,"4":-0.0024448619224131107}],[{"0":-0.04805790260434151,"1":0.06586888432502747,"2":0.16179490089416504,"3":0.04351850971579552,"4":-0.03636113181710243},{"0":-0.05479337275028229,"1":-0.0009276485070586205,"2":0.16609787940979004,"3":0.1587584912776947,"4":0.014826399274170399},{"0":-0.023555919528007507,"1":-0.020268091931939125,"2":0.05929164960980415,"3":0.1745467483997345,"4":0.15910141170024872},{"0":-0.016712626442313194,"1":-0.027258852496743202,"2":-0.003700826782733202,"3":0.08153726905584335,"4":0.11245224624872208},{"0":-0.0022023606579750776,"1":-0.02016044408082962,"2":-0.033850450068712234,"3":-0.012468092143535614,"4":0.056942835450172424}],[{"0":0.013720805756747723,"1":0.019286707043647766,"2":0.015075945295393467,"3":-0.019098207354545593,"4":-0.010559544898569584},{"0":-0.01888442039489746,"1":0.05704449862241745,"2":0.09375645220279694,"3":0.015272874385118484,"4":-0.010144379921257496},{"0":-0.070863276720047,"1":0.0247145164757967,"2":0.20569641888141632,"3":0.14579148590564728,"4":-0.010816356167197227},{"0":-0.043326716870069504,"1":-0.017026204615831375,"2":0.17518337070941925,"3":0.29184478521347046,"4":0.10082215070724487},{"0":-0.026132650673389435,"1":-0.031196419149637222,"2":0.05038925260305405,"3":0.17884764075279236,"4":0.14265133440494537}],[{"0":-0.004168772604316473,"1":-0.02609495259821415,"2":-0.05312228575348854,"3":-0.09065579622983932,"4":-0.029101040214300156},{"0":0.003084837691858411,"1":-0.02427520416676998,"2":-0.0580221526324749,"3":-0.08656221628189087,"4":-0.050871849060058594},{"0":0.022462448105216026,"1":-0.031828392297029495,"2":-0.07200179249048233,"3":-0.09249593317508698,"4":-0.05883650481700897},{"0":0.0011154644889757037,"1":-0.04608645662665367,"2":-0.07609282433986664,"3":-0.0834168940782547,"4":-0.06992541253566742},{"0":0.006402054335922003,"1":-0.028991643339395523,"2":-0.05053448677062988,"3":-0.06558410823345184,"4":-0.043336253613233566}],[{"0":-0.06583251059055328,"1":0.06063106283545494,"2":0.03561180457472801,"3":-0.01600172556936741,"4":-0.014659808948636055},{"0":-0.056374337524175644,"1":0.06281588226556778,"2":0.11562201380729675,"3":0.06260877102613449,"4":0.04021478444337845},{"0":-0.05806496739387512,"1":-0.0397617407143116,"2":0.07811973989009857,"3":0.12737637758255005,"4":0.08732617646455765},{"0":-0.06852366030216217,"1":-0.10630123317241669,"2":-0.06611963361501694,"3":0.039228655397892,"4":0.10282830148935318},{"0":-0.0675048828125,"1":-0.09186491370201111,"2":-0.10575628280639648,"3":-0.07140526175498962,"4":0.04301034286618233}],[{"0":-0.01207584049552679,"1":0.027942946180701256,"2":0.10557439923286438,"3":0.15868346393108368,"4":0.07868365198373795},{"0":-0.05728369578719139,"1":-0.07470464706420898,"2":-0.04447378218173981,"3":0.06398818641901016,"4":0.10029324144124985},{"0":-0.06679238379001617,"1":-0.07812189310789108,"2":-0.10254637151956558,"3":-0.05996545031666756,"4":0.06265538930892944},{"0":-0.0639670267701149,"1":-0.08175858855247498,"2":-0.07721718400716782,"3":-0.060615818947553635,"4":-0.0006951183895580471},{"0":-0.05963508039712906,"1":-0.06746082752943039,"2":-0.05333838239312172,"3":-0.04158451408147812,"4":-0.000011460305358923506}],[{"0":0.020596565678715706,"1":0.03593112528324127,"2":-0.0151240024715662,"3":-0.09366683661937714,"4":-0.03289671242237091},{"0":-0.05390671268105507,"1":0.09883873164653778,"2":0.02694282867014408,"3":-0.08258506655693054,"4":-0.07934672385454178},{"0":-0.1271364390850067,"1":0.034650903195142746,"2":0.1367771476507187,"3":-0.030359843745827675,"4":-0.09127438068389893},{"0":-0.13697537779808044,"1":-0.07658371329307556,"2":0.0916498526930809,"3":0.02950303629040718,"4":-0.06886448711156845},{"0":-0.13444887101650238,"1":-0.11131119728088379,"2":-0.0004288713971618563,"3":0.013239143416285515,"4":-0.007903466932475567}]],[[{"0":0.007977527566254139,"1":0.03125269338488579,"2":0.10872801393270493,"3":0.13990946114063263,"4":0.06460189819335938},{"0":0.06341613829135895,"1":0.0733090341091156,"2":0.10712872445583344,"3":0.043220918625593185,"4":0.009261524304747581},{"0":0.031011175364255905,"1":0.060021039098501205,"2":-0.0021545158233493567,"3":-0.017368001863360405,"4":-0.008400006219744682},{"0":0.13417112827301025,"1":0.08585090190172195,"2":0.03425433859229088,"3":0.003688730066642165,"4":0.01758263073861599},{"0":0.01123733539134264,"1":-0.022441113367676735,"2":-0.02801838144659996,"3":-0.00044716880074702203,"4":0.029093433171510696}],[{"0":-0.012003562413156033,"1":0.007483277935534716,"2":0.008206208236515522,"3":0.0696907639503479,"4":0.013956562615931034},{"0":0.005844427272677422,"1":0.03434593603014946,"2":0.06237943843007088,"3":0.0657460168004036,"4":-0.02144383080303669},{"0":0.015339546836912632,"1":0.08248927444219589,"2":0.061016496270895004,"3":0.011377331800758839,"4":-0.02902655303478241},{"0":0.0432252436876297,"1":0.08771912753582001,"2":0.006967269349843264,"3":-0.003330549690872431,"4":-0.016940707340836525},{"0":0.04675617814064026,"1":0.03390033543109894,"2":-0.015887301415205002,"3":-0.0023413856979459524,"4":0.007395970169454813}],[{"0":-0.03499431163072586,"1":-0.0583697073161602,"2":0.021675260737538338,"3":-0.011045420542359352,"4":-0.039562441408634186},{"0":-0.1152394711971283,"1":-0.14148294925689697,"2":-0.05009789764881134,"3":0.02697286382317543,"4":0.026107575744390488},{"0":-0.20955932140350342,"1":-0.18658293783664703,"2":-0.03149798884987831,"3":0.06556811183691025,"4":-0.011122085154056549},{"0":-0.11756540834903717,"1":-0.044489700347185135,"2":0.12157449126243591,"3":0.01357010006904602,"4":-0.018709169700741768},{"0":-0.06811708211898804,"1":0.1256014108657837,"2":0.11953973770141602,"3":-0.07125341892242432,"4":-0.04874764010310173}],[{"0":-0.07482227683067322,"1":-0.11365554481744766,"2":-0.09662171453237534,"3":-0.06576649099588394,"4":-0.03557814285159111},{"0":-0.1416376382112503,"1":-0.18028946220874786,"2":-0.13432855904102325,"3":-0.08366580307483673,"4":-0.03677617013454437},{"0":-0.10984411090612411,"1":-0.20956826210021973,"2":-0.20241409540176392,"3":-0.10973244160413742,"4":-0.07115889340639114},{"0":-0.06468962132930756,"1":-0.1641390025615692,"2":-0.136060431599617,"3":-0.07861920446157455,"4":-0.0322234109044075},{"0":-0.027461182326078415,"1":-0.033779244869947433,"2":-0.00658420892432332,"3":0.01282580941915512,"4":0.030009500682353973}],[{"0":-0.09549563378095627,"1":-0.09686563909053802,"2":-0.09632838517427444,"3":-0.0973462238907814,"4":-0.047444526106119156},{"0":-0.10190553218126297,"1":-0.0927201583981514,"2":-0.06496580690145493,"3":0.013349020853638649,"4":0.019000237807631493},{"0":-0.08982134610414505,"1":-0.0690450444817543,"2":0.01332465186715126,"3":0.023302774876356125,"4":-0.03784677013754845},{"0":-0.04617307335138321,"1":0.010620168410241604,"2":0.1088956817984581,"3":0.025146469473838806,"4":0.0053245495073497295},{"0":0.03938348591327667,"1":0.12995615601539612,"2":0.06452668458223343,"3":-0.035304874181747437,"4":-0.06930220127105713}],[{"0":0.06074624881148338,"1":0.08518685400485992,"2":-0.027598373591899872,"3":0.05574909225106239,"4":0.031018245965242386},{"0":0.053600020706653595,"1":0.08811140060424805,"2":0.022486502304673195,"3":0.17391973733901978,"4":0.08847735822200775},{"0":-0.04507652297616005,"1":0.012565878219902515,"2":0.023643866181373596,"3":0.1710110306739807,"4":0.015773151069879532},{"0":0.04662936180830002,"1":0.13222455978393555,"2":0.15787042677402496,"3":0.17539209127426147,"4":0.05863635241985321},{"0":0.0043427906930446625,"1":0.09261709451675415,"2":0.11462780833244324,"3":0.07729944586753845,"4":-0.012329235672950745}],[{"0":0.00913279876112938,"1":0.03252677246928215,"2":0.06994837522506714,"3":0.04847670719027519,"4":0.026176633313298225},{"0":0.11613521724939346,"1":0.0931231901049614,"2":0.015602507628500462,"3":-0.021275412291288376,"4":0.008250517770648003},{"0":0.08863222599029541,"1":0.023401105776429176,"2":-0.067581407725811,"3":-0.04898364469408989,"4":0.018477492034435272},{"0":0.0325482152402401,"1":-0.06400672346353531,"2":-0.12044728547334671,"3":-0.06549341231584549,"4":-0.015852201730012894},{"0":-0.019435204565525055,"1":-0.06476917862892151,"2":-0.05652453750371933,"3":0.017533371224999428,"4":0.06288168579339981}],[{"0":0.11760944128036499,"1":0.1825435608625412,"2":0.11273494362831116,"3":0.14009317755699158,"4":0.07958021759986877},{"0":0.1759154200553894,"1":0.24082551896572113,"2":0.12193837761878967,"3":0.007731413934379816,"4":0.03211452439427376},{"0":0.22810180485248566,"1":0.2009979486465454,"2":0.01779266446828842,"3":0.027694962918758392,"4":0.02116822451353073},{"0":0.1439998596906662,"1":0.057423193007707596,"2":-0.0738242045044899,"3":-0.024867912754416466,"4":-0.00007529096183134243},{"0":0.02998526394367218,"1":0.008775925263762474,"2":-0.05581074208021164,"3":-0.014590231701731682,"4":-0.026971133425831795}]],[[{"0":0.03323378413915634,"1":0.0059792655520141125,"2":-0.021689502522349358,"3":-0.05184450373053551,"4":-0.04833619296550751},{"0":0.027090150862932205,"1":0.007915128022432327,"2":-0.027184654027223587,"3":-0.03388923779129982,"4":-0.0317353717982769},{"0":0.0161815844476223,"1":-0.012602146714925766,"2":-0.0197212602943182,"3":-0.022960586473345757,"4":-0.030207203701138496},{"0":0.006327488459646702,"1":-0.027524277567863464,"2":-0.03758545219898224,"3":-0.02181786485016346,"4":-0.010237202979624271},{"0":-0.04381486773490906,"1":-0.04052896425127983,"2":-0.02740439772605896,"3":-0.017568107694387436,"4":-0.013255089521408081}],[{"0":0.019625404849648476,"1":0.028153158724308014,"2":-0.0018704078393056989,"3":-0.01418940257281065,"4":-0.021261651068925858},{"0":0.017231132835149765,"1":0.0212137121707201,"2":-0.00421388354152441,"3":-0.01749415136873722,"4":-0.021447114646434784},{"0":0.022607041522860527,"1":0.01402613427489996,"2":-0.012736801989376545,"3":-0.017763739451766014,"4":-0.0072020841762423515},{"0":0.022427266463637352,"1":0.007544635329395533,"2":-0.017353661358356476,"3":0.002577737672254443,"4":0.000015755023923702538},{"0":0.012395346537232399,"1":-0.0018605830846354365,"2":-0.007152619305998087,"3":0.012439552694559097,"4":0.011749903671443462}],[{"0":0.16098667681217194,"1":-0.001530233770608902,"2":-0.01720140315592289,"3":-0.05610467493534088,"4":-0.10356716066598892},{"0":0.17270304262638092,"1":0.030165493488311768,"2":-0.021085292100906372,"3":-0.04490332677960396,"4":-0.08142834901809692},{"0":0.1367577463388443,"1":0.027365703135728836,"2":-0.03611596301198006,"3":-0.0477309450507164,"4":-0.06395785510540009},{"0":0.1243535578250885,"1":0.006392164155840874,"2":-0.044395558536052704,"3":-0.07015567272901535,"4":-0.05183351784944534},{"0":0.16605080664157867,"1":0.049466658383607864,"2":-0.06739491969347,"3":-0.0824984461069107,"4":-0.05632280185818672}],[{"0":0.024982059374451637,"1":0.011868485249578953,"2":0.017606832087039948,"3":-0.003051313105970621,"4":0.030351649969816208},{"0":0.048129819333553314,"1":0.019581487402319908,"2":0.015909895300865173,"3":0.004722084850072861,"4":0.007643311750143766},{"0":0.0515863373875618,"1":0.037997227162122726,"2":0.03707846626639366,"3":0.04831153526902199,"4":0.021823056042194366},{"0":0.06561344116926193,"1":0.02781527489423752,"2":0.04986118525266647,"3":0.04608992114663124,"4":0.03739699348807335},{"0":0.07884425669908524,"1":0.031346000730991364,"2":0.04463518410921097,"3":0.062211938202381134,"4":0.061867546290159225}],[{"0":0.220925971865654,"1":0.18838262557983398,"2":0.17426475882530212,"3":0.07528342306613922,"4":0.024332985281944275},{"0":0.18739008903503418,"1":0.20305167138576508,"2":0.1412820667028427,"3":0.028668547049164772,"4":0.010787381790578365},{"0":0.16382461786270142,"1":0.1756390780210495,"2":0.1418222039937973,"3":-0.007858725264668465,"4":-0.03818194195628166},{"0":0.13859111070632935,"1":0.19742971658706665,"2":0.09774799644947052,"3":-0.01239139772951603,"4":-0.018846523016691208},{"0":0.15655258297920227,"1":0.17345090210437775,"2":0.09558882564306259,"3":0.014688410796225071,"4":0.002230169950053096}],[{"0":0.006716595031321049,"1":-0.01740298978984356,"2":-0.018504798412322998,"3":-0.07896754890680313,"4":-0.09457927942276001},{"0":0.020667146891355515,"1":0.007525805849581957,"2":-0.014757327735424042,"3":-0.08361324667930603,"4":-0.10913576930761337},{"0":-0.03336210548877716,"1":0.012137915939092636,"2":-0.05309627205133438,"3":-0.08236139267683029,"4":-0.0992516428232193},{"0":0.001853201654739678,"1":0.022574976086616516,"2":-0.048082079738378525,"3":-0.07128699868917465,"4":-0.07414788007736206},{"0":0.06037011742591858,"1":0.061315711587667465,"2":-0.04614133760333061,"3":-0.06802782416343689,"4":-0.06973821669816971}],[{"0":0.026968274265527725,"1":0.004164832178503275,"2":-0.054427772760391235,"3":-0.07014281302690506,"4":-0.07152751833200455},{"0":0.0653587207198143,"1":0.0033093499951064587,"2":-0.04393533244729042,"3":-0.050371624529361725,"4":-0.04312700778245926},{"0":0.08441151678562164,"1":0.012209149077534676,"2":-0.04050757735967636,"3":-0.048358429223299026,"4":-0.04872697964310646},{"0":0.06399130821228027,"1":-0.003142162226140499,"2":-0.06588635593652725,"3":-0.07994391024112701,"4":-0.05847977474331856},{"0":0.03429769352078438,"1":0.006817910820245743,"2":-0.030716560781002045,"3":-0.06185271963477135,"4":-0.0831649973988533}],[{"0":0.08959919214248657,"1":-0.07862897217273712,"2":-0.06155901774764061,"3":-0.12721702456474304,"4":-0.12335038185119629},{"0":0.09263873845338821,"1":-0.021663492545485497,"2":-0.053527574986219406,"3":-0.11314289271831512,"4":-0.11947736889123917},{"0":0.039412133395671844,"1":-0.018030507490038872,"2":-0.02486160397529602,"3":-0.09360168874263763,"4":-0.12130805850028992},{"0":-0.01031795609742403,"1":-0.03348278999328613,"2":-0.01794201321899891,"3":-0.0716513991355896,"4":-0.10013546794652939},{"0":-0.034820180386304855,"1":-0.040472157299518585,"2":-0.008141419850289822,"3":-0.058676037937402725,"4":-0.11313449591398239}]],[[{"0":-0.013581054285168648,"1":-0.003873200621455908,"2":0.007479967549443245,"3":0.040027134120464325,"4":0.028457192704081535},{"0":-0.03355548158288002,"1":-0.029863007366657257,"2":0.02564232237637043,"3":0.03444189205765724,"4":-0.028699297457933426},{"0":-0.051734503358602524,"1":-0.021006114780902863,"2":0.04151228070259094,"3":-0.00896094273775816,"4":-0.03898579254746437},{"0":-0.039663925766944885,"1":0.021278705447912216,"2":0.0056923613883554935,"3":-0.01696905866265297,"4":-0.010015963576734066},{"0":0.014506248757243156,"1":0.02850351855158806,"2":-0.004323677159845829,"3":-0.006858830340206623,"4":0.0033041874412447214}],[{"0":-0.012859966605901718,"1":-0.0027227699756622314,"2":0.02741100825369358,"3":0.04013926908373833,"4":0.05594044551253319},{"0":-0.018208947032690048,"1":-0.00019377208082005382,"2":0.0426434688270092,"3":0.07391078770160675,"4":0.029057977721095085},{"0":-0.020539946854114532,"1":0.010850141756236553,"2":0.06382715702056885,"3":0.054161492735147476,"4":0.0013430709950625896},{"0":-0.02847116068005562,"1":0.04164551571011543,"2":0.059853728860616684,"3":0.012071916833519936,"4":-0.008468086831271648},{"0":-0.008495870046317577,"1":0.05259954556822777,"2":0.015409514307975769,"3":0.0019705388695001602,"4":-0.009618335403501987}],[{"0":-0.05588562786579132,"1":-0.10815273225307465,"2":-0.05760447308421135,"3":0.08998491615056992,"4":0.042450424283742905},{"0":-0.05173837020993233,"1":-0.11380252987146378,"2":-0.05365043133497238,"3":0.06236540898680687,"4":0.07917660474777222},{"0":-0.05690440908074379,"1":-0.13349388539791107,"2":-0.025475269183516502,"3":0.11902555078268051,"4":0.0950712338089943},{"0":-0.06535298377275467,"1":-0.09783518314361572,"2":0.0710204616189003,"3":0.18238849937915802,"4":0.05178212374448776},{"0":-0.06515590101480484,"1":-0.004050530958920717,"2":0.1741371899843216,"3":0.08648548275232315,"4":-0.026312272995710373}],[{"0":-0.03850013017654419,"1":-0.06016344949603081,"2":-0.08332859724760056,"3":-0.04008451849222183,"4":-0.022608520463109016},{"0":-0.02535664662718773,"1":-0.02910747565329075,"2":-0.0682697519659996,"3":-0.03341830521821976,"4":-0.015467777848243713},{"0":-0.006651550997048616,"1":-0.02310602366924286,"2":-0.0750286653637886,"3":-0.05824335291981697,"4":-0.01875494420528412},{"0":0.010932961478829384,"1":-0.016172489151358604,"2":-0.015952354297041893,"3":-0.03820451721549034,"4":-0.027446560561656952},{"0":0.02439177967607975,"1":-0.011331313289701939,"2":0.015492061153054237,"3":-0.0017251092940568924,"4":-0.03981051594018936}],[{"0":-0.02708958089351654,"1":-0.02137177065014839,"2":-0.04168420657515526,"3":0.0009673491003923118,"4":0.14155040681362152},{"0":-0.039269428700208664,"1":-0.024777507409453392,"2":-0.022493157535791397,"3":0.044584158807992935,"4":0.2145540565252304},{"0":-0.04577166959643364,"1":-0.0332205630838871,"2":-0.0009920758893713355,"3":0.1358102262020111,"4":0.19379407167434692},{"0":-0.04687253013253212,"1":-0.026722034439444542,"2":0.04995680972933769,"3":0.18347012996673584,"4":0.12855084240436554},{"0":-0.056610215455293655,"1":-0.04595252126455307,"2":0.06906336545944214,"3":0.1564370095729828,"4":0.08852230757474899}],[{"0":-0.09171035140752792,"1":-0.022878224030137062,"2":-0.011154408566653728,"3":-0.05829634144902229,"4":0.022311298176646233},{"0":-0.06034568324685097,"1":0.018649481236934662,"2":-0.03925210237503052,"3":-0.044284138828516006,"4":0.0674145445227623},{"0":-0.05951305478811264,"1":0.013912695460021496,"2":-0.06716097891330719,"3":0.01767081581056118,"4":0.06665872037410736},{"0":-0.02301662415266037,"1":0.0033604796044528484,"2":-0.05344752222299576,"3":0.13081760704517365,"4":0.04836203157901764},{"0":-0.023968834429979324,"1":-0.03247660771012306,"2":-0.010960603132843971,"3":0.09534845501184464,"4":0.004782647360116243}],[{"0":-0.0027476847171783447,"1":-0.0024809767492115498,"2":0.02367430180311203,"3":-0.004996195435523987,"4":-0.04347599670290947},{"0":-0.01674393191933632,"1":-0.0006521971663460135,"2":-0.0007441301131621003,"3":-0.04874609410762787,"4":-0.09120368957519531},{"0":-0.041757285594940186,"1":-0.012142108753323555,"2":-0.076261967420578,"3":-0.11039544641971588,"4":-0.10767678171396255},{"0":-0.032355546951293945,"1":-0.013706503435969353,"2":-0.09332676231861115,"3":-0.11494114249944687,"4":-0.07635203748941422},{"0":-0.01663696952164173,"1":-0.039429981261491776,"2":-0.0841929093003273,"3":-0.07966379076242447,"4":-0.02337777055799961}],[{"0":-0.11559436470270157,"1":-0.010776346549391747,"2":0.153998464345932,"3":0.0599445179104805,"4":-0.0644645169377327},{"0":-0.10022982209920883,"1":0.03860864415764809,"2":0.17530758678913116,"3":0.030619686469435692,"4":-0.08695013076066971},{"0":-0.025013212114572525,"1":0.08691589534282684,"2":0.13139966130256653,"3":-0.048318084329366684,"4":-0.0780564397573471},{"0":0.020278098061680794,"1":0.10064627975225449,"2":0.028955569490790367,"3":-0.05775436386466026,"4":-0.06571614742279053},{"0":0.04210375249385834,"1":0.0719623863697052,"2":-0.03425400331616402,"3":-0.03570247441530228,"4":-0.05475568771362305}]],[[{"0":6.504827471395801e-42,"1":6.55107032071852e-42,"2":6.47259760671633e-42,"3":6.797698850439688e-42,"4":6.47259760671633e-42},{"0":-6.597313170041239e-42,"1":6.461387219001732e-42,"2":6.741646911866695e-42,"3":-6.838336505905107e-42,"4":-6.441769040501184e-42},{"0":-6.670180690186129e-42,"1":-6.538458634539596e-42,"2":-6.982670247730563e-42,"3":-6.542662529932571e-42,"4":-6.925217010693246e-42},{"0":-6.692601465615326e-42,"1":-6.681391077900728e-42,"2":-6.658970302471531e-42,"3":-6.876171564441877e-42,"4":-6.741646911866695e-42},{"0":-6.772475478081841e-42,"1":-6.883178056763501e-42,"2":-6.993880635445162e-42,"3":-6.977065053873264e-42,"4":6.574892394612042e-42}],[{"0":-6.874770265977553e-42,"1":-6.521643052967699e-42,"2":-6.978466352337589e-42,"3":6.956045576908392e-42,"4":6.921013115300272e-42},{"0":-6.651963810149907e-42,"1":-6.43476254817956e-42,"2":-6.985472844659213e-42,"3":-6.633746930113684e-42,"4":-6.831330013583483e-42},{"0":-6.939229995336494e-42,"1":-6.992479336980837e-42,"2":6.46979500978768e-42,"3":-6.835533908976458e-42,"4":-6.521643052967699e-42},{"0":-6.672983287114779e-42,"1":6.811711835082936e-42,"2":-6.50763006832445e-42,"3":-6.354888535713045e-42,"4":-6.832731312047808e-42},{"0":6.455782025144432e-42,"1":6.827126118190509e-42,"2":-6.54826772378987e-42,"3":-6.694002764079651e-42,"4":-6.570688499219067e-42}],[{"0":-6.671581988650454e-42,"1":6.902796235264049e-42,"2":-6.881776758299177e-42,"3":-6.489413188288228e-42,"4":6.546866425325545e-42},{"0":-6.992479336980837e-42,"1":-6.688397570222352e-42,"2":-6.672983287114779e-42,"3":-6.486610591359578e-42,"4":-6.876171564441877e-42},{"0":-6.804705342761312e-42,"1":-6.940631293800819e-42,"2":-6.530050843753648e-42,"3":-6.511833963717425e-42,"4":-6.630944333185034e-42},{"0":-6.608523557755837e-42,"1":-6.936427398407845e-42,"2":6.943433890729469e-42,"3":6.992479336980837e-42,"4":-6.584701483862315e-42},{"0":-6.82152092433321e-42,"1":-6.650562511685582e-42,"2":-6.630944333185034e-42,"3":-6.726232628759122e-42,"4":-6.720627434901823e-42}],[{"0":-6.504827471395801e-42,"1":-6.717824837973173e-42,"2":6.665976794793155e-42,"3":-6.50763006832445e-42,"4":-6.726232628759122e-42},{"0":-6.978466352337589e-42,"1":-6.622536542399085e-42,"2":-6.549669022254195e-42,"3":-6.677187182507753e-42,"4":-6.43756514510821e-42},{"0":-6.649161213221257e-42,"1":-6.74585080725967e-42,"2":-6.78368586579644e-42,"3":-6.47259760671633e-42,"4":-6.637950825506658e-42},{"0":-6.852349490548355e-42,"1":-6.839737804369432e-42,"2":-6.639352123970983e-42,"3":-6.701009256401275e-42,"4":-6.708015748722899e-42},{"0":-6.748653404188319e-42,"1":-6.415144369679013e-42,"2":-6.640753422435308e-42,"3":-6.630944333185034e-42,"4":6.965854666158666e-42}],[{"0":-6.444571637429834e-42,"1":-6.448775532822808e-42,"2":-6.835533908976458e-42,"3":-6.62674043779206e-42,"4":-6.504827471395801e-42},{"0":-6.843941699762407e-42,"1":-6.635148228578009e-42,"2":-6.689798868686677e-42,"3":-6.895789742942425e-42,"4":-6.497820979074177e-42},{"0":-6.462788517466056e-42,"1":-6.55387291764717e-42,"2":6.845342998226731e-42,"3":-6.602918363898538e-42,"4":-6.560879409968794e-42},{"0":-6.870566370584578e-42,"1":6.504827471395801e-42,"2":6.957446875372717e-42,"3":-6.750054702652644e-42,"4":-6.600115766969888e-42},{"0":-6.633746930113684e-42,"1":6.656167705542881e-42,"2":6.658970302471531e-42,"3":-6.957446875372717e-42,"4":-6.752857299581293e-42}],[{"0":-6.807507939689961e-42,"1":-6.572089797683392e-42,"2":-6.89719104140675e-42,"3":-6.884579355227826e-42,"4":-6.542662529932571e-42},{"0":-6.509031366788775e-42,"1":-6.611326154684487e-42,"2":-6.440367742036859e-42,"3":-6.609924856220162e-42,"4":6.615530050077461e-42},{"0":-6.940631293800819e-42,"1":-6.552471619182845e-42,"2":6.846744296691056e-42,"3":-6.691200167151002e-42,"4":6.907000130657023e-42},{"0":-6.944835189193793e-42,"1":-6.908401429121348e-42,"2":6.581898886933666e-42,"3":6.850948192084031e-42,"4":6.608523557755837e-42},{"0":-6.658970302471531e-42,"1":-6.901394936799724e-42,"2":6.877572862906202e-42,"3":-6.608523557755837e-42,"4":6.730436524152096e-42}],[{"0":6.625339139327735e-42,"1":6.933624801479195e-42,"2":6.581898886933666e-42,"3":-6.933624801479195e-42,"4":-6.471196308252005e-42},{"0":6.834132610512133e-42,"1":6.74304821033102e-42,"2":-6.968657263087315e-42,"3":-6.796297551975363e-42,"4":-6.632345631649359e-42},{"0":6.974262456944615e-42,"1":6.534254739146622e-42,"2":-6.5160378591104e-42,"3":-6.541261231468246e-42,"4":-6.838336505905107e-42},{"0":-6.738844314938045e-42,"1":-6.92942090608622e-42,"2":-6.825724819726184e-42,"3":-6.558076813040144e-42,"4":-6.581898886933666e-42},{"0":-6.649161213221257e-42,"1":-6.389920997321166e-42,"2":-6.933624801479195e-42,"3":-6.537057336075272e-42,"4":6.695404062543976e-42}],[{"0":-6.691200167151002e-42,"1":-6.974262456944615e-42,"2":6.796297551975363e-42,"3":6.688397570222352e-42,"4":-6.476801502109305e-42},{"0":6.649161213221257e-42,"1":6.503426172931476e-42,"2":6.918210518371622e-42,"3":6.885980653692151e-42,"4":6.632345631649359e-42},{"0":6.66457549632883e-42,"1":-6.898592339871074e-42,"2":-6.867763773655928e-42,"3":-6.825724819726184e-42,"4":-6.820119625868885e-42},{"0":-6.570688499219067e-42,"1":-6.936427398407845e-42,"2":-6.8943884444781e-42,"3":-6.93502609994352e-42,"4":6.918210518371622e-42},{"0":-6.806106641225637e-42,"1":-6.496419680609852e-42,"2":-6.563682006897443e-42,"3":-6.839737804369432e-42,"4":-6.926618309157571e-42}]],[[{"0":0.1356683075428009,"1":0.24760301411151886,"2":0.30457988381385803,"3":0.24984343349933624,"4":0.1497521549463272},{"0":0.1084800735116005,"1":0.061707668006420135,"2":-0.02356325462460518,"3":-0.028262291103601456,"4":-0.015604514628648758},{"0":0.04682999849319458,"1":0.004029132891446352,"2":-0.009211660362780094,"3":-0.0073194983415305614,"4":-0.01785939745604992},{"0":-0.024185026064515114,"1":-0.03716929629445076,"2":-0.03249407187104225,"3":-0.021101439371705055,"4":-0.031109018251299858},{"0":0.10027565807104111,"1":0.17054401338100433,"2":0.19304290413856506,"3":0.16507448256015778,"4":0.092176653444767}],[{"0":-0.0004282532609067857,"1":0.021205943077802658,"2":0.07632515579462051,"3":0.04156612604856491,"4":-0.005844510160386562},{"0":0.021608490496873856,"1":0.054401736706495285,"2":0.025354498997330666,"3":-0.011176522821187973,"4":-0.02112239971756935},{"0":0.043699540197849274,"1":0.037485189735889435,"2":-0.007958893664181232,"3":-0.0232390183955431,"4":-0.035301174968481064},{"0":0.004554723855108023,"1":-0.01189256552606821,"2":-0.02343526855111122,"3":-0.03917071223258972,"4":-0.02641642652451992},{"0":-0.005370589438825846,"1":-0.01538841612637043,"2":-0.018260136246681213,"3":-0.022908305749297142,"4":-0.029832232743501663}],[{"0":0.06426237523555756,"1":-0.007428839802742004,"2":0.018110869452357292,"3":0.16150812804698944,"4":0.21516549587249756},{"0":-0.1332247406244278,"1":-0.15677973628044128,"2":-0.08190363645553589,"3":-0.03256355598568916,"4":-0.01763710007071495},{"0":-0.16285297274589539,"1":-0.10017574578523636,"2":-0.04150751978158951,"3":-0.10385014861822128,"4":-0.17236585915088654},{"0":-0.03490203991532326,"1":-0.008348846808075905,"2":-0.08409043401479721,"3":-0.16443324089050293,"4":-0.17107076942920685},{"0":0.11462800949811935,"1":0.07536251097917557,"2":0.030879361554980278,"3":0.011760445311665535,"4":-0.0244327150285244}],[{"0":0.10099993646144867,"1":0.14884698390960693,"2":0.12273981422185898,"3":0.003401310183107853,"4":0.026540782302618027},{"0":0.12944747507572174,"1":0.07429302483797073,"2":0.0741698369383812,"3":0.08003154397010803,"4":0.0709233283996582},{"0":0.097493477165699,"1":0.000824411807116121,"2":-0.01651628315448761,"3":-0.03801649436354637,"4":-0.014187592081725597},{"0":-0.03387773782014847,"1":-0.057513527572155,"2":-0.0515483021736145,"3":-0.06653041392564774,"4":-0.11337140202522278},{"0":-0.05757944658398628,"1":-0.046787671744823456,"2":-0.01996157132089138,"3":-0.011446922086179256,"4":-0.011511586606502533}],[{"0":-0.05109136179089546,"1":-0.07877574115991592,"2":-0.12097497284412384,"3":-0.03358539193868637,"4":0.01942124217748642},{"0":-0.07932420074939728,"1":-0.10787568241357803,"2":-0.036467261612415314,"3":0.024941101670265198,"4":0.00872895773500204},{"0":-0.06005697697401047,"1":-0.009394524618983269,"2":0.05782178416848183,"3":0.04790909215807915,"4":-0.0221403781324625},{"0":0.009813918732106686,"1":0.11910375207662582,"2":0.08938076347112656,"3":0.019343305379152298,"4":0.01827358640730381},{"0":0.05221808701753616,"1":0.037780456244945526,"2":-0.08902519941329956,"3":-0.13034388422966003,"4":-0.151295006275177}],[{"0":-0.0007293573580682278,"1":0.04513879120349884,"2":0.09174652397632599,"3":0.14521187543869019,"4":0.1487303078174591},{"0":-0.136924147605896,"1":-0.07917220890522003,"2":-0.050249628722667694,"3":0.010630512610077858,"4":-0.006476993672549725},{"0":-0.12649251520633698,"1":-0.05864747613668442,"2":-0.009617543779313564,"3":0.017793234437704086,"4":-0.013507409021258354},{"0":-0.03648752719163895,"1":0.06467887759208679,"2":0.037919219583272934,"3":0.023121485486626625,"4":-0.009723030030727386},{"0":0.009462203830480576,"1":0.10697176307439804,"2":0.0900493636727333,"3":-0.024950016289949417,"4":-0.04070902243256569}],[{"0":0.1691277027130127,"1":0.21129369735717773,"2":0.16238117218017578,"3":0.1604723185300827,"4":0.2115318477153778},{"0":0.12641136348247528,"1":0.12086401134729385,"2":0.07682053744792938,"3":0.0765218585729599,"4":0.1100970134139061},{"0":-0.036579299718141556,"1":-0.07709798216819763,"2":-0.052490442991256714,"3":-0.030100945383310318,"4":-0.06633361428976059},{"0":-0.08273279666900635,"1":-0.08075369149446487,"2":-0.07748673111200333,"3":-0.09111756831407547,"4":-0.11176174879074097},{"0":0.1163301020860672,"1":0.146000474691391,"2":0.18971583247184753,"3":0.15423214435577393,"4":0.06441009789705276}],[{"0":0.1278507262468338,"1":0.1947685033082962,"2":0.10232370346784592,"3":-0.0019105961546301842,"4":-0.10648325830698013},{"0":0.06295358389616013,"1":-0.020152311772108078,"2":-0.050280846655368805,"3":-0.06546769291162491,"4":-0.09951978921890259},{"0":-0.03954571112990379,"1":-0.17509832978248596,"2":-0.19113010168075562,"3":-0.1473981738090515,"4":-0.06198415905237198},{"0":-0.06720142811536789,"1":-0.06421505659818649,"2":-0.0289214625954628,"3":0.013697768561542034,"4":-0.02025645226240158},{"0":-0.06669171899557114,"1":-0.04389755055308342,"2":-0.0645708218216896,"3":0.010738351382315159,"4":0.019349878653883934}]],[[{"0":-0.004301626700907946,"1":-0.005986265372484922,"2":-0.005840911529958248,"3":-0.014663929119706154,"4":-0.019713571295142174},{"0":-0.005290588364005089,"1":-0.013087814673781395,"2":-0.022311991080641747,"3":-0.015141841024160385,"4":-0.006280176807194948},{"0":-0.007816361263394356,"1":-0.004672630224376917,"2":-0.00966307707130909,"3":-0.013954158872365952,"4":-0.006162957288324833},{"0":-0.01750427484512329,"1":-0.0263763889670372,"2":-0.030092855915427208,"3":-0.013163705356419086,"4":-0.01873806118965149},{"0":-0.015274947509169579,"1":-0.015043106861412525,"2":-0.003714438062161207,"3":0.00012032530503347516,"4":-0.011528992094099522}],[{"0":0.004858109634369612,"1":-0.004845211748033762,"2":-0.00113737175706774,"3":0.0052093397825956345,"4":-0.011944903992116451},{"0":0.001931159757077694,"1":-0.004279545973986387,"2":-0.003966249525547028,"3":0.004316731821745634,"4":-0.01384397316724062},{"0":0.0048681036569178104,"1":-0.004575302358716726,"2":0.0017409943975508213,"3":0.002407330321148038,"4":-0.009841689839959145},{"0":0.004184902645647526,"1":-0.008983192034065723,"2":-0.003769069677218795,"3":0.007565683219581842,"4":-0.001504537183791399},{"0":0.0011609141947701573,"1":-0.009050089865922928,"2":-0.006458926014602184,"3":0.015188834629952908,"4":-0.0038976757787168026}],[{"0":0.034330397844314575,"1":0.00428333505988121,"2":-0.03696143627166748,"3":-0.013460572808980942,"4":0.0848071277141571},{"0":0.016901517286896706,"1":0.03677569329738617,"2":-0.035721343010663986,"3":-0.03196480870246887,"4":0.06259793788194656},{"0":-0.0024292729794979095,"1":0.05036758631467819,"2":-0.03034033626317978,"3":-0.041454993188381195,"4":0.06200822442770004},{"0":-0.01790335401892662,"1":0.041310425847768784,"2":-0.022479984909296036,"3":-0.037870701402425766,"4":0.09119591861963272},{"0":-0.027537360787391663,"1":0.02347593568265438,"2":-0.006430438719689846,"3":-0.009338452480733395,"4":0.08441270142793655}],[{"0":0.01088920421898365,"1":0.001243455451913178,"2":-0.017973054200410843,"3":-0.003221991239115596,"4":-0.010587464086711407},{"0":-0.0002764207310974598,"1":-0.0005272012203931808,"2":-0.025731880217790604,"3":-0.01852767914533615,"4":-0.015278046019375324},{"0":-0.016918616369366646,"1":-0.012513011693954468,"2":-0.027345359325408936,"3":-0.02639980986714363,"4":-0.016351433470845222},{"0":-0.01815391704440117,"1":-0.0035527520813047886,"2":-0.019542962312698364,"3":-0.02612917497754097,"4":-0.01767783798277378},{"0":-0.017824145033955574,"1":0.011610117740929127,"2":-0.0060247271321713924,"3":-0.02630084566771984,"4":-0.020843705162405968}],[{"0":-0.00590713694691658,"1":0.0023458427749574184,"2":-0.02643006481230259,"3":-0.02025758847594261,"4":-0.0003213843156117946},{"0":-0.00193514593411237,"1":0.010369563475251198,"2":-0.017540108412504196,"3":-0.015536168590188026,"4":0.002539181150496006},{"0":-0.0008511777850799263,"1":0.0025273989886045456,"2":-0.0061783986166119576,"3":-0.00981274526566267,"4":0.005704329814761877},{"0":0.0024069901555776596,"1":-0.0039040837436914444,"2":-0.0104726767167449,"3":-0.010254379361867905,"4":0.025281419977545738},{"0":-0.009986063465476036,"1":-0.00877487100660801,"2":-0.015457747504115105,"3":-0.013174467720091343,"4":0.03876751661300659}],[{"0":0.001438229694031179,"1":-0.023782754316926003,"2":-0.016606232151389122,"3":0.030267763882875443,"4":-0.036812666803598404},{"0":0.010213113389909267,"1":-0.018969440832734108,"2":-0.00877540186047554,"3":0.027026021853089333,"4":-0.04870915412902832},{"0":0.012887131422758102,"1":-0.01891230419278145,"2":0.004787221550941467,"3":0.013019794598221779,"4":-0.05446173995733261},{"0":0.009244866669178009,"1":-0.01423783227801323,"2":0.011200599372386932,"3":0.010148751549422741,"4":-0.045188575983047485},{"0":0.0070426142774522305,"1":-0.00400000624358654,"2":0.008023335598409176,"3":0.015514981932938099,"4":-0.023230671882629395}],[{"0":-0.009092746302485466,"1":0.009663918055593967,"2":-0.0009324793936684728,"3":-0.02724577486515045,"4":-0.022092198953032494},{"0":-0.011659245006740093,"1":-0.004902160260826349,"2":-0.006326590199023485,"3":-0.027743397280573845,"4":-0.026302533224225044},{"0":-0.018122220411896706,"1":-0.017080038785934448,"2":-0.0009791165357455611,"3":-0.019386054947972298,"4":-0.03513858839869499},{"0":-0.025508100166916847,"1":-0.03239090368151665,"2":-0.0012660251231864095,"3":-0.012093521654605865,"4":-0.042181313037872314},{"0":-0.017949393019080162,"1":-0.01890442706644535,"2":0.006166600622236729,"3":-0.0005539008998312056,"4":-0.03040945902466774}],[{"0":0.009871859103441238,"1":-0.023419257253408432,"2":-0.027201194316148758,"3":0.06599726527929306,"4":-0.027952859178185463},{"0":0.018012458458542824,"1":-0.026451295241713524,"2":-0.03694181516766548,"3":0.10826428979635239,"4":-0.015024146065115929},{"0":0.025456272065639496,"1":-0.02087865211069584,"2":-0.038119055330753326,"3":0.0899491235613823,"4":-0.045116033405065536},{"0":0.03156337887048721,"1":-0.009045201353728771,"2":-0.02360573783516884,"3":0.06979474425315857,"4":-0.04420345649123192},{"0":0.025444354861974716,"1":0.011160511523485184,"2":-0.01793847419321537,"3":0.0502757653594017,"4":-0.03961418941617012}]],[[{"0":0.007454973645508289,"1":0.006823153700679541,"2":-0.005043812096118927,"3":-0.006624740548431873,"4":-0.002526553813368082},{"0":-0.010439956560730934,"1":-0.03402018919587135,"2":-0.04638928547501564,"3":-0.036789655685424805,"4":-0.03532758727669716},{"0":-0.0065909079276025295,"1":-0.04017379879951477,"2":-0.022099986672401428,"3":-0.04191356897354126,"4":-0.06406630575656891},{"0":-0.02051444910466671,"1":-0.01961703971028328,"2":-0.010143113322556019,"3":-0.030081098899245262,"4":-0.007973424158990383},{"0":0.004613959230482578,"1":0.020776113495230675,"2":-0.016139596700668335,"3":-0.03793012723326683,"4":-0.029711874201893806}],[{"0":-0.0023575301747769117,"1":0.01296874787658453,"2":0.008201760239899158,"3":-0.005072569940239191,"4":0.02951112948358059},{"0":-0.0016328436322510242,"1":0.014482546597719193,"2":0.010871920734643936,"3":0.011156090535223484,"4":0.04545392841100693},{"0":-0.002575136022642255,"1":0.012687881477177143,"2":0.03646412119269371,"3":0.026223869994282722,"4":0.03281788527965546},{"0":-0.005828541237860918,"1":0.012722089886665344,"2":0.06012234464287758,"3":0.009049937129020691,"4":0.025290338322520256},{"0":-0.009277191013097763,"1":0.03969753533601761,"2":0.03664128854870796,"3":0.0016145054250955582,"4":0.033601876348257065}],[{"0":0.04394082725048065,"1":-0.007193990517407656,"2":0.013251281343400478,"3":0.07635388523340225,"4":0.03948558494448662},{"0":-0.011099562048912048,"1":-0.07618051767349243,"2":-0.02152043767273426,"3":0.07527928054332733,"4":-0.05833536013960838},{"0":-0.0576387457549572,"1":-0.0870383009314537,"2":-0.11002983152866364,"3":0.07207455486059189,"4":-0.025312678888440132},{"0":-0.07747826725244522,"1":-0.04587589204311371,"2":-0.08624609559774399,"3":0.11958816647529602,"4":-0.01823502965271473},{"0":-0.11334890872240067,"1":-0.012892021797597408,"2":0.0013797329738736153,"3":0.1163933053612709,"4":0.006498941220343113}],[{"0":0.005500916391611099,"1":-0.06054529920220375,"2":-0.06716959178447723,"3":-0.07073643058538437,"4":-0.021866384893655777},{"0":-0.08059506863355637,"1":-0.14617763459682465,"2":-0.14829210937023163,"3":-0.1334325075149536,"4":-0.023818058893084526},{"0":-0.09036857634782791,"1":-0.15727177262306213,"2":-0.21246978640556335,"3":-0.19809271395206451,"4":-0.09684774279594421},{"0":-0.09081701934337616,"1":-0.1430574655532837,"2":-0.16886350512504578,"3":-0.1354040503501892,"4":-0.04099429026246071},{"0":-0.05246555060148239,"1":-0.0757574662566185,"2":-0.0790628120303154,"3":-0.013861413113772869,"4":-0.007086644880473614}],[{"0":-0.026181992143392563,"1":-0.07641790062189102,"2":-0.05014509707689285,"3":-0.05319556966423988,"4":-0.04367800056934357},{"0":-0.03239889070391655,"1":-0.05379364266991615,"2":-0.013574047014117241,"3":-0.025155561044812202,"4":0.0029080193489789963},{"0":-0.04758388549089432,"1":-0.0597480870783329,"2":-0.04183395951986313,"3":0.0013197343796491623,"4":0.0010270144557580352},{"0":-0.027278494089841843,"1":-0.04836065322160721,"2":-0.006585290189832449,"3":0.047695342451334,"4":-0.032762397080659866},{"0":-0.03713876008987427,"1":-0.06103609874844551,"2":0.0010923563968390226,"3":-0.008890041150152683,"4":-0.07313694059848785}],[{"0":0.014993659220635891,"1":0.006445447448641062,"2":0.11335097253322601,"3":0.01744573377072811,"4":0.1738741099834442},{"0":0.024242321029305458,"1":0.0408003143966198,"2":0.16234304010868073,"3":-0.026925427839159966,"4":0.2242218405008316},{"0":0.0022118433844298124,"1":0.014332124032080173,"2":0.07795457541942596,"3":-0.0373021699488163,"4":0.23810599744319916},{"0":0.007386216893792152,"1":0.029783004894852638,"2":0.05864676088094711,"3":0.06934279948472977,"4":0.23909729719161987},{"0":0.02377535216510296,"1":0.025072861462831497,"2":0.03476240113377571,"3":0.16520951688289642,"4":0.16924738883972168}],[{"0":-0.019220050424337387,"1":0.01382144633680582,"2":-0.0037965073715895414,"3":-0.0009896619012579322,"4":0.024320092052221298},{"0":-0.009696622379124165,"1":-0.003333556931465864,"2":-0.01927189901471138,"3":-0.02719223126769066,"4":-0.023634780198335648},{"0":-0.043770682066679,"1":-0.015410161577165127,"2":-0.04895464703440666,"3":-0.12147517502307892,"4":-0.0719066932797432},{"0":-0.05512237548828125,"1":-0.0354728102684021,"2":-0.09575455635786057,"3":-0.13647253811359406,"4":-0.09534067660570145},{"0":-0.02296128123998642,"1":-0.06158863753080368,"2":-0.10977634787559509,"3":-0.13997194170951843,"4":-0.07502783089876175}],[{"0":-0.003765472676604986,"1":-0.005336483009159565,"2":0.07202574610710144,"3":0.09604483842849731,"4":0.11527175456285477},{"0":-0.007303155492991209,"1":-0.009796516969799995,"2":0.1390141397714615,"3":0.06432270258665085,"4":0.15618154406547546},{"0":0.05032869800925255,"1":-0.003653475781902671,"2":0.18980365991592407,"3":0.07604121416807175,"4":0.20007584989070892},{"0":0.15187577903270721,"1":0.0765286237001419,"2":0.15707089006900787,"3":-0.01083260029554367,"4":0.19270585477352142},{"0":0.16914165019989014,"1":0.04089321568608284,"2":0.12071957439184189,"3":-0.00815917830914259,"4":0.19153781235218048}]],[[{"0":-0.029106760397553444,"1":-0.010869205929338932,"2":0.01175687462091446,"3":0.023003097623586655,"4":0.03838321566581726},{"0":0.021097635850310326,"1":0.025649284943938255,"2":0.03834414854645729,"3":0.08426662534475327,"4":0.11599047482013702},{"0":0.006701861508190632,"1":0.05599027872085571,"2":0.085281141102314,"3":0.11368110775947571,"4":0.12538620829582214},{"0":-0.0025467106606811285,"1":0.032664839178323746,"2":0.09393614530563354,"3":0.10179642587900162,"4":0.024960599839687347},{"0":-0.0025975520256906748,"1":0.026921788230538368,"2":0.06378764659166336,"3":0.053932975977659225,"4":0.03861977905035019}],[{"0":-0.018215548247098923,"1":-0.02369982749223709,"2":-0.01703237183392048,"3":-0.01304459385573864,"4":-0.009901649318635464},{"0":-0.02043347992002964,"1":-0.020839467644691467,"2":-0.01351439580321312,"3":-0.007899788208305836,"4":0.007166673429310322},{"0":-0.011135430075228214,"1":-0.011110357008874416,"2":-0.0018544900231063366,"3":0.013224344700574875,"4":0.04329904168844223},{"0":-0.0037979555781930685,"1":-0.0023186798207461834,"2":0.018348563462495804,"3":0.039393652230501175,"4":0.02725326269865036},{"0":0.004822221584618092,"1":0.01031024195253849,"2":0.033839739859104156,"3":0.03672614321112633,"4":0.012321087531745434}],[{"0":-0.062476612627506256,"1":-0.05784418061375618,"2":-0.057323306798934937,"3":-0.013877718709409237,"4":-0.03769649565219879},{"0":-0.022940967231988907,"1":-0.004979505203664303,"2":-0.016462568193674088,"3":-0.017762523144483566,"4":-0.025197215378284454},{"0":-0.06723298877477646,"1":-0.014174716547131538,"2":0.03233546018600464,"3":0.0049489508382976055,"4":-0.03525110334157944},{"0":-0.05615994334220886,"1":-0.012597095221281052,"2":0.005893659312278032,"3":0.09878506511449814,"4":0.08438052237033844},{"0":-0.03891422227025032,"1":0.01050278265029192,"2":0.03692926466464996,"3":0.04801561310887337,"4":0.22509995102882385}],[{"0":-0.005402592476457357,"1":-0.019231179729104042,"2":-0.030327044427394867,"3":-0.03304774686694145,"4":-0.024501632899045944},{"0":-0.03553609922528267,"1":-0.03276452049612999,"2":-0.007225610315799713,"3":0.009882508777081966,"4":0.01983160525560379},{"0":-0.022062860429286957,"1":0.010730871930718422,"2":0.015196864493191242,"3":0.06012028828263283,"4":0.04672694951295853},{"0":-0.002520577050745487,"1":0.07315069437026978,"2":0.08974918723106384,"3":0.047961506992578506,"4":0.024833614006638527},{"0":0.014461060985922813,"1":0.0540926456451416,"2":0.09709204733371735,"3":0.040450386703014374,"4":-0.0024574012495577335}],[{"0":0.003145872615277767,"1":-0.009568236768245697,"2":-0.024943390861153603,"3":-0.04292558506131172,"4":-0.0536876879632473},{"0":-0.00434142304584384,"1":-0.025985892862081528,"2":-0.03625088930130005,"3":-0.04175354540348053,"4":-0.03076251409947872},{"0":-0.0010635076323524117,"1":-0.026231372728943825,"2":-0.02562086470425129,"3":-0.030888788402080536,"4":-0.021699588745832443},{"0":-0.01468868087977171,"1":-0.02393462136387825,"2":-0.017665188759565353,"3":-0.0038127859588712454,"4":0.05786643922328949},{"0":-0.003759125480428338,"1":-0.01398087665438652,"2":-0.008244147524237633,"3":0.0554952546954155,"4":0.16809283196926117}],[{"0":-0.09344369173049927,"1":-0.09704068303108215,"2":-0.06628153473138809,"3":-0.06430605798959732,"4":-0.05347459763288498},{"0":-0.07906965166330338,"1":-0.07635647803544998,"2":-0.056702870875597,"3":-0.060996539890766144,"4":-0.06964664161205292},{"0":-0.06219334900379181,"1":-0.066035695374012,"2":-0.06151565536856651,"3":-0.06645876169204712,"4":-0.08021025359630585},{"0":-0.04143020510673523,"1":-0.05289757624268532,"2":-0.07700783014297485,"3":-0.027398686856031418,"4":-0.017012009397149086},{"0":-0.010913119651377201,"1":-0.050996243953704834,"2":-0.05574959143996239,"3":0.07114072889089584,"4":0.030415896326303482}],[{"0":-0.046666476875543594,"1":-0.029353026300668716,"2":-0.016515379771590233,"3":0.03272214159369469,"4":0.07520954310894012},{"0":-0.0005248543457128108,"1":0.023526310920715332,"2":0.08913004398345947,"3":0.13451342284679413,"4":0.13445381820201874},{"0":0.003797058016061783,"1":0.07597341388463974,"2":0.1957843154668808,"3":0.23419998586177826,"4":0.14103351533412933},{"0":-0.01569284498691559,"1":0.04800740256905556,"2":0.15363608300685883,"3":0.14608287811279297,"4":0.1283106952905655},{"0":-0.031230967491865158,"1":0.014151018112897873,"2":0.07131585478782654,"3":0.08671518415212631,"4":0.1260949820280075}],[{"0":-0.09533150494098663,"1":-0.1233869269490242,"2":-0.11155591905117035,"3":-0.07926823198795319,"4":-0.029915763065218925},{"0":-0.0766858458518982,"1":-0.10284481197595596,"2":-0.06368321925401688,"3":0.03737461939454079,"4":0.03625309839844704},{"0":-0.036334287375211716,"1":-0.02406127378344536,"2":0.02863999642431736,"3":-0.0028101354837417603,"4":-0.007499773986637592},{"0":-0.018802855163812637,"1":0.028628075495362282,"2":0.01011041458696127,"3":-0.006221574265509844,"4":-0.06573853641748428},{"0":0.0065943337976932526,"1":0.092328280210495,"2":0.07433431595563889,"3":0.03281719982624054,"4":-0.01913377083837986}]],[[{"0":0.01099053118377924,"1":0.07064634561538696,"2":0.08785942941904068,"3":0.048013120889663696,"4":0.021203957498073578},{"0":0.02906058356165886,"1":0.020009934902191162,"2":-0.0013011062983423471,"3":-0.018515722826123238,"4":-0.01981101557612419},{"0":0.008390936069190502,"1":0.00580770755186677,"2":0.017720632255077362,"3":0.03287385404109955,"4":0.03818489611148834},{"0":-0.007372668478637934,"1":0.010096943005919456,"2":0.02591937780380249,"3":0.040074609220027924,"4":0.050759267061948776},{"0":-0.0191903505474329,"1":-0.006303650327026844,"2":0.009449812583625317,"3":0.03483546897768974,"4":0.03145295009016991}],[{"0":-0.010908981785178185,"1":0.016803067177534103,"2":0.022478735074400902,"3":0.03983844444155693,"4":0.023392213508486748},{"0":0.0003017400740645826,"1":0.02236170507967472,"2":0.016898395493626595,"3":0.01698078215122223,"4":-0.0011806442635133862},{"0":0.00015565833018627018,"1":0.007687778677791357,"2":-0.0022494615986943245,"3":-0.00271988520398736,"4":-0.00511991186067462},{"0":-0.012478407472372055,"1":-0.01362556777894497,"2":-0.008714980445802212,"3":-0.003677543718367815,"4":0.007518067955970764},{"0":-0.020927980542182922,"1":-0.006754475645720959,"2":-0.003516784170642495,"3":0.0037285704165697098,"4":0.00934711005538702}],[{"0":-0.0008976943208836019,"1":-0.016953540965914726,"2":0.0013685706071555614,"3":-0.04632648453116417,"4":0.06679054349660873},{"0":-0.01687988080084324,"1":-0.015095110982656479,"2":0.011989595368504524,"3":0.03898601233959198,"4":0.060476575046777725},{"0":-0.020130224525928497,"1":-0.013938735239207745,"2":0.04169142618775368,"3":0.0807667076587677,"4":0.008858573623001575},{"0":-0.02672480046749115,"1":-0.020131655037403107,"2":0.007069754879921675,"3":0.011511032469570637,"4":-0.007620643358677626},{"0":-0.01355034951120615,"1":-0.04295016825199127,"2":-0.0360325425863266,"3":-0.01786966808140278,"4":0.045632507652044296}],[{"0":0.11525911092758179,"1":0.19836130738258362,"2":0.18216213583946228,"3":0.14256805181503296,"4":0.13227759301662445},{"0":0.1508072018623352,"1":0.20412757992744446,"2":0.1466713547706604,"3":0.04352722316980362,"4":0.0626634955406189},{"0":0.11083284020423889,"1":0.05932074040174484,"2":0.017439180985093117,"3":-0.005303387064486742,"4":0.0015585605287924409},{"0":0.054246023297309875,"1":0.033115118741989136,"2":0.04005677253007889,"3":0.044521965086460114,"4":0.0699571743607521},{"0":0.03909846767783165,"1":0.05357062444090843,"2":0.0705750584602356,"3":0.09693221747875214,"4":0.110410675406456}],[{"0":0.01644422672688961,"1":0.024663444608449936,"2":0.031019413843750954,"3":0.037118781358003616,"4":0.0598597452044487},{"0":0.024910397827625275,"1":0.031512435525655746,"2":0.042085494846105576,"3":0.07383596152067184,"4":0.10675009340047836},{"0":0.00918313954025507,"1":0.02338111586868763,"2":0.07826370000839233,"3":0.14452199637889862,"4":0.12703078985214233},{"0":-0.008048015646636486,"1":0.0292044784873724,"2":0.07673140615224838,"3":0.07766864448785782,"4":0.048676155507564545},{"0":0.027462465688586235,"1":0.04171712324023247,"2":0.04143572226166725,"3":0.024885373190045357,"4":0.02101924456655979}],[{"0":-0.057687386870384216,"1":-0.07698149979114532,"2":-0.10068441182374954,"3":-0.04467593505978584,"4":-0.044777803122997284},{"0":-0.04052148759365082,"1":-0.04407237842679024,"2":-0.05217089504003525,"3":-0.03186805918812752,"4":-0.01977144554257393},{"0":-0.0653325766324997,"1":-0.053071632981300354,"2":-0.04677756130695343,"3":-0.014332130551338196,"4":-0.006047495640814304},{"0":-0.07221897691488266,"1":-0.058225471526384354,"2":-0.03441794961690903,"3":-0.018771883100271225,"4":-0.056163884699344635},{"0":-0.059154361486434937,"1":-0.0517813079059124,"2":-0.055923424661159515,"3":-0.038770247250795364,"4":-0.05182403326034546}],[{"0":0.02304689586162567,"1":0.04410140588879585,"2":0.049549173563718796,"3":0.028393307700753212,"4":-0.0333135686814785},{"0":0.00614601606503129,"1":0.006008628290146589,"2":0.010292379185557365,"3":0.001469164970330894,"4":-0.02339797466993332},{"0":-0.004885728470981121,"1":0.012728307396173477,"2":0.026595622301101685,"3":0.034741662442684174,"4":0.021702872589230537},{"0":0.006434483919292688,"1":0.02274802140891552,"2":0.0354468859732151,"3":0.04627689719200134,"4":0.07041855156421661},{"0":-0.0018721631495282054,"1":0.0066996002569794655,"2":0.019797125831246376,"3":0.041338227689266205,"4":0.05232720077037811}],[{"0":-0.0018716222839429975,"1":0.08421878516674042,"2":0.0056147645227611065,"3":-0.014282437041401863,"4":-0.06546775251626968},{"0":-0.02873745746910572,"1":-0.03293592855334282,"2":-0.10265398025512695,"3":-0.07613808661699295,"4":-0.07032911479473114},{"0":-0.0789552703499794,"1":-0.0993889570236206,"2":-0.08991438150405884,"3":-0.06310820579528809,"4":-0.07303395867347717},{"0":-0.10235439240932465,"1":-0.07858467102050781,"2":-0.05447375774383545,"3":-0.05782078206539154,"4":-0.03846610710024834},{"0":-0.058282624930143356,"1":-0.02711474895477295,"2":0.011217033490538597,"3":0.03064565733075142,"4":-0.017102980986237526}]],[[{"0":-6.93222350301487e-42,"1":6.998084530838136e-42,"2":-6.867763773655928e-42,"3":-6.921013115300272e-42,"4":6.716423539508848e-42},{"0":-6.878974161370527e-42,"1":6.787889761189414e-42,"2":6.436163846643885e-42,"3":6.622536542399085e-42,"4":-6.839737804369432e-42},{"0":6.401131385035764e-42,"1":-6.85935598286998e-42,"2":-6.530050843753648e-42,"3":-6.496419680609852e-42,"4":-6.864961176727279e-42},{"0":-6.860757281334304e-42,"1":-6.595911871576914e-42,"2":-6.419348265071987e-42,"3":-6.93502609994352e-42,"4":-6.862158579798629e-42},{"0":-6.892987146013775e-42,"1":-6.822922222797534e-42,"2":6.273613224782206e-42,"3":-6.684193674829377e-42,"4":-6.971459860015965e-42}],[{"0":6.801902745832662e-42,"1":-6.946236487658118e-42,"2":-6.465591114394706e-42,"3":-6.998084530838136e-42,"4":-6.542662529932571e-42},{"0":-6.839737804369432e-42,"1":-6.530050843753648e-42,"2":-6.478202800573629e-42,"3":-6.429157354322261e-42,"4":-6.532853440682297e-42},{"0":6.651963810149907e-42,"1":-6.517439157574724e-42,"2":-6.905598832192699e-42,"3":-6.424953458929286e-42,"4":-6.375908012677918e-42},{"0":6.827126118190509e-42,"1":-6.986874143123538e-42,"2":-6.600115766969888e-42,"3":-6.419348265071987e-42,"4":-6.646358616292607e-42},{"0":6.497820979074177e-42,"1":-6.546866425325545e-42,"2":-6.801902745832662e-42,"3":-6.392723594249815e-42,"4":-6.329665163355199e-42}],[{"0":-6.509031366788775e-42,"1":-6.417946966607662e-42,"2":-6.59170797618394e-42,"3":-6.846744296691056e-42,"4":-6.450176831287133e-42},{"0":-6.658970302471531e-42,"1":-6.637950825506658e-42,"2":-6.443170338965509e-42,"3":6.942032592265144e-42,"4":6.535656037610947e-42},{"0":-6.89719104140675e-42,"1":-6.85935598286998e-42,"2":-6.715022241044523e-42,"3":-6.689798868686677e-42,"4":6.47259760671633e-42},{"0":-6.691200167151002e-42,"1":-6.590306677719615e-42,"2":-6.387118400392516e-42,"3":-6.482406695966604e-42,"4":-6.982670247730563e-42},{"0":6.885980653692151e-42,"1":-6.741646911866695e-42,"2":-6.416545668143337e-42,"3":-6.462788517466056e-42,"4":-6.62954303472071e-42}],[{"0":6.995281933909487e-42,"1":6.500623576002826e-42,"2":-6.546866425325545e-42,"3":-6.509031366788775e-42,"4":-6.485209292895253e-42},{"0":-6.444571637429834e-42,"1":-6.504827471395801e-42,"2":-6.74024561340237e-42,"3":6.689798868686677e-42,"4":6.595911871576914e-42},{"0":-6.609924856220162e-42,"1":-6.814514432011585e-42,"2":6.584701483862315e-42,"3":6.502024874467151e-42,"4":-6.876171564441877e-42},{"0":-6.424953458929286e-42,"1":-6.43195995125091e-42,"2":-6.820119625868885e-42,"3":6.523044351432023e-42,"4":6.843941699762407e-42},{"0":-6.633746930113684e-42,"1":-6.454380726680107e-42,"2":-6.493617083681202e-42,"3":-6.803304044296987e-42,"4":-6.757061194974268e-42}],[{"0":6.974262456944615e-42,"1":-6.787889761189414e-42,"2":-6.811711835082936e-42,"3":-6.937828696872169e-42,"4":-6.691200167151002e-42},{"0":6.734640419545071e-42,"1":-6.867763773655928e-42,"2":-6.612727453148812e-42,"3":-6.883178056763501e-42,"4":-6.939229995336494e-42},{"0":6.961650770765691e-42,"1":6.485209292895253e-42,"2":6.822922222797534e-42,"3":-6.538458634539596e-42,"4":-6.560879409968794e-42},{"0":6.447374234358483e-42,"1":6.92942090608622e-42,"2":-6.904197533728374e-42,"3":-6.864961176727279e-42,"4":-6.405335280428739e-42},{"0":6.483807994430929e-42,"1":6.636549527042334e-42,"2":6.654766407078556e-42,"3":-6.901394936799724e-42,"4":-6.506228769860126e-42}],[{"0":-6.869165072120253e-42,"1":-6.898592339871074e-42,"2":-6.958848173837042e-42,"3":-6.825724819726184e-42,"4":-6.97286115848029e-42},{"0":-6.838336505905107e-42,"1":-6.73744301647372e-42,"2":6.653365108614231e-42,"3":-6.787889761189414e-42,"4":-6.92942090608622e-42},{"0":-6.968657263087315e-42,"1":-6.77808067193914e-42,"2":-6.524445649896348e-42,"3":-6.642154720899633e-42,"4":6.758462493438593e-42},{"0":-6.595911871576914e-42,"1":-6.799100148904012e-42,"2":-6.814514432011585e-42,"3":-6.741646911866695e-42,"4":-6.570688499219067e-42},{"0":-6.694002764079651e-42,"1":-6.964453367694341e-42,"2":-6.689798868686677e-42,"3":-6.694002764079651e-42,"4":-6.427756055857936e-42}],[{"0":6.658970302471531e-42,"1":6.517439157574724e-42,"2":6.650562511685582e-42,"3":6.838336505905107e-42,"4":6.698206659472626e-42},{"0":-6.950440383051093e-42,"1":-6.534254739146622e-42,"2":-6.637950825506658e-42,"3":-6.789291059653739e-42,"4":-6.93502609994352e-42},{"0":6.466992412859031e-42,"1":-6.902796235264049e-42,"2":-6.528649545289323e-42,"3":-6.723430031830472e-42,"4":-6.776679373474815e-42},{"0":6.712219644115874e-42,"1":6.907000130657023e-42,"2":-6.504827471395801e-42,"3":-6.58890537925529e-42,"4":-6.671581988650454e-42},{"0":6.838336505905107e-42,"1":-6.632345631649359e-42,"2":6.388519698856841e-42,"3":6.720627434901823e-42,"4":6.520241754503374e-42}],[{"0":6.447374234358483e-42,"1":6.842540401298082e-42,"2":-6.506228769860126e-42,"3":-6.574892394612042e-42,"4":-6.608523557755837e-42},{"0":6.965854666158666e-42,"1":-6.495018382145527e-42,"2":-6.863559878262954e-42,"3":-6.670180690186129e-42,"4":-6.429157354322261e-42},{"0":-6.82152092433321e-42,"1":-6.497820979074177e-42,"2":-6.850948192084031e-42,"3":-6.708015748722899e-42,"4":-6.766870284224542e-42},{"0":-6.58890537925529e-42,"1":6.492215785216877e-42,"2":-6.758462493438593e-42,"3":-6.996683232373812e-42,"4":-6.675785884043429e-42},{"0":-6.51323526218175e-42,"1":6.909802727585673e-42,"2":-6.609924856220162e-42,"3":-6.722028733366147e-42,"4":-6.843941699762407e-42}]],[[{"0":0.15903083980083466,"1":0.20300757884979248,"2":0.15010668337345123,"3":0.10576903074979782,"4":0.0536407046020031},{"0":0.0372428297996521,"1":0.016668211668729782,"2":0.02573898620903492,"3":0.01829393580555916,"4":-0.007084781304001808},{"0":0.06814144551753998,"1":0.11448682844638824,"2":0.1912231147289276,"3":0.24987128376960754,"4":0.2285795956850052},{"0":0.06393422186374664,"1":0.09556087851524353,"2":0.09365280717611313,"3":0.07811063528060913,"4":0.10557649284601212},{"0":0.031066780909895897,"1":0.041808295994997025,"2":0.031393181532621384,"3":0.01184937171638012,"4":0.00198522605933249}],[{"0":0.010876474902033806,"1":0.014753139577805996,"2":0.006459188647568226,"3":-0.03661946952342987,"4":-0.039728112518787384},{"0":0.012181171216070652,"1":0.007415602449327707,"2":-0.034237708896398544,"3":-0.04316520318388939,"4":-0.0368230901658535},{"0":0.013791277073323727,"1":-0.008252391591668129,"2":-0.028582613915205002,"3":-0.011546764522790909,"4":-0.02309502102434635},{"0":-0.0002843501861207187,"1":-0.0202126856893301,"2":-0.016585402190685272,"3":-0.01206081360578537,"4":-0.013763987459242344},{"0":-0.006106847897171974,"1":-0.010862793773412704,"2":-0.0062074800953269005,"3":-0.015943415462970734,"4":-0.01550776045769453}],[{"0":0.11668872088193893,"1":0.11705654859542847,"2":0.07735241204500198,"3":0.016984770074486732,"4":-0.022717677056789398},{"0":-0.065812848508358,"1":-0.018638059496879578,"2":0.1344635933637619,"3":0.08346089720726013,"4":0.020379003137350082},{"0":0.0038569532334804535,"1":-0.005908803083002567,"2":0.1021379604935646,"3":0.12154398113489151,"4":0.10795266926288605},{"0":0.03149774298071861,"1":-0.06216457486152649,"2":-0.08321281522512436,"3":-0.1283140331506729,"4":-0.0708882212638855},{"0":-0.006330079399049282,"1":-0.05535547062754631,"2":-0.09026184678077698,"3":-0.18105827271938324,"4":-0.21179266273975372}],[{"0":0.07488106936216354,"1":-0.004779057111591101,"2":-0.011144676245748997,"3":-0.02142864093184471,"4":-0.009385759010910988},{"0":0.08355481922626495,"1":0.06340110301971436,"2":0.03518103435635567,"3":0.038348905742168427,"4":0.04616064950823784},{"0":-0.0029424363747239113,"1":0.054561398923397064,"2":0.023712966591119766,"3":0.00592125253751874,"4":-0.02064112201333046},{"0":0.0018060391303151846,"1":0.047435466200113297,"2":0.09727500379085541,"3":0.14448246359825134,"4":0.10428851842880249},{"0":0.15235596895217896,"1":0.1306055337190628,"2":0.16208325326442719,"3":0.12236910313367844,"4":0.09406353533267975}],[{"0":-0.02108495868742466,"1":-0.05148814991116524,"2":-0.12650427222251892,"3":-0.09498702734708786,"4":-0.058915216475725174},{"0":-0.036249790340662,"1":-0.1017337217926979,"2":-0.09796689450740814,"3":-0.1253073364496231,"4":-0.0944950208067894},{"0":-0.020754443481564522,"1":-0.06298746913671494,"2":-0.11852450668811798,"3":-0.15689373016357422,"4":-0.17298534512519836},{"0":0.020915495231747627,"1":0.006902744993567467,"2":-0.0669202208518982,"3":-0.10713500529527664,"4":-0.10679031163454056},{"0":0.034433845430612564,"1":-0.014412539079785347,"2":-0.1023656353354454,"3":-0.13222387433052063,"4":-0.12606723606586456}],[{"0":0.10279195010662079,"1":0.1316290646791458,"2":0.12476412951946259,"3":0.04505153372883797,"4":0.018129775300621986},{"0":0.04950524494051933,"1":0.07293098419904709,"2":0.10539563000202179,"3":0.03205447643995285,"4":-0.023770399391651154},{"0":0.0408177487552166,"1":0.10696627199649811,"2":0.15361061692237854,"3":0.11173082888126373,"4":0.08049377053976059},{"0":0.001835534698329866,"1":0.054549526423215866,"2":0.05595514550805092,"3":0.095243901014328,"4":0.10428669303655624},{"0":-0.06469987332820892,"1":-0.08667521178722382,"2":-0.10505632311105728,"3":-0.12256404757499695,"4":-0.06278800964355469}],[{"0":0.1678895205259323,"1":0.19118861854076385,"2":0.18795651197433472,"3":0.14690633118152618,"4":0.02428353950381279},{"0":0.07872682064771652,"1":0.08759752660989761,"2":0.167470782995224,"3":0.1470615416765213,"4":0.10473614931106567},{"0":0.047460999339818954,"1":0.09880867600440979,"2":0.09217900037765503,"3":0.14801621437072754,"4":0.20488058030605316},{"0":0.07767272740602493,"1":0.14990615844726562,"2":0.15220557153224945,"3":0.1181698814034462,"4":0.17946071922779083},{"0":-0.01698523946106434,"1":0.05739598348736763,"2":0.07798351347446442,"3":0.08333082497119904,"4":0.07632296532392502}],[{"0":0.07169467210769653,"1":0.042643848806619644,"2":-0.09757048636674881,"3":-0.08945900201797485,"4":-0.034620918333530426},{"0":0.15181781351566315,"1":0.05409263074398041,"2":0.034188706427812576,"3":0.015360338613390923,"4":0.0334814079105854},{"0":0.017255518585443497,"1":0.052317433059215546,"2":0.033657755702733994,"3":0.02112111821770668,"4":-0.040675483644008636},{"0":-0.02980157732963562,"1":-0.0043732221238315105,"2":-0.0032281612511724234,"3":0.008666548877954483,"4":0.005050385370850563},{"0":-0.07502978295087814,"1":-0.11810664087533951,"2":-0.15164056420326233,"3":-0.1364966332912445,"4":-0.10411980003118515}]],[[{"0":-0.025430532172322273,"1":-0.018923459574580193,"2":-0.01286719087511301,"3":-0.012189283967018127,"4":-0.01717805676162243},{"0":0.0064676241017878056,"1":-0.009953917935490608,"2":-0.025413352996110916,"3":-0.02808254212141037,"4":-0.029025452211499214},{"0":0.020196465775370598,"1":0.0027385663706809282,"2":-0.028982801362872124,"3":-0.027670133858919144,"4":0.0003335258224979043},{"0":-0.012309680692851543,"1":-0.002008880255743861,"2":-0.004838406108319759,"3":-0.0040207128040492535,"4":0.00241984985768795},{"0":-0.010964556597173214,"1":-0.009597184136509895,"2":-0.0032272827811539173,"3":0.0018002623692154884,"4":0.0009642065269872546}],[{"0":-0.01690201461315155,"1":-0.012959652580320835,"2":-0.010749537497758865,"3":-0.00840937439352274,"4":-0.00505805853754282},{"0":-0.012357751838862896,"1":-0.00019993017485830933,"2":-0.0048445588909089565,"3":-0.005387316923588514,"4":-0.0028161536902189255},{"0":0.006451526191085577,"1":0.0065840776078403,"2":-0.0031898801680654287,"3":-0.010129574686288834,"4":-0.004506535362452269},{"0":0.0121676716953516,"1":-0.0035459622740745544,"2":-0.005836552940309048,"3":-0.007484210189431906,"4":0.005725303199142218},{"0":0.005964958108961582,"1":-0.003028873587027192,"2":-0.010901967994868755,"3":0.0020744495559483767,"4":0.0038991705514490604}],[{"0":0.12043841183185577,"1":-0.04019914194941521,"2":-0.04934738576412201,"3":-0.047610536217689514,"4":-0.06329114735126495},{"0":0.20528550446033478,"1":0.013637534342706203,"2":-0.04199489206075668,"3":-0.04437834396958351,"4":-0.04010429233312607},{"0":0.15546268224716187,"1":0.09680669009685516,"2":-0.008784187026321888,"3":-0.031028907746076584,"4":-0.04070689529180527},{"0":0.10194205492734909,"1":0.11117800325155258,"2":0.030993197113275528,"3":-0.027288585901260376,"4":-0.05901295691728592},{"0":0.0448576956987381,"1":0.08973351120948792,"2":0.020822539925575256,"3":-0.021833809092640877,"4":-0.05678408965468407}],[{"0":0.003229609690606594,"1":-0.00003085246862610802,"2":0.00192243920173496,"3":-0.018034351989626884,"4":-0.016054540872573853},{"0":0.0032307503279298544,"1":0.004242026247084141,"2":0.0037148219998925924,"3":-0.0031506407540291548,"4":-0.017326971516013145},{"0":0.05587664991617203,"1":0.001781356055289507,"2":-0.0037778811529278755,"3":-0.006872227881103754,"4":-0.004964150488376617},{"0":0.11283658444881439,"1":0.023706814274191856,"2":0.007316864561289549,"3":0.0036297712940722704,"4":0.014505485072731972},{"0":0.06161419674754143,"1":0.07793881744146347,"2":0.036481037735939026,"3":0.017220206558704376,"4":0.005736473947763443}],[{"0":-0.02367708459496498,"1":0.026332883164286613,"2":0.06833788007497787,"3":0.009271490387618542,"4":-0.030498528853058815},{"0":-0.04417739063501358,"1":-0.012504576705396175,"2":0.04501935839653015,"3":0.03128034994006157,"4":-0.02694581262767315},{"0":-0.04107099398970604,"1":0.006844470743089914,"2":0.03253111615777016,"3":0.02328105829656124,"4":-0.02151523344218731},{"0":-0.018567604944109917,"1":0.019138190895318985,"2":0.04047552868723869,"3":0.017230723053216934,"4":-0.01531172450631857},{"0":0.007708743214607239,"1":0.03736981749534607,"2":0.05192718654870987,"3":0.0019108544802293181,"4":-0.01987452432513237}],[{"0":-0.023793308064341545,"1":-0.04171450808644295,"2":-0.08351434022188187,"3":-0.09148935228586197,"4":-0.08178966492414474},{"0":0.008280230686068535,"1":-0.0392143689095974,"2":-0.06674089282751083,"3":-0.0698758065700531,"4":-0.06536456197500229},{"0":0.04421036317944527,"1":-0.01392601989209652,"2":-0.03441544622182846,"3":-0.051095716655254364,"4":-0.042677752673625946},{"0":0.03095812164247036,"1":0.01431671530008316,"2":0.006025377195328474,"3":-0.0368814691901207,"4":-0.029780229553580284},{"0":-0.003791063791140914,"1":0.04055390506982803,"2":0.04307347908616066,"3":-0.017338989302515984,"4":-0.029208039864897728}],[{"0":0.06887757778167725,"1":0.04825497418642044,"2":-0.022582247853279114,"3":-0.039136920124292374,"4":-0.03285998851060867},{"0":0.12650112807750702,"1":0.1368839591741562,"2":0.02052278257906437,"3":-0.03840424865484238,"4":-0.028513843193650246},{"0":0.04305620491504669,"1":0.12731315195560455,"2":0.08616644144058228,"3":-0.014974167570471764,"4":-0.027433739975094795},{"0":-0.03957465663552284,"1":-0.0016574693145230412,"2":0.04154147580265999,"3":0.015711568295955658,"4":-0.009481021203100681},{"0":-0.021853847429156303,"1":-0.02703220397233963,"2":0.010152307339012623,"3":0.042809683829545975,"4":0.012375256977975368}],[{"0":-0.0819491520524025,"1":-0.0523650087416172,"2":-0.010054985992610455,"3":-0.0809624195098877,"4":-0.07685468345880508},{"0":-0.060424402356147766,"1":-0.0484357587993145,"2":-0.025513311848044395,"3":-0.05790858343243599,"4":-0.05684281513094902},{"0":-0.03422506898641586,"1":-0.060456283390522,"2":-0.061554718762636185,"3":-0.015057745389640331,"4":-0.01179056242108345},{"0":0.0019760513678193092,"1":-0.044603992253541946,"2":-0.04753708839416504,"3":-0.019107859581708908,"4":0.0011536518577486277},{"0":0.005496236961334944,"1":-0.035912301391363144,"2":-0.043242182582616806,"3":-0.036149103194475174,"4":-0.019910624250769615}]],[[{"0":0.021719275042414665,"1":0.04585287347435951,"2":0.03432620316743851,"3":0.027163032442331314,"4":0.05202562361955643},{"0":0.04561247676610947,"1":0.05304889380931854,"2":0.04965614899992943,"3":0.06616717576980591,"4":0.07374031096696854},{"0":0.03612806275486946,"1":0.043232038617134094,"2":0.05218537896871567,"3":0.04944553226232529,"4":0.03660953417420387},{"0":-0.008876422420144081,"1":0.003193601267412305,"2":0.004438952077180147,"3":-0.013119696639478207,"4":-0.010349944233894348},{"0":-0.01385335624217987,"1":-0.010473129339516163,"2":-0.005862419027835131,"3":-0.011628355830907822,"4":-0.013451230712234974}],[{"0":-0.007525672670453787,"1":-0.004902035929262638,"2":0.006002931855618954,"3":0.009587576612830162,"4":0.0110139399766922},{"0":-0.0006218751659616828,"1":0.003877748968079686,"2":0.007082807365804911,"3":0.003317210590466857,"4":0.017045114189386368},{"0":-0.002235057530924678,"1":-0.0036292066797614098,"2":0.0025159178767353296,"3":0.009302462451159954,"4":0.010667255148291588},{"0":-0.011184037663042545,"1":-0.010531161911785603,"2":0.002562309615314007,"3":-0.0013221377739682794,"4":-0.008473902009427547},{"0":-0.018822582438588142,"1":-0.008756673894822598,"2":-0.004759634379297495,"3":-0.012765927240252495,"4":-0.010315430350601673}],[{"0":0.02943829633295536,"1":0.0009743756963871419,"2":0.01628846861422062,"3":0.03940025344491005,"4":0.037552252411842346},{"0":0.005431899800896645,"1":0.012582475319504738,"2":0.0262689758092165,"3":0.03707246482372284,"4":-0.012656855396926403},{"0":-0.016008295118808746,"1":0.011367889121174812,"2":0.015513718128204346,"3":-0.012656666338443756,"4":-0.02758205309510231},{"0":-0.029950594529509544,"1":-0.016508640721440315,"2":-0.02664126642048359,"3":-0.037513989955186844,"4":-0.01237145159393549},{"0":-0.03691398352384567,"1":-0.04009440168738365,"2":-0.02646840550005436,"3":-0.02160709723830223,"4":-0.017241304740309715}],[{"0":0.03571674972772598,"1":0.02008470706641674,"2":0.016419945284724236,"3":0.005012893117964268,"4":-0.005969905760139227},{"0":0.0792510136961937,"1":0.03668787702918053,"2":0.019625991582870483,"3":0.021357223391532898,"4":0.031790051609277725},{"0":0.09902980178594589,"1":0.09303849935531616,"2":0.09576535224914551,"3":0.07139182090759277,"4":0.04938982427120209},{"0":0.06549619883298874,"1":0.1101011410355568,"2":0.08580680191516876,"3":0.041442789137363434,"4":0.0076040709391236305},{"0":0.014882436953485012,"1":0.02284041978418827,"2":0.0037883275654166937,"3":-0.009165463969111443,"4":-0.0012427056208252907}],[{"0":0.01662285253405571,"1":-0.0051632169634103775,"2":-0.014823585748672485,"3":0.001710756914690137,"4":0.02343040145933628},{"0":0.005550449248403311,"1":-0.007561451755464077,"2":-0.003620044095441699,"3":0.027275191619992256,"4":0.03815478831529617},{"0":-0.0010883279610425234,"1":0.005967822391539812,"2":0.028780659660696983,"3":0.04616212844848633,"4":0.04780096560716629},{"0":-0.00866183266043663,"1":0.013574477285146713,"2":0.015576064586639404,"3":0.021571485325694084,"4":0.03651934489607811},{"0":-0.006839457433670759,"1":-0.006342524196952581,"2":0.005230321083217859,"3":0.030754828825592995,"4":0.038637109100818634}],[{"0":-0.014547072350978851,"1":-0.03144913539290428,"2":-0.03942566737532616,"3":-0.02215723507106304,"4":-0.030689597129821777},{"0":0.011839624494314194,"1":0.014339076355099678,"2":-0.011551407165825367,"3":-0.01119275949895382,"4":-0.03318936750292778},{"0":-0.00042154465336352587,"1":-0.021687496453523636,"2":-0.02017945796251297,"3":-0.03138532117009163,"4":-0.03805447369813919},{"0":-0.04925162345170975,"1":-0.03697359934449196,"2":-0.04373285174369812,"3":-0.045850932598114014,"4":-0.044197168201208115},{"0":-0.05953033268451691,"1":-0.04860037565231323,"2":-0.04902753233909607,"3":-0.03499680384993553,"4":-0.019111929461359978}],[{"0":0.09394312649965286,"1":0.10174842923879623,"2":0.040431149303913116,"3":0.05343983322381973,"4":0.068936288356781},{"0":0.0645778477191925,"1":0.07745759189128876,"2":0.08459267020225525,"3":0.08367980271577835,"4":0.057179443538188934},{"0":0.0389242060482502,"1":0.053992126137018204,"2":0.07993949204683304,"3":0.05334371700882912,"4":0.035883694887161255},{"0":-0.00040869659278541803,"1":0.009373383596539497,"2":0.012077011168003082,"3":0.0033344414550811052,"4":-0.010254784487187862},{"0":-0.01575392857193947,"1":-0.014665010385215282,"2":-0.012865840457379818,"3":0.007053171284496784,"4":-0.006091197021305561}],[{"0":0.0025629373267292976,"1":0.030970770865678787,"2":0.00206393888220191,"3":-0.016853535547852516,"4":0.005757475271821022},{"0":-0.02038639783859253,"1":0.0010799793526530266,"2":-0.011917393654584885,"3":0.03357505425810814,"4":0.018759340047836304},{"0":-0.029803980141878128,"1":-0.03154367581009865,"2":-0.029904751107096672,"3":-0.035507891327142715,"4":-0.06585785001516342},{"0":-0.04796350747346878,"1":-0.04686305671930313,"2":-0.05304160714149475,"3":-0.05712634325027466,"4":-0.07261735945940018},{"0":-0.05320402607321739,"1":-0.0552012175321579,"2":-0.07025521248579025,"3":-0.06270839273929596,"4":-0.0641094446182251}]],[[{"0":-0.040460098534822464,"1":-0.062308456748723984,"2":-0.08799370378255844,"3":-0.08062662929296494,"4":-0.0520482212305069},{"0":-0.0591278113424778,"1":-0.060139000415802,"2":-0.07478763908147812,"3":-0.10996557772159576,"4":-0.09801270067691803},{"0":-0.06255075335502625,"1":-0.07637809216976166,"2":-0.0779072716832161,"3":-0.06530171632766724,"4":-0.053070101886987686},{"0":-0.02547108754515648,"1":-0.04653475061058998,"2":-0.07191608846187592,"3":-0.057099152356386185,"4":-0.05145951732993126},{"0":-0.01226767897605896,"1":-0.05365091189742088,"2":-0.07350847870111465,"3":-0.04678744077682495,"4":-0.009712662547826767}],[{"0":-0.0108519671484828,"1":-0.0002728025137912482,"2":-0.023007500916719437,"3":-0.006622521206736565,"4":-0.00906666275113821},{"0":-0.015712758526206017,"1":0.01361656654626131,"2":-0.01891479454934597,"3":-0.0016795742558315396,"4":0.00044294740655459464},{"0":-0.021598011255264282,"1":0.027089178562164307,"2":-0.003886566264554858,"3":0.006196691654622555,"4":0.014660434797406197},{"0":-0.015460750088095665,"1":0.03447580337524414,"2":-0.001219082740135491,"3":-0.008249349892139435,"4":0.01969628967344761},{"0":0.004134252201765776,"1":0.02187100052833557,"2":-0.0070752548053860664,"3":-0.006643012631684542,"4":0.011362630873918533}],[{"0":-0.013443024829030037,"1":0.24804183840751648,"2":0.16618160903453827,"3":-0.13121522963047028,"4":-0.06584490090608597},{"0":-0.1128813698887825,"1":0.17449265718460083,"2":0.2849540412425995,"3":-0.1340017169713974,"4":-0.11080339550971985},{"0":-0.07089328020811081,"1":-0.009443496353924274,"2":0.34998393058776855,"3":-0.009070047177374363,"4":-0.08645153790712357},{"0":-0.043113913387060165,"1":-0.030111143365502357,"2":0.2891945242881775,"3":0.10581176728010178,"4":-0.07275070995092392},{"0":-0.05814177542924881,"1":-0.004441934172064066,"2":0.16613787412643433,"3":0.1260286569595337,"4":-0.05384426191449165}],[{"0":-0.06082186475396156,"1":-0.01178810466080904,"2":-0.04825025051832199,"3":-0.0566042959690094,"4":-0.03869165852665901},{"0":-0.07958648353815079,"1":-0.03853174299001694,"2":-0.06409504264593124,"3":-0.053606752306222916,"4":-0.03214088827371597},{"0":-0.07079964876174927,"1":-0.017376938834786415,"2":0.035096973180770874,"3":-0.07568786293268204,"4":-0.0524585023522377},{"0":-0.047839533537626266,"1":0.007223918102681637,"2":0.18149198591709137,"3":-0.03602893278002739,"4":-0.05236371234059334},{"0":-0.040997423231601715,"1":-0.03899061307311058,"2":0.12598916888237,"3":0.030561642721295357,"4":-0.046921856701374054}],[{"0":-0.053493790328502655,"1":-0.059601347893476486,"2":-0.01805056445300579,"3":-0.08230958133935928,"4":0.009432817809283733},{"0":-0.044313471764326096,"1":-0.059184543788433075,"2":-0.015905635431408882,"3":-0.045614030212163925,"4":-0.008565908297896385},{"0":-0.04895119369029999,"1":-0.09539918601512909,"2":-0.030336502939462662,"3":0.015792718157172203,"4":-0.008415380492806435},{"0":-0.03201712295413017,"1":-0.1022636890411377,"2":-0.04816525802016258,"3":-0.019948098808526993,"4":-0.009255901910364628},{"0":-0.028134306892752647,"1":-0.04855813458561897,"2":-0.029146701097488403,"3":-0.04243279621005058,"4":-0.014857744798064232}],[{"0":-0.04392465949058533,"1":0.09574595093727112,"2":-0.08032850176095963,"3":0.031877364963293076,"4":-0.02271014079451561},{"0":-0.07732405513525009,"1":0.19347546994686127,"2":-0.062410734593868256,"3":0.07398461550474167,"4":0.01126902550458908},{"0":-0.11766357719898224,"1":0.09188329428434372,"2":0.028707243502140045,"3":0.15936072170734406,"4":0.024101585149765015},{"0":-0.09116020798683167,"1":0.016016045585274696,"2":0.016251616179943085,"3":0.14429724216461182,"4":0.05974583327770233},{"0":-0.05362607538700104,"1":-0.03515145927667618,"2":0.00807729922235012,"3":0.1133713498711586,"4":0.07775945961475372}],[{"0":-0.04227253794670105,"1":0.020403018221259117,"2":0.1444246768951416,"3":0.08573787659406662,"4":-0.06510462611913681},{"0":-0.13812775909900665,"1":-0.14191237092018127,"2":-0.04468516632914543,"3":0.10296529531478882,"4":-0.100323885679245},{"0":-0.13377149403095245,"1":-0.1633765697479248,"2":-0.19887277483940125,"3":0.04211311414837837,"4":-0.029648076742887497},{"0":-0.08501528948545456,"1":-0.12914228439331055,"2":-0.16462726891040802,"3":-0.059566374868154526,"4":0.007395139895379543},{"0":-0.057647477835416794,"1":-0.08782294392585754,"2":-0.11400475353002548,"3":-0.05979723855853081,"4":0.03386560454964638}],[{"0":0.08014804869890213,"1":0.08337558060884476,"2":-0.1496826410293579,"3":-0.11342184990644455,"4":0.19088655710220337},{"0":0.02102932706475258,"1":0.1781153529882431,"2":-0.10422821342945099,"3":-0.20122674107551575,"4":0.24837830662727356},{"0":0.010516304522752762,"1":0.25791627168655396,"2":-0.06320212036371231,"3":-0.1681280881166458,"4":0.1646987646818161},{"0":-0.022230379283428192,"1":0.2209296077489853,"2":-0.030938418582081795,"3":-0.15557385981082916,"4":0.09221740812063217},{"0":0.020688515156507492,"1":0.18726322054862976,"2":0.038473255932331085,"3":-0.15959002077579498,"4":-0.02732200175523758}]]],"bias":{"0":-0.11135666817426682,"1":-0.35977184772491455,"2":-0.376364141702652,"3":0.3872241973876953,"4":-0.2840014100074768,"5":-0.38842421770095825,"6":-0.17254915833473206,"7":-0.2115325927734375,"8":-0.35417741537094116,"9":-0.1534278690814972,"10":0.29875826835632324,"11":-0.2376037836074829,"12":-0.2829349637031555,"13":-0.034394390881061554,"14":0.0735849067568779,"15":-0.23793797194957733}},{"tipo":"relu"},{"tipo":"maxPool","size":2},{"tipo":"conv2d","inChannels":16,"outChannels":32,"kernelSize":3,"lastOutputShape":[32,3,3],"kernels":[[[{"0":0.011796070262789726,"1":-0.0009652205626480281,"2":0.12341565638780594},{"0":-0.004370684735476971,"1":-0.006464713718742132,"2":0.07070349156856537},{"0":-0.016172068193554878,"1":-0.010563123039901257,"2":0.03514309227466583}],[{"0":0.014942274428904057,"1":-0.022622842341661453,"2":-0.028091048821806908},{"0":-0.010491158813238144,"1":-0.03380052000284195,"2":-0.0637669488787651},{"0":-0.032894063740968704,"1":-0.037660274654626846,"2":-0.04106125980615616}],[{"0":-0.02080416865646839,"1":-0.01758284866809845,"2":0.06982651352882385},{"0":-0.03077738732099533,"1":-0.04306688904762268,"2":-0.03952799737453461},{"0":-0.03604378178715706,"1":-0.049794360995292664,"2":-0.02483978308737278}],[{"0":-0.02293500117957592,"1":-0.0024157948791980743,"2":-0.01816975139081478},{"0":-0.01026965118944645,"1":0.006009133532643318,"2":-0.008512360043823719},{"0":0.003240901743993163,"1":0.004802000243216753,"2":-0.006548088975250721}],[{"0":-0.009579850360751152,"1":0.017331013455986977,"2":0.10587811470031738},{"0":-0.014064773917198181,"1":-0.0011230948148295283,"2":0.06907407939434052},{"0":-0.011016328819096088,"1":-0.0069769215770065784,"2":0.09405560046434402}],[{"0":6.845342998226731e-42,"1":6.782284567332115e-42,"2":6.538458634539596e-42},{"0":-6.789291059653739e-42,"1":6.93222350301487e-42,"2":6.937828696872169e-42},{"0":6.971459860015965e-42,"1":-6.621135243934761e-42,"2":6.517439157574724e-42}],[{"0":-0.007431551814079285,"1":-0.004438293166458607,"2":-0.026750214397907257},{"0":-0.03947632014751434,"1":-0.03631775453686714,"2":-0.055345308035612106},{"0":-0.03686201572418213,"1":-0.04447009786963463,"2":-0.09377376735210419}],[{"0":0.0044594453647732735,"1":0.006404554937034845,"2":0.046613216400146484},{"0":-0.002150504384189844,"1":0.0034841839224100113,"2":0.04851461574435234},{"0":-0.009156228974461555,"1":-0.001060417969711125,"2":0.03285776451230049}],[{"0":-0.024153104051947594,"1":0.009210745804011822,"2":0.1958431899547577},{"0":-0.03074241802096367,"1":-0.02788694016635418,"2":0.18848617374897003},{"0":-0.026300547644495964,"1":0.006124547682702541,"2":0.1434679925441742}],[{"0":-0.03030792623758316,"1":-0.018099693581461906,"2":-0.06441130489110947},{"0":-0.03358879312872887,"1":-0.023308422416448593,"2":-0.03757522627711296},{"0":-0.04952429234981537,"1":-0.028788184747099876,"2":-0.02017810195684433}],[{"0":-0.0017815663013607264,"1":0.016280794516205788,"2":-0.0012478440767154098},{"0":0.010126715525984764,"1":0.015372028574347496,"2":-0.011393321678042412},{"0":0.007080672308802605,"1":0.009176141582429409,"2":-0.0066948686726391315}],[{"0":6.731837822616421e-42,"1":6.39412489271414e-42,"2":6.681391077900728e-42},{"0":6.878974161370527e-42,"1":6.438966443572534e-42,"2":6.961650770765691e-42},{"0":-6.378710609606567e-42,"1":6.54826772378987e-42,"2":6.74304821033102e-42}],[{"0":-0.008027110248804092,"1":-0.02025621198117733,"2":-0.07408750802278519},{"0":-0.04564908146858215,"1":-0.057050492614507675,"2":-0.11592664569616318},{"0":-0.052754174917936325,"1":-0.08232004195451736,"2":-0.12806546688079834}],[{"0":-0.0012942601460963488,"1":-0.0012706719571724534,"2":-0.008701450191438198},{"0":-0.007311756256967783,"1":-0.006923134438693523,"2":-0.009655829519033432},{"0":-0.008979923091828823,"1":-0.013340851292014122,"2":-0.010833477601408958}],[{"0":-0.005312507506459951,"1":0.0010340072913095355,"2":-0.01543791126459837},{"0":-0.004864033777266741,"1":-0.0001517328346380964,"2":-0.020592274144291878},{"0":-0.00940648652613163,"1":-0.007392594125121832,"2":-0.024131949990987778}],[{"0":0.0343443900346756,"1":0.019680257886648178,"2":-0.018989071249961853},{"0":-0.004094885662198067,"1":-0.01651621423661709,"2":-0.0408722385764122},{"0":-0.029370425269007683,"1":-0.05155642703175545,"2":-0.015225621871650219}]],[[{"0":0.03384938836097717,"1":-0.034426722675561905,"2":-0.07079704850912094},{"0":0.06228363886475563,"1":-0.010884582065045834,"2":0.016777150332927704},{"0":0.05574490875005722,"1":0.010412594303488731,"2":0.07023382186889648}],[{"0":-0.03588319942355156,"1":-0.10758764296770096,"2":-0.11477453261613846},{"0":-0.0208749882876873,"1":-0.0848141610622406,"2":-0.041673410683870316},{"0":0.05777581036090851,"1":-0.02147996425628662,"2":-0.028138477355241776}],[{"0":-0.1473945528268814,"1":-0.07753732055425644,"2":-0.009994321502745152},{"0":-0.053130678832530975,"1":-0.0663304552435875,"2":0.0818103775382042},{"0":-0.06000654399394989,"1":0.04578166827559471,"2":0.23160909116268158}],[{"0":0.01688733883202076,"1":-0.049336086958646774,"2":-0.0033390268217772245},{"0":0.04253402352333069,"1":-0.060448743402957916,"2":-0.015496117994189262},{"0":0.047061651945114136,"1":-0.02830091491341591,"2":0.018541408702731133}],[{"0":0.010761701501905918,"1":0.05375348776578903,"2":0.0692482739686966},{"0":0.027452439069747925,"1":0.079048752784729,"2":0.12419095635414124},{"0":0.045230682939291,"1":0.12211833149194717,"2":0.14480577409267426}],[{"0":6.426354757393611e-42,"1":6.412341772750363e-42,"2":6.881776758299177e-42},{"0":6.916809219907297e-42,"1":6.912605324514323e-42,"2":6.607122259291512e-42},{"0":6.598714468505564e-42,"1":-6.769672881153191e-42,"2":-6.7024105548656e-42}],[{"0":-0.1570003181695938,"1":-0.10076253116130829,"2":-0.021173592656850815},{"0":-0.11912024766206741,"1":-0.12539048492908478,"2":-0.048469096422195435},{"0":-0.08684657514095306,"1":-0.05345427989959717,"2":0.06902097165584564}],[{"0":0.01527650747448206,"1":0.019301174208521843,"2":-0.016246464103460312},{"0":0.018582230433821678,"1":0.039492059499025345,"2":0.012150900438427925},{"0":0.024091456085443497,"1":0.063147634267807,"2":0.03443845361471176}],[{"0":-0.03167495131492615,"1":-0.10820218920707703,"2":-0.0604000985622406},{"0":0.0077966731041669846,"1":-0.03906049206852913,"2":0.055228400975465775},{"0":0.0769951194524765,"1":0.10753908008337021,"2":0.25683870911598206}],[{"0":-0.019604632630944252,"1":0.06856890767812729,"2":0.13559909164905548},{"0":-0.027371428906917572,"1":0.07463645190000534,"2":0.1823486089706421},{"0":0.009864898398518562,"1":0.03135723993182182,"2":0.04051407054066658}],[{"0":0.025890076532959938,"1":0.03963949903845787,"2":0.03816712647676468},{"0":0.03454357385635376,"1":0.029604284092783928,"2":0.023046623915433884},{"0":0.017925361171364784,"1":0.022653402760624886,"2":0.015782812610268593}],[{"0":6.514636560646075e-42,"1":6.930822204550545e-42,"2":6.689798868686677e-42},{"0":-6.311448283318976e-42,"1":6.656167705542881e-42,"2":-6.66737809325748e-42},{"0":-6.495018382145527e-42,"1":6.957446875372717e-42,"2":-6.713620942580199e-42}],[{"0":-0.16372215747833252,"1":-0.12624512612819672,"2":-0.09801626205444336},{"0":-0.1422090083360672,"1":-0.10373137146234512,"2":-0.10435634106397629},{"0":-0.025915147736668587,"1":-0.1298430860042572,"2":-0.11866729706525803}],[{"0":0.011148625984787941,"1":-0.007017342373728752,"2":-0.02148836851119995},{"0":-0.0019524089293554425,"1":-0.01656370982527733,"2":0.021953245624899864},{"0":0.017529500648379326,"1":-0.02416365034878254,"2":0.023855462670326233}],[{"0":-0.015656352043151855,"1":-0.012859511189162731,"2":-0.010927543975412846},{"0":-0.006975945550948381,"1":0.0021084106992930174,"2":-0.0012523264158517122},{"0":-0.03051561489701271,"1":-0.02095508575439453,"2":-0.01800832897424698}],[{"0":0.0010247433092445135,"1":-0.03618063032627106,"2":-0.05753365159034729},{"0":0.07568255066871643,"1":0.05570537596940994,"2":0.03388390690088272},{"0":0.1353098452091217,"1":0.06821829080581665,"2":0.02738039754331112}]],[[{"0":0.016322968527674675,"1":-0.06453389674425125,"2":-0.09444596618413925},{"0":-0.05713469162583351,"1":-0.1627625972032547,"2":-0.13604962825775146},{"0":-0.09601891785860062,"1":-0.0865427777171135,"2":-0.04306149482727051}],[{"0":0.030950594693422318,"1":-0.04835386201739311,"2":-0.08830252289772034},{"0":-0.03096858598291874,"1":-0.02956428937613964,"2":-0.0872076228260994},{"0":-0.10429153591394424,"1":0.007111468818038702,"2":0.12448542565107346}],[{"0":-0.060796644538640976,"1":-0.025637861341238022,"2":0.042338963598012924},{"0":-0.09476979076862335,"1":0.0605517141520977,"2":0.10934135317802429},{"0":-0.05952659249305725,"1":0.05499235540628433,"2":0.08385920524597168}],[{"0":-0.05794743075966835,"1":-0.029453646391630173,"2":-0.0704335942864418},{"0":-0.05733354017138481,"1":-0.03008240833878517,"2":-0.12384207546710968},{"0":-0.03269554302096367,"1":-0.029333382844924927,"2":-0.14197048544883728}],[{"0":0.05219745635986328,"1":0.024269018322229385,"2":0.09143583476543427},{"0":-0.05669531971216202,"1":-0.058304715901613235,"2":0.029857976362109184},{"0":-0.05333709716796875,"1":-0.05971721559762955,"2":-0.11478663235902786}],[{"0":-6.681391077900728e-42,"1":-6.766870284224542e-42,"2":-6.979867650801914e-42},{"0":-6.668779391721804e-42,"1":-6.565083305361768e-42,"2":6.748653404188319e-42},{"0":-6.570688499219067e-42,"1":-6.78368586579644e-42,"2":-6.978466352337589e-42}],[{"0":-0.04449974000453949,"1":0.04370088130235672,"2":-0.02160777896642685},{"0":-0.012845299206674099,"1":-0.02523547038435936,"2":0.006555901374667883},{"0":-0.019206037744879723,"1":0.015561522915959358,"2":-0.030794266611337662}],[{"0":-0.01254836842417717,"1":0.00781403761357069,"2":0.012769633904099464},{"0":-0.013774496503174305,"1":0.008032746613025665,"2":0.027472367510199547},{"0":-0.008717303164303303,"1":-0.01511442568153143,"2":0.04613537713885307}],[{"0":0.007656109519302845,"1":0.008183775469660759,"2":0.1247909888625145},{"0":0.02382732555270195,"1":0.11646760255098343,"2":0.14557240903377533},{"0":0.059099167585372925,"1":0.14935551583766937,"2":0.17133843898773193}],[{"0":-0.04308019578456879,"1":-0.04093291237950325,"2":-0.07590695470571518},{"0":-0.04384423419833183,"1":0.026670606806874275,"2":0.0088979946449399},{"0":0.0005829550209455192,"1":-0.0522012934088707,"2":-0.03629961237311363}],[{"0":0.019676649942994118,"1":0.00873717200011015,"2":-0.03113018162548542},{"0":-0.007871776819229126,"1":-0.015501239337027073,"2":-0.043952472507953644},{"0":-0.04681893065571785,"1":-0.0706864669919014,"2":-0.09546730667352676}],[{"0":-6.695404062543976e-42,"1":-6.544063828396896e-42,"2":-6.765468985760217e-42},{"0":-6.438966443572534e-42,"1":-6.542662529932571e-42,"2":-6.597313170041239e-42},{"0":-6.464189815930381e-42,"1":-6.462788517466056e-42,"2":-6.726232628759122e-42}],[{"0":-0.07113691419363022,"1":-0.007192877121269703,"2":0.044115401804447174},{"0":-0.05003662034869194,"1":0.05036693066358566,"2":0.0186233539134264},{"0":-0.11593865603208542,"1":-0.05274812504649162,"2":0.15079890191555023}],[{"0":-0.04265272244811058,"1":-0.04695126414299011,"2":-0.0909978449344635},{"0":-0.02636064402759075,"1":-0.041413456201553345,"2":-0.11236408352851868},{"0":-0.0021214564330875874,"1":-0.012312546372413635,"2":-0.04263622313737869}],[{"0":-0.02133426070213318,"1":-0.029558803886175156,"2":-0.03384193032979965},{"0":-0.021815361455082893,"1":-0.04142968729138374,"2":-0.04186573624610901},{"0":-0.04311753436923027,"1":-0.08471380174160004,"2":-0.0779387429356575}],[{"0":0.02210153453052044,"1":0.08459585160017014,"2":-0.05485908314585686},{"0":-0.020760515704751015,"1":0.12471631169319153,"2":-0.0668044239282608},{"0":-0.12717418372631073,"1":0.08945713937282562,"2":0.12894168496131897}]],[[{"0":0.027683088555932045,"1":0.005976108834147453,"2":0.0007012325804680586},{"0":0.07292982190847397,"1":0.07609914988279343,"2":0.007459401153028011},{"0":0.06955107301473618,"1":0.1141042709350586,"2":0.0384586900472641}],[{"0":0.11976607143878937,"1":0.04623238742351532,"2":0.0006175402086228132},{"0":0.09125164151191711,"1":0.1352139115333557,"2":0.04623471200466156},{"0":0.059774868190288544,"1":0.14796006679534912,"2":0.131318598985672}],[{"0":-0.07287978380918503,"1":-0.12500888109207153,"2":-0.11892954260110855},{"0":-0.11918329447507858,"1":-0.11540060490369797,"2":-0.1040649563074112},{"0":-0.11544839292764664,