[{"tipo":"conv2d","inChannels":1,"outChannels":8,"kernelSize":5,"lastOutputShape":[8,3,3],"kernels":[[[{"0":-0.07386554032564163,"1":-0.08640099316835403,"2":0.27902328968048096,"3":-0.19069229066371918,"4":-0.2651728093624115},{"0":-0.02758096531033516,"1":-0.2065614014863968,"2":0.3892674148082733,"3":-0.04156411811709404,"4":-0.3502664864063263},{"0":0.2518947422504425,"1":0.054591499269008636,"2":0.1026514321565628,"3":-0.08525765687227249,"4":-0.3538224995136261},{"0":0.03636493906378746,"1":-0.02421165630221367,"2":0.5006294846534729,"3":-0.2267143875360489,"4":-0.24366755783557892},{"0":-0.15816234052181244,"1":-0.1384952813386917,"2":0.29454001784324646,"3":0.14282892644405365,"4":-0.28308165073394775}]],[[{"0":-0.07714209705591202,"1":0.2065615952014923,"2":0.10560072213411331,"3":-0.09445206075906754,"4":-0.04027077555656433},{"0":-0.06139812618494034,"1":0.3032929003238678,"2":-0.21674366295337677,"3":-0.07746833562850952,"4":-0.0375608392059803},{"0":-0.17848721146583557,"1":0.017241409048438072,"2":0.2176782339811325,"3":-0.11691739410161972,"4":-0.060122422873973846},{"0":-0.13989676535129547,"1":-0.05346543714404106,"2":0.03391480818390846,"3":0.09903091937303543,"4":-0.06720691919326782},{"0":-0.13001655042171478,"1":-0.09941231459379196,"2":0.009902259334921837,"3":0.038584236055612564,"4":0.09841962158679962}]],[[{"0":0.031927406787872314,"1":-0.2996475100517273,"2":-0.43764641880989075,"3":0.21743358671665192,"4":0.1829669177532196},{"0":0.07853788137435913,"1":0.02834096923470497,"2":-0.5464120507240295,"3":-0.2368370145559311,"4":0.32550349831581116},{"0":0.007500221021473408,"1":0.2600209414958954,"2":-0.5583570003509521,"3":-0.2414650171995163,"4":0.16963164508342743},{"0":-0.02741266041994095,"1":0.21151897311210632,"2":-0.3557296693325043,"3":-0.4524557590484619,"4":0.12590143084526062},{"0":-0.07755281031131744,"1":0.03441600874066353,"2":0.021305594593286514,"3":-0.36106976866722107,"4":-0.31981411576271057}]],[[{"0":-0.13075752556324005,"1":-0.14874295890331268,"2":-0.2962569296360016,"3":-0.04426037520170212,"4":-0.06038106232881546},{"0":-0.194036066532135,"1":-0.2536717355251312,"2":0.06902793049812317,"3":0.04186277464032173,"4":0.18274429440498352},{"0":0.1362868845462799,"1":0.12161003798246384,"2":0.1987275332212448,"3":0.3394482135772705,"4":-0.08675280213356018},{"0":0.012540319934487343,"1":-0.10661395639181137,"2":0.08300597965717316,"3":-0.06754187494516373,"4":-0.2406395673751831},{"0":0.24444374442100525,"1":0.18788741528987885,"2":0.04940209910273552,"3":-0.31664901971817017,"4":-0.1995251625776291}]],[[{"0":0.06914053112268448,"1":0.20618602633476257,"2":-0.017758481204509735,"3":0.08209636062383652,"4":0.2658824920654297},{"0":0.16456826031208038,"1":-0.042284298688173294,"2":0.07438159734010696,"3":0.24818560481071472,"4":0.3336556553840637},{"0":0.10283637791872025,"1":0.21494503319263458,"2":-0.0751243308186531,"3":0.2530464231967926,"4":0.27355727553367615},{"0":0.2632046937942505,"1":0.3195730447769165,"2":-0.01338106393814087,"3":0.28872358798980713,"4":0.16410569846630096},{"0":0.06271959841251373,"1":0.30289536714553833,"2":0.0894898921251297,"3":0.14765208959579468,"4":-0.08405694365501404}]],[[{"0":-0.29895272850990295,"1":-0.2981261909008026,"2":-0.23070243000984192,"3":-0.1364888697862625,"4":-0.0453062541782856},{"0":-0.21987122297286987,"1":-0.20529672503471375,"2":-0.2317015379667282,"3":-0.1337987333536148,"4":-0.02958053909242153},{"0":-0.10827329754829407,"1":-0.20497484505176544,"2":-0.16898958384990692,"3":0.05513950064778328,"4":-0.1326952427625656},{"0":0.18590570986270905,"1":0.24647556245326996,"2":0.3456958830356598,"3":-0.17002470791339874,"4":0.15544503927230835},{"0":-0.02110288105905056,"1":0.1765628159046173,"2":0.33145463466644287,"3":0.11686065047979355,"4":-0.06012946739792824}]],[[{"0":-0.1486489474773407,"1":-0.04550306871533394,"2":-0.15071125328540802,"3":-0.378753125667572,"4":-0.061098091304302216},{"0":-0.1909918189048767,"1":-0.34626442193984985,"2":-0.1994902491569519,"3":-0.020392868667840958,"4":-0.380317360162735},{"0":0.004924196749925613,"1":0.025100044906139374,"2":0.27762916684150696,"3":0.11982438713312149,"4":0.3078128695487976},{"0":0.28618431091308594,"1":0.3809317350387573,"2":0.29733937978744507,"3":0.43750518560409546,"4":0.21998891234397888},{"0":-0.0279548279941082,"1":-0.21988414227962494,"2":-0.5169468522071838,"3":-0.6598381400108337,"4":-0.3360733687877655}]],[[{"0":-0.11177071183919907,"1":-0.08847992867231369,"2":-0.15516071021556854,"3":-0.09169845283031464,"4":0.035297147929668427},{"0":-0.1728944033384323,"1":-0.19064994156360626,"2":-0.09967707842588425,"3":-0.2724229693412781,"4":0.13844449818134308},{"0":-0.20017723739147186,"1":-0.2703869938850403,"2":-0.22435468435287476,"3":-0.29254063963890076,"4":0.3753534257411957},{"0":-0.2480180710554123,"1":-0.27399200201034546,"2":-0.21710887551307678,"3":-0.14019019901752472,"4":0.46517711877822876},{"0":-0.1548229306936264,"1":-0.3194097578525543,"2":-0.23822733759880066,"3":0.20182356238365173,"4":0.41196200251579285}]]],"bias":{"0":-0.3345402479171753,"1":-0.33546561002731323,"2":0.04300486296415329,"3":-0.2904728055000305,"4":-0.38137179613113403,"5":-0.2594922184944153,"6":-0.024386363103985786,"7":-0.034676529467105865}},{"tipo":"relu"},{"tipo":"maxPool","size":2},{"tipo":"conv2d","inChannels":8,"outChannels":16,"kernelSize":5,"lastOutputShape":[16,3,3],"kernels":[[[{"0":0.028507940471172333,"1":0.20336264371871948,"2":-0.0158159788697958,"3":0.21556635200977325,"4":0.029766524210572243},{"0":0.07630468159914017,"1":0.12596596777439117,"2":0.0988813042640686,"3":0.03644255921244621,"4":0.023566067218780518},{"0":-0.07334532588720322,"1":-0.030050594359636307,"2":-0.026445096358656883,"3":-0.0385090596973896,"4":0.08136649429798126},{"0":-0.052735354751348495,"1":-0.10090216249227524,"2":-0.09353107213973999,"3":-0.08621907234191895,"4":-0.06780904531478882},{"0":0.11941414326429367,"1":-0.03246292099356651,"2":-0.15645331144332886,"3":-0.06893394887447357,"4":-0.07560238987207413}],[{"0":0.014581235125660896,"1":0.00019690771296154708,"2":-0.010725937783718109,"3":0.043467480689287186,"4":0.006563705857843161},{"0":-0.0007752834935672581,"1":0.03436271473765373,"2":-0.014861231669783592,"3":0.019366558641195297,"4":-0.012835115194320679},{"0":0.03683813288807869,"1":-0.03156714141368866,"2":-0.05258340761065483,"3":-0.0043875547125935555,"4":0.006273382809013128},{"0":0.019836973398923874,"1":-0.04364480450749397,"2":-0.011743531562387943,"3":0.0009817986283451319,"4":0.07006624341011047},{"0":-0.027943622320890427,"1":-0.07354419678449631,"2":-0.04259762912988663,"3":-0.03292377293109894,"4":-0.043181560933589935}],[{"0":0.020127682015299797,"1":-0.032776687294244766,"2":-0.06889074295759201,"3":0.0901043713092804,"4":0.11626267433166504},{"0":-0.03829646855592728,"1":-0.1283409595489502,"2":-0.14067552983760834,"3":-0.0736895203590393,"4":-0.0014676569262519479},{"0":0.053114939481019974,"1":-0.06519812345504761,"2":-0.1701558232307434,"3":-0.08616004139184952,"4":-0.03521377220749855},{"0":-0.06293705850839615,"1":0.012926990166306496,"2":-0.0693376362323761,"3":-0.04358019307255745,"4":-0.04923901706933975},{"0":-0.02094428241252899,"1":-0.127157062292099,"2":-0.12352592498064041,"3":-0.12135063111782074,"4":-0.06351041048765182}],[{"0":-0.02071565017104149,"1":0.10645638406276703,"2":0.09515996277332306,"3":0.00005590235741692595,"4":-0.03772886469960213},{"0":0.08734060078859329,"1":0.030658043920993805,"2":0.08558014035224915,"3":0.02316681668162346,"4":-0.00559897068887949},{"0":-0.08856909722089767,"1":0.04822797700762749,"2":0.029697613790631294,"3":0.041473813354969025,"4":0.005993650294840336},{"0":-0.03179052099585533,"1":0.004319503903388977,"2":-0.03913656622171402,"3":-0.0518580786883831,"4":-0.03456219285726547},{"0":0.021372053772211075,"1":0.023712582886219025,"2":-0.05098199471831322,"3":-0.08095934242010117,"4":0.04853176325559616}],[{"0":0.157100647687912,"1":0.1571594625711441,"2":0.029859507456421852,"3":-0.14338447153568268,"4":-0.14893165230751038},{"0":0.14377179741859436,"1":0.002236424246802926,"2":0.052191443741321564,"3":0.0966462641954422,"4":0.002677856246009469},{"0":0.11021310091018677,"1":0.09546686708927155,"2":0.07857605814933777,"3":-0.03728565573692322,"4":-0.08034220337867737},{"0":-0.04401671886444092,"1":-0.07953537255525589,"2":-0.18250668048858643,"3":-0.26474645733833313,"4":-0.25009292364120483},{"0":0.030824769288301468,"1":-0.06967369467020035,"2":-0.20506004989147186,"3":-0.0978313460946083,"4":-0.11581740528345108}],[{"0":0.01976490020751953,"1":0.1948135793209076,"2":0.07767768204212189,"3":0.015174668282270432,"4":-0.002664190949872136},{"0":0.037470974028110504,"1":0.035714101046323776,"2":0.09457459300756454,"3":0.024517221376299858,"4":0.13256260752677917},{"0":0.0938284620642662,"1":0.03299145773053169,"2":0.06320205330848694,"3":0.04719575121998787,"4":0.027142886072397232},{"0":-0.0032125080469995737,"1":0.02955840714275837,"2":-0.019910471513867378,"3":0.04076709598302841,"4":-0.02841361053287983},{"0":0.11445210129022598,"1":0.1273869425058365,"2":0.1338864117860794,"3":0.14753760397434235,"4":0.13609008491039276}],[{"0":-0.05058224871754646,"1":0.13706590235233307,"2":0.2103908360004425,"3":0.22741417586803436,"4":0.06914883106946945},{"0":-0.015521947294473648,"1":0.15513163805007935,"2":0.1147371232509613,"3":0.0863587036728859,"4":0.12749142944812775},{"0":0.09972495585680008,"1":0.16558851301670074,"2":0.2008243352174759,"3":0.23092618584632874,"4":0.18859334290027618},{"0":-0.019560081884264946,"1":0.056162212044000626,"2":-0.0016066291136667132,"3":-0.10209458321332932,"4":-0.10492224246263504},{"0":0.2136819213628769,"1":0.24192634224891663,"2":0.2653104364871979,"3":0.16651681065559387,"4":0.08067343384027481}],[{"0":-0.0032435571774840355,"1":-0.029715856537222862,"2":-0.025913365185260773,"3":-0.048592932522296906,"4":0.0924755334854126},{"0":-0.05049861967563629,"1":-0.18709328770637512,"2":-0.21765653789043427,"3":-0.058648481965065,"4":0.06073852255940437},{"0":-0.15892264246940613,"1":-0.18980374932289124,"2":-0.24048946797847748,"3":-0.23693758249282837,"4":-0.09800916165113449},{"0":-0.19344189763069153,"1":-0.19933603703975677,"2":-0.21108748018741608,"3":-0.1575230211019516,"4":-0.03475030139088631},{"0":-0.09625785797834396,"1":-0.14587567746639252,"2":-0.18577411770820618,"3":-0.06742262840270996,"4":-0.06795734167098999}]],[[{"0":0.03270832821726799,"1":-0.015613607130944729,"2":0.011566666886210442,"3":-0.029510581865906715,"4":-0.056478191167116165},{"0":0.015858467668294907,"1":0.016431359574198723,"2":-0.009603478014469147,"3":-0.04229710251092911,"4":0.0063822027295827866},{"0":0.0020506824366748333,"1":0.01501503400504589,"2":-0.02549128606915474,"3":-0.0752299353480339,"4":-0.005980907008051872},{"0":-0.0025987320113927126,"1":0.008560458198189735,"2":-0.011759546585381031,"3":-0.08596808463335037,"4":-0.01636011339724064},{"0":-0.012507296167314053,"1":0.006330195348709822,"2":0.028392693027853966,"3":-0.03313974663615227,"4":-0.048158809542655945}],[{"0":0.014959459193050861,"1":-0.004728976171463728,"2":-0.014212371781468391,"3":0.015543605200946331,"4":-0.008917409926652908},{"0":0.013489763252437115,"1":-0.013188845477998257,"2":-0.027870075777173042,"3":0.021441960707306862,"4":-0.008268353529274464},{"0":0.0040925187058746815,"1":0.023052161559462547,"2":-0.0029536637011915445,"3":0.010828313417732716,"4":0.041772179305553436},{"0":-0.007085738703608513,"1":0.021635407581925392,"2":0.0019603257533162832,"3":-0.02020874433219433,"4":0.00172559660859406},{"0":-0.018025945872068405,"1":0.0017336057499051094,"2":0.013047682121396065,"3":-0.024554098024964333,"4":0.016450028866529465}],[{"0":-0.012559225782752037,"1":0.00004812449697055854,"2":-0.03379753977060318,"3":0.014640050008893013,"4":-0.04926639422774315},{"0":-0.00882274191826582,"1":0.024898191913962364,"2":0.0824059471487999,"3":0.0006625396781601012,"4":-0.02546955645084381},{"0":-0.0005923829739913344,"1":0.005152317229658365,"2":0.09056145697832108,"3":0.01779516227543354,"4":-0.02420424483716488},{"0":-0.004414652939885855,"1":-0.0002941138809546828,"2":0.030990950763225555,"3":0.09940378367900848,"4":-0.04742056131362915},{"0":-0.002919367514550686,"1":-0.0016888476675376296,"2":-0.021596327424049377,"3":0.02463849075138569,"4":-0.014574396423995495}],[{"0":-0.01990092173218727,"1":-0.03528270497918129,"2":-0.039461757987737656,"3":-0.030807767063379288,"4":0.06609632074832916},{"0":0.00014170209760777652,"1":-0.019857537001371384,"2":-0.043763451278209686,"3":-0.03480636328458786,"4":0.07949070632457733},{"0":-0.03052705153822899,"1":-0.018717309460043907,"2":-0.02663838118314743,"3":-0.039975356310606,"4":0.010451914742588997},{"0":-0.00485450541600585,"1":-0.03654477000236511,"2":-0.025428997352719307,"3":-0.022624025121331215,"4":-0.0053950343281030655},{"0":-0.011290822178125381,"1":-0.03235960751771927,"2":-0.021429995074868202,"3":-0.011931157670915127,"4":-0.013603904284536839}],[{"0":-0.019664283841848373,"1":-0.06097308173775673,"2":-0.04294160008430481,"3":0.02709580585360527,"4":0.052602823823690414},{"0":-0.02178294025361538,"1":-0.043027568608522415,"2":-0.010989733040332794,"3":0.008606670424342155,"4":0.10671081393957138},{"0":-0.018312610685825348,"1":-0.047599442303180695,"2":0.0552203543484211,"3":0.00371758290566504,"4":0.21186108887195587},{"0":-0.002690916880965233,"1":-0.04273098334670067,"2":-0.05573982000350952,"3":0.08175043761730194,"4":0.06387960910797119},{"0":-0.02396838180720806,"1":-0.036634501069784164,"2":-0.05132947862148285,"3":-0.03287773206830025,"4":-0.01149034220725298}],[{"0":-0.011033963412046432,"1":-0.035568393766880035,"2":-0.047463927417993546,"3":-0.021074285730719566,"4":0.002729846863076091},{"0":-0.019770940765738487,"1":-0.015558739192783833,"2":-0.026518970727920532,"3":-0.024582332000136375,"4":-0.05358502268791199},{"0":-0.01815062388777733,"1":-0.014488623477518559,"2":-0.02368954010307789,"3":-0.030726490542292595,"4":-0.03941544517874718},{"0":-0.02525724098086357,"1":-0.01734614558517933,"2":-0.002358547877520323,"3":0.0040032025426626205,"4":-0.03166675940155983},{"0":-0.02640276588499546,"1":-0.032638177275657654,"2":0.00892737414687872,"3":0.04076040908694267,"4":0.030223913490772247}],[{"0":-0.04051772877573967,"1":-0.040092699229717255,"2":-0.07334324717521667,"3":-0.08187758177518845,"4":0.08649876713752747},{"0":-0.03487984836101532,"1":-0.03472195193171501,"2":-0.06809014827013016,"3":-0.11017422378063202,"4":-0.05930978059768677},{"0":-0.036822609603405,"1":-0.04800432175397873,"2":-0.07969305664300919,"3":-0.04295840859413147,"4":-0.018531272187829018},{"0":-0.03810486942529678,"1":-0.04597815126180649,"2":-0.05398092418909073,"3":-0.058371059596538544,"4":-0.028874583542346954},{"0":-0.030602475628256798,"1":-0.033038895577192307,"2":-0.028566434979438782,"3":-0.05176766961812973,"4":-0.01924785040318966}],[{"0":-0.048728857189416885,"1":0.05048171058297157,"2":0.042584944516420364,"3":0.013656312599778175,"4":-0.030521681532263756},{"0":-0.027208508923649788,"1":-0.001694106380455196,"2":0.06883426010608673,"3":-0.06154054030776024,"4":-0.066234290599823},{"0":-0.02599862962961197,"1":-0.04095388948917389,"2":-0.006374730262905359,"3":-0.06886066496372223,"4":-0.0564933605492115},{"0":-0.030199091881513596,"1":-0.030884265899658203,"2":-0.04605289176106453,"3":-0.06556980311870575,"4":-0.05860647186636925},{"0":-0.023360252380371094,"1":-0.006078585982322693,"2":-0.02733512409031391,"3":-0.07209309190511703,"4":-0.05455911159515381}]],[[{"0":-0.021180570125579834,"1":0.12578564882278442,"2":-0.022287975996732712,"3":-0.22361181676387787,"4":-0.0028899256139993668},{"0":-0.07392638921737671,"1":0.11990498006343842,"2":0.07616080343723297,"3":-0.23005013167858124,"4":-0.11595419049263},{"0":-0.02174617536365986,"1":0.24392804503440857,"2":0.10444571077823639,"3":-0.18182140588760376,"4":-0.04022664949297905},{"0":-0.09372953325510025,"1":0.14898286759853363,"2":0.036524660885334015,"3":-0.10538885742425919,"4":-0.03200218081474304},{"0":-0.07968737930059433,"1":0.08632935583591461,"2":-0.024737322703003883,"3":-0.08753731101751328,"4":-0.008972667157649994}],[{"0":-0.03739561513066292,"1":-0.03388619050383568,"2":-0.014336002059280872,"3":-0.047312743961811066,"4":-0.0443444699048996},{"0":-0.033109311014413834,"1":0.07305433601140976,"2":-0.010416892357170582,"3":-0.10269320011138916,"4":-0.0812326967716217},{"0":-0.022753523662686348,"1":0.0930066928267479,"2":0.08568023890256882,"3":-0.0925692543387413,"4":-0.03601868823170662},{"0":-0.04795634746551514,"1":0.07762937992811203,"2":0.18512828648090363,"3":-0.06591296941041946,"4":-0.05897095054388046},{"0":-0.07108660042285919,"1":0.06965142488479614,"2":0.11349992454051971,"3":-0.028603332117199898,"4":-0.03768309950828552}],[{"0":-0.05865151062607765,"1":-0.042623624205589294,"2":-0.19398769736289978,"3":-0.26012617349624634,"4":-0.0024188051465898752},{"0":-0.05908013507723808,"1":-0.010711651295423508,"2":-0.09646329283714294,"3":-0.13691037893295288,"4":0.012949931435286999},{"0":0.16913960874080658,"1":0.0708860233426094,"2":0.03566634654998779,"3":-0.10047341883182526,"4":-0.01580790802836418},{"0":0.09830252826213837,"1":0.12303464859724045,"2":-0.023486781865358353,"3":-0.16189363598823547,"4":-0.029504574835300446},{"0":0.08260539174079895,"1":0.1762150675058365,"2":-0.024561915546655655,"3":-0.15449100732803345,"4":-0.04889225587248802}],[{"0":-0.10579205304384232,"1":-0.004156761337071657,"2":0.08017798513174057,"3":-0.028569849207997322,"4":-0.0662144273519516},{"0":-0.09402012079954147,"1":-0.03536060452461243,"2":0.02061750367283821,"3":0.0021198363974690437,"4":-0.04823685437440872},{"0":-0.12489986419677734,"1":-0.15942484140396118,"2":-0.03127307817339897,"3":0.0128707904368639,"4":-0.09295257925987244},{"0":-0.03192071616649628,"1":-0.014621595852077007,"2":0.02617347240447998,"3":0.055702269077301025,"4":-0.028349922969937325},{"0":-0.03510711342096329,"1":0.008087925612926483,"2":-0.08216794580221176,"3":-0.08623884618282318,"4":0.07809846848249435}],[{"0":-0.07017672806978226,"1":0.08284945785999298,"2":-0.0366508811712265,"3":-0.03415459394454956,"4":-0.022333389148116112},{"0":0.037672244012355804,"1":0.013616341166198254,"2":-0.034016624093055725,"3":-0.051336463540792465,"4":-0.018508950248360634},{"0":0.008911672979593277,"1":-0.07122784852981567,"2":0.018883759155869484,"3":0.027361402288079262,"4":0.013950476422905922},{"0":0.004867101088166237,"1":0.05719680339097977,"2":0.09490454196929932,"3":0.0013066334649920464,"4":0.028890904039144516},{"0":0.12261995673179626,"1":0.05447433143854141,"2":0.018276497721672058,"3":0.016697373241186142,"4":0.13019753992557526}],[{"0":-0.04277113080024719,"1":0.088261678814888,"2":0.004621877800673246,"3":0.02091509848833084,"4":0.052713874727487564},{"0":-0.08071079850196838,"1":-0.04750359058380127,"2":-0.045576948672533035,"3":-0.08960352838039398,"4":-0.03853221982717514},{"0":-0.10283888131380081,"1":-0.07923850417137146,"2":-0.18231655657291412,"3":-0.18616239726543427,"4":-0.07914243638515472},{"0":-0.062440551817417145,"1":-0.035493653267621994,"2":-0.13666079938411713,"3":-0.05080430954694748,"4":-0.09831869602203369},{"0":-0.001636918168514967,"1":-0.05215304344892502,"2":-0.09105811268091202,"3":-0.005283256992697716,"4":-0.020865239202976227}],[{"0":-0.07633943110704422,"1":-0.12152376770973206,"2":0.12729226052761078,"3":0.21343688666820526,"4":-0.02334093116223812},{"0":-0.1868489533662796,"1":-0.230057030916214,"2":0.022563057020306587,"3":0.1735052615404129,"4":-0.035032905638217926},{"0":-0.09650817513465881,"1":-0.14895911514759064,"2":-0.04732866212725639,"3":0.17307640612125397,"4":-0.09712708741426468},{"0":-0.13864855468273163,"1":-0.15474076569080353,"2":-0.21958661079406738,"3":0.005117133725434542,"4":-0.06753375381231308},{"0":0.005196545738726854,"1":-0.05590922757983208,"2":-0.10973738133907318,"3":0.06606778502464294,"4":0.11948831379413605}],[{"0":0.1754973977804184,"1":0.14396682381629944,"2":-0.1634874939918518,"3":-0.24957428872585297,"4":0.10917771607637405},{"0":0.2337384968996048,"1":0.11982905864715576,"2":-0.07506360113620758,"3":-0.1870739907026291,"4":0.1315428763628006},{"0":0.2196122407913208,"1":0.08086059242486954,"2":-0.13544446229934692,"3":-0.018592478707432747,"4":0.24932363629341125},{"0":0.19117045402526855,"1":0.16561535000801086,"2":-0.1540890336036682,"3":-0.006303835194557905,"4":0.15870483219623566},{"0":-0.04872835427522659,"1":-0.0007430695695802569,"2":-0.2639443576335907,"3":-0.11609138548374176,"4":0.0408676415681839}]],[[{"0":-0.029448097571730614,"1":-0.07670530676841736,"2":-0.12151395529508591,"3":-0.04633641988039017,"4":0.08829599618911743},{"0":-0.07592654973268509,"1":-0.08403292298316956,"2":-0.020566297695040703,"3":0.060971327126026154,"4":0.04242734983563423},{"0":-0.02593751810491085,"1":-0.016459813341498375,"2":0.10409925878047943,"3":0.013926121406257153,"4":-0.05494821071624756},{"0":-0.017229028046131134,"1":0.060277607291936874,"2":0.027496660128235817,"3":-0.10917364805936813,"4":-0.03578121215105057},{"0":-0.0159283559769392,"1":0.0021341496612876654,"2":-0.07002247869968414,"3":-0.1302991807460785,"4":0.0038236738182604313}],[{"0":-0.0147269107401371,"1":0.009615396149456501,"2":0.0009845589520409703,"3":-0.031153282150626183,"4":-0.005709928926080465},{"0":-0.05468073859810829,"1":-0.056807879358530045,"2":-0.04045478254556656,"3":-0.06249895319342613,"4":0.020953556522727013},{"0":-0.040427517145872116,"1":-0.06111861392855644,"2":-0.05647846683859825,"3":-0.006635630037635565,"4":0.008623587898910046},{"0":-0.023264257237315178,"1":-0.02669573202729225,"2":0.04801169037818909,"3":-0.013267126865684986,"4":-0.017911013215780258},{"0":-0.007968188263475895,"1":0.020474305376410484,"2":0.015422685071825981,"3":-0.05769308656454086,"4":-0.03429194167256355}],[{"0":-0.08971564471721649,"1":-0.17241878807544708,"2":-0.20345957577228546,"3":-0.08605203777551651,"4":-0.092040054500103},{"0":-0.12408614903688431,"1":-0.20973990857601166,"2":-0.16521582007408142,"3":-0.09516270458698273,"4":-0.08612927049398422},{"0":-0.13212041556835175,"1":-0.21258632838726044,"2":-0.1230589970946312,"3":-0.135680690407753,"4":-0.09421209990978241},{"0":-0.060776710510253906,"1":-0.12548476457595825,"2":-0.08731500059366226,"3":-0.1143794134259224,"4":-0.23919206857681274},{"0":-0.1435178965330124,"1":-0.0832127034664154,"2":-0.1944158524274826,"3":-0.2362031787633896,"4":-0.19520896673202515}],[{"0":-0.03564135357737541,"1":-0.060371141880750656,"2":0.07175430655479431,"3":0.15916644036769867,"4":0.10984491556882858},{"0":-0.015481012873351574,"1":0.06044615060091019,"2":0.15968206524848938,"3":0.096634142100811,"4":-0.00014484222629107535},{"0":-0.017156952992081642,"1":0.031675707548856735,"2":0.04698679596185684,"3":-0.054355669766664505,"4":-0.06153801083564758},{"0":0.020235823467373848,"1":0.03052447736263275,"2":-0.04901190102100372,"3":-0.053402774035930634,"4":0.1185753270983696},{"0":0.009988649748265743,"1":0.021955937147140503,"2":-0.03434912860393524,"3":0.03590349853038788,"4":0.022103695198893547}],[{"0":-0.10236810147762299,"1":-0.09733601659536362,"2":0.0645686686038971,"3":0.22794725000858307,"4":0.11639845371246338},{"0":-0.11923709511756897,"1":-0.06564702093601227,"2":0.08934631943702698,"3":0.09749627858400345,"4":-0.05729379504919052},{"0":-0.10664142668247223,"1":0.11849652975797653,"2":-0.009091561660170555,"3":-0.13036489486694336,"4":0.016090581193566322},{"0":0.006466398481279612,"1":0.10293225198984146,"2":0.01746995933353901,"3":0.046248145401477814,"4":0.08197952806949615},{"0":0.08783280849456787,"1":0.028109656646847725,"2":0.08421989530324936,"3":0.1913953423500061,"4":0.08653119206428528}],[{"0":-0.03509409725666046,"1":-0.0616719014942646,"2":0.05232181027531624,"3":0.07237140834331512,"4":-0.029522743076086044},{"0":-0.018962357193231583,"1":-0.006605464965105057,"2":0.042884789407253265,"3":-0.021864283829927444,"4":-0.11697497218847275},{"0":0.0008267692755907774,"1":0.017949897795915604,"2":0.027616051957011223,"3":-0.07233782857656479,"4":-0.04982979595661163},{"0":0.05005842074751854,"1":-0.006298538763076067,"2":-0.15533539652824402,"3":-0.15592043101787567,"4":0.006321053486317396},{"0":-0.005744567606598139,"1":-0.03276251628994942,"2":-0.016988294199109077,"3":0.10787299275398254,"4":0.05136887729167938}],[{"0":-0.025214483961462975,"1":-0.1660870462656021,"2":-0.17279209196567535,"3":0.04812505096197128,"4":0.012397419661283493},{"0":-0.1099327802658081,"1":-0.1850115805864334,"2":-0.09247911721467972,"3":-0.13286659121513367,"4":-0.2584766447544098},{"0":-0.0838201567530632,"1":-0.05968594178557396,"2":-0.05669206753373146,"3":-0.17465485632419586,"4":-0.17882710695266724},{"0":0.09541746973991394,"1":0.012792523950338364,"2":-0.08475912362337112,"3":-0.05117921158671379,"4":0.06586554646492004},{"0":0.06453882902860641,"1":-0.006195119582116604,"2":-0.01969991624355316,"3":0.20408792793750763,"4":0.07475819438695908}],[{"0":-0.08072097599506378,"1":0.014780906029045582,"2":0.18882328271865845,"3":0.06176022067666054,"4":-0.102310411632061},{"0":-0.03662685677409172,"1":0.21078917384147644,"2":0.17564161121845245,"3":-0.05042555183172226,"4":0.06925582885742188},{"0":0.09600420296192169,"1":0.21852387487888336,"2":0.007526147644966841,"3":-0.05399637296795845,"4":0.08813687413930893},{"0":0.0657859742641449,"1":0.06043865531682968,"2":-0.13579942286014557,"3":0.05749146267771721,"4":0.047084443271160126},{"0":-0.034205906093120575,"1":-0.09508955478668213,"2":-0.11945930868387222,"3":-0.12559334933757782,"4":-0.06522700935602188}]],[[{"0":-0.14824312925338745,"1":-0.11611997336149216,"2":-0.04863646999001503,"3":-0.035742755979299545,"4":-0.012986765243113041},{"0":-0.17342206835746765,"1":-0.20082266628742218,"2":0.047343216836452484,"3":0.10793591290712357,"4":0.029702290892601013},{"0":-0.13155585527420044,"1":-0.04729330167174339,"2":0.16119615733623505,"3":0.036115944385528564,"4":-0.06986279040575027},{"0":-0.03107476234436035,"1":0.2666228711605072,"2":0.05213828384876251,"3":-0.28243595361709595,"4":-0.12666501104831696},{"0":0.0526275634765625,"1":0.0700419545173645,"2":-0.10795251280069351,"3":-0.21586769819259644,"4":0.003999956883490086}],[{"0":-0.02254440076649189,"1":0.07444260269403458,"2":0.030602430924773216,"3":-0.0006659326027147472,"4":0.04605363309383392},{"0":0.041254933923482895,"1":-0.07746919989585876,"2":-0.05746536701917648,"3":0.043571554124355316,"4":0.08019933104515076},{"0":-0.01865844614803791,"1":-0.0680331364274025,"2":0.018085647374391556,"3":0.1302240937948227,"4":-0.04965474456548691},{"0":-0.0772567093372345,"1":0.06061596795916557,"2":0.12991876900196075,"3":-0.09790903329849243,"4":0.031330689787864685},{"0":-0.08963500708341599,"1":0.09717969596385956,"2":-0.03453534096479416,"3":-0.02539801225066185,"4":-0.009431297890841961}],[{"0":0.07903086394071579,"1":-0.007062877062708139,"2":0.04273951053619385,"3":0.07423358410596848,"4":0.013255620375275612},{"0":0.02536100707948208,"1":-0.14023812115192413,"2":-0.07778776437044144,"3":0.00746830552816391,"4":-0.02816551737487316},{"0":-0.08779758960008621,"1":-0.1590491384267807,"2":-0.16134773194789886,"3":0.009425525553524494,"4":-0.05001679062843323},{"0":0.010032040998339653,"1":-0.22450338304042816,"2":-0.021944670006632805,"3":0.06946905702352524,"4":-0.0015408758772537112},{"0":-0.05937870219349861,"1":-0.09419439733028412,"2":0.09180306643247604,"3":0.12495464086532593,"4":-0.05332111567258835}],[{"0":-0.11004944890737534,"1":-0.13373754918575287,"2":-0.0016464812215417624,"3":0.18196940422058105,"4":0.09843442589044571},{"0":0.03393574431538582,"1":0.17020519077777863,"2":0.33857282996177673,"3":0.1129920557141304,"4":0.07469845563173294},{"0":0.08429017663002014,"1":0.35622623562812805,"2":0.11674948036670685,"3":-0.09526432305574417,"4":-0.21040132641792297},{"0":0.1053871288895607,"1":0.09571602195501328,"2":-0.0536949597299099,"3":-0.1648351401090622,"4":-0.1867116540670395},{"0":-0.08885503560304642,"1":-0.009131544269621372,"2":-0.09827150404453278,"3":-0.08904857188463211,"4":0.039758577942848206}],[{"0":-0.2789936065673828,"1":-0.41294005513191223,"2":-0.13096290826797485,"3":0.07037044316530228,"4":-0.05789553374052048},{"0":-0.1480310559272766,"1":0.11730602383613586,"2":0.12127269059419632,"3":0.045863937586545944,"4":-0.006919614039361477},{"0":0.05548172444105148,"1":0.15101514756679535,"2":0.001060754177160561,"3":-0.19227968156337738,"4":-0.09998701512813568},{"0":0.013063599355518818,"1":-0.054321736097335815,"2":-0.26448801159858704,"3":-0.3005290925502777,"4":-0.11769456416368484},{"0":0.014585273340344429,"1":-0.19488468766212463,"2":-0.2876649498939514,"3":-0.22341401875019073,"4":0.08360255509614944}],[{"0":-0.09532016515731812,"1":0.009836884215474129,"2":0.24186572432518005,"3":0.16909749805927277,"4":0.15571771562099457},{"0":0.004927397705614567,"1":0.25785189867019653,"2":0.2456185221672058,"3":0.14619214832782745,"4":0.20406179130077362},{"0":0.09964107722043991,"1":0.1350032091140747,"2":0.12588053941726685,"3":-0.008809342980384827,"4":0.12631194293498993},{"0":-0.004982925020158291,"1":-0.007147274911403656,"2":-0.09320986270904541,"3":-0.10903594642877579,"4":-0.05360383167862892},{"0":-0.08597452938556671,"1":-0.12374691665172577,"2":-0.1068214699625969,"3":0.014570043422281742,"4":0.12165205925703049}],[{"0":-0.07306624203920364,"1":-0.016214746981859207,"2":0.11040759831666946,"3":0.23940052092075348,"4":0.08450707793235779},{"0":0.08036202937364578,"1":0.13650299608707428,"2":0.26004812121391296,"3":0.16810952126979828,"4":-0.03231239318847656},{"0":0.13287828862667084,"1":0.31023451685905457,"2":0.17179065942764282,"3":-0.08280806243419647,"4":-0.0746423602104187},{"0":-0.06639949232339859,"1":-0.08068839460611343,"2":-0.2490357756614685,"3":-0.21633502840995789,"4":0.02357218787074089},{"0":-0.11270397901535034,"1":-0.11039378494024277,"2":-0.0799420177936554,"3":-0.08065011352300644,"4":0.15351465344429016}],[{"0":0.006755359470844269,"1":0.2517366111278534,"2":0.15882539749145508,"3":0.06877044588327408,"4":-0.02564948797225952},{"0":0.15675069391727448,"1":0.2077096551656723,"2":0.10391081124544144,"3":-0.15671703219413757,"4":-0.12343131750822067},{"0":0.22903326153755188,"1":0.0706874430179596,"2":-0.06228397414088249,"3":-0.0833698958158493,"4":0.010053460486233234},{"0":0.1345801055431366,"1":-0.1107543483376503,"2":0.00541955279186368,"3":0.08274292200803757,"4":0.2225029319524765},{"0":0.02371029369533062,"1":-0.2029103934764862,"2":-0.015857692807912827,"3":0.16471001505851746,"4":0.15978512167930603}]],[[{"0":0.08466723561286926,"1":0.006728834006935358,"2":0.03747572749853134,"3":-0.007300705648958683,"4":0.004340494517236948},{"0":0.04977402091026306,"1":0.09589652717113495,"2":0.15356378257274628,"3":0.022307155653834343,"4":0.044208310544490814},{"0":-0.07782533764839172,"1":-0.016241276636719704,"2":0.26534727215766907,"3":0.050135619938373566,"4":0.0056797219440341},{"0":-0.10421052575111389,"1":-0.05621861666440964,"2":-0.033284399658441544,"3":0.06497842073440552,"4":0.10294652730226517},{"0":-0.08807742595672607,"1":-0.09787218272686005,"2":-0.1257496178150177,"3":-0.07878723740577698,"4":-0.05125454440712929}],[{"0":-0.0010494622401893139,"1":0.0139271579682827,"2":-0.03319700062274933,"3":0.009516118094325066,"4":0.023596929386258125},{"0":0.000055441807489842176,"1":0.059660930186510086,"2":-0.04617131128907204,"3":-0.01444633025676012,"4":-0.008086804300546646},{"0":-0.012566633522510529,"1":0.02777235209941864,"2":0.04856669530272484,"3":0.012124753557145596,"4":-0.025394510477781296},{"0":-0.01627722755074501,"1":-0.010412627831101418,"2":0.02287641167640686,"3":0.030883749946951866,"4":-0.01359441876411438},{"0":-0.013070602901279926,"1":-0.026088666170835495,"2":-0.05812414363026619,"3":-0.0021929587237536907,"4":-0.009083086624741554}],[{"0":-0.06125755235552788,"1":-0.016841648146510124,"2":0.0015096203424036503,"3":0.1035246029496193,"4":0.029331646859645844},{"0":0.014873544685542583,"1":-0.015745876356959343,"2":0.0011276263976469636,"3":0.1320955902338028,"4":0.04797157645225525},{"0":0.1010938212275505,"1":-0.025079291313886642,"2":-0.06067604199051857,"3":-0.014920652844011784,"4":0.10408927500247955},{"0":0.12681064009666443,"1":0.09336552023887634,"2":-0.04236891120672226,"3":-0.05733511596918106,"4":-0.049123745411634445},{"0":-0.020460892468690872,"1":0.03728674352169037,"2":0.05024528503417969,"3":-0.08194009959697723,"4":-0.11118483543395996}],[{"0":0.02835545316338539,"1":-0.011753813363611698,"2":-0.0013645660365000367,"3":0.009679331444203854,"4":-0.006439591757953167},{"0":-0.03097308985888958,"1":0.01081330981105566,"2":0.04866848886013031,"3":0.00786968506872654,"4":0.004816357046365738},{"0":-0.09242383390665054,"1":-0.05997077375650406,"2":-0.032663553953170776,"3":-0.005341663490980864,"4":0.02556767128407955},{"0":-0.024545030668377876,"1":-0.05943748354911804,"2":-0.06893724203109741,"3":-0.016417820006608963,"4":0.04561038687825203},{"0":-0.04703550785779953,"1":-0.048739850521087646,"2":-0.03116636909544468,"3":-0.017252234742045403,"4":-0.014355668798089027}],[{"0":0.03294653818011284,"1":-0.10378070175647736,"2":-0.19725333154201508,"3":-0.05033620446920395,"4":-0.06615068018436432},{"0":0.019082751125097275,"1":0.027038466185331345,"2":-0.06873297691345215,"3":-0.0509934201836586,"4":0.0019599369261413813},{"0":0.09500280022621155,"1":0.09630607813596725,"2":0.008194844238460064,"3":0.0778191089630127,"4":0.04524294659495354},{"0":-0.04859374463558197,"1":-0.0014285168144851923,"2":0.09623195976018906,"3":0.04900006204843521,"4":0.023036688566207886},{"0":-0.21047915518283844,"1":-0.09252598136663437,"2":-0.010753387585282326,"3":-0.02974037453532219,"4":0.016956781968474388}],[{"0":0.10927419364452362,"1":0.02272695116698742,"2":0.08161571621894836,"3":-0.01285556424409151,"4":0.00913072470575571},{"0":-0.06997383385896683,"1":0.028800304979085922,"2":0.16532070934772491,"3":-0.024294398725032806,"4":-0.073764368891716},{"0":-0.11493872851133347,"1":-0.04779811576008797,"2":0.1095685064792633,"3":0.09455255419015884,"4":0.06029803305864334},{"0":-0.053392261266708374,"1":-0.06290964037179947,"2":-0.0729857087135315,"3":0.028585702180862427,"4":0.11746355146169662},{"0":0.013576592318713665,"1":0.012432709336280823,"2":-0.011369182728230953,"3":-0.02062934637069702,"4":0.008571412414312363}],[{"0":-0.039122506976127625,"1":-0.036539625376462936,"2":-0.07454667240381241,"3":0.006395336240530014,"4":0.02021166868507862},{"0":-0.021548282355070114,"1":-0.07608454674482346,"2":-0.057969752699136734,"3":-0.0740194246172905,"4":-0.04044397175312042},{"0":-0.061232686042785645,"1":0.00695204921066761,"2":-0.05819973722100258,"3":-0.038198135793209076,"4":-0.005410064477473497},{"0":-0.06014158949255943,"1":-0.051245663315057755,"2":-0.006954648531973362,"3":0.012055891565978527,"4":0.03753092139959335},{"0":-0.06591765582561493,"1":-0.04571482166647911,"2":-0.015377528965473175,"3":0.010006160475313663,"4":0.021441640332341194}],[{"0":-0.061265282332897186,"1":0.060255005955696106,"2":-0.06898010522127151,"3":0.10996516048908234,"4":0.04772644862532616},{"0":-0.0028461520560085773,"1":0.03068636916577816,"2":-0.07445693761110306,"3":0.07899334281682968,"4":0.044528525322675705},{"0":0.013711675070226192,"1":0.05340097099542618,"2":-0.10598145425319672,"3":-0.05301990732550621,"4":-0.0035922082606703043},{"0":-0.08920441567897797,"1":0.015543010085821152,"2":-0.12009171396493912,"3":-0.04545362666249275,"4":-0.030628450214862823},{"0":-0.1204238012433052,"1":-0.11044862121343613,"2":-0.07931587845087051,"3":-0.0804610401391983,"4":-0.06232977285981178}]],[[{"0":-0.04658709466457367,"1":0.08474290370941162,"2":0.015509743243455887,"3":0.026630373671650887,"4":-0.10165981948375702},{"0":-0.09963589161634445,"1":-0.05911092832684517,"2":0.20720656216144562,"3":0.18175530433654785,"4":-0.03660616651177406},{"0":-0.11823086440563202,"1":-0.049272555857896805,"2":0.09400392323732376,"3":0.22049106657505035,"4":0.2706531286239624},{"0":-0.11442779749631882,"1":-0.12418811023235321,"2":-0.1487448662519455,"3":-0.0903141051530838,"4":0.2271677553653717},{"0":-0.08971162885427475,"1":-0.05178655683994293,"2":-0.18136218190193176,"3":-0.16487503051757812,"4":-0.03531019017100334}],[{"0":0.005600451957434416,"1":0.004147270228713751,"2":-0.015270229429006577,"3":-0.0549047477543354,"4":-0.04665033146739006},{"0":-0.005031301639974117,"1":0.04235323891043663,"2":0.060018014162778854,"3":0.009771774522960186,"4":-0.055975914001464844},{"0":-0.01506938599050045,"1":0.011441954411566257,"2":0.07230290025472641,"3":0.1526985913515091,"4":-0.021063903346657753},{"0":-0.022544706240296364,"1":-0.020832175388932228,"2":0.024936199188232422,"3":0.13194389641284943,"4":0.021942047402262688},{"0":-0.04522023722529411,"1":-0.07384434342384338,"2":-0.06596633046865463,"3":-0.010347911156713963,"4":0.04138660430908203}],[{"0":-0.041629914194345474,"1":-0.11270617693662643,"2":-0.0690036341547966,"3":0.03802027553319931,"4":0.04961857944726944},{"0":-0.07230878621339798,"1":-0.03602707386016846,"2":0.029582034796476364,"3":0.1574915498495102,"4":0.10201743990182877},{"0":-0.041734546422958374,"1":0.12654918432235718,"2":0.06408923864364624,"3":0.12718932330608368,"4":0.09394656866788864},{"0":-0.05585503578186035,"1":0.1371351182460785,"2":0.1254570484161377,"3":-0.020049504935741425,"4":-0.06297779828310013},{"0":-0.048040978610515594,"1":-0.040371060371398926,"2":0.09663376957178116,"3":0.03179789334535599,"4":-0.10718394070863724}],[{"0":-0.03710385039448738,"1":0.02610606886446476,"2":0.025056004524230957,"3":0.012741167098283768,"4":-0.03821809962391853},{"0":0.019753223285079002,"1":0.020011436194181442,"2":0.09982794523239136,"3":0.09236163645982742,"4":0.013763481751084328},{"0":0.07892248779535294,"1":-0.023743730038404465,"2":0.004650860093533993,"3":0.00018907974299509078,"4":0.009137139655649662},{"0":-0.031491294503211975,"1":-0.04865998029708862,"2":-0.06757692992687225,"3":-0.12945346534252167,"4":-0.07068837434053421},{"0":-0.039085324853658676,"1":-0.0050589703023433685,"2":-0.037545397877693176,"3":-0.08422370254993439,"4":-0.10060585290193558}],[{"0":-0.16270147264003754,"1":-0.03077268972992897,"2":-0.14737001061439514,"3":-0.22105976939201355,"4":-0.30600765347480774},{"0":0.0198205653578043,"1":0.055804356932640076,"2":0.02818414755165577,"3":0.05708274990320206,"4":-0.15195660293102264},{"0":-0.013651334680616856,"1":0.10861925035715103,"2":0.12827017903327942,"3":0.05601315200328827,"4":-0.09159120172262192},{"0":-0.27149301767349243,"1":-0.15257082879543304,"2":0.039153702557086945,"3":0.023947108536958694,"4":0.11690646409988403},{"0":-0.30927273631095886,"1":-0.18780088424682617,"2":-0.014895573258399963,"3":0.03405804559588432,"4":0.11359649896621704}],[{"0":0.026493266224861145,"1":0.1447613537311554,"2":0.21487511694431305,"3":0.05159200727939606,"4":-0.10475287586450577},{"0":0.07654725760221481,"1":0.13141712546348572,"2":0.20482556521892548,"3":0.21714968979358673,"4":0.09597969800233841},{"0":0.02224581688642502,"1":0.015242467634379864,"2":-0.02230002172291279,"3":0.07378285378217697,"4":0.15030300617218018},{"0":-0.030646029859781265,"1":0.006964641157537699,"2":-0.0433882437646389,"3":-0.03828311711549759,"4":0.05454585328698158},{"0":-0.10156360268592834,"1":0.01306790579110384,"2":-0.040654126554727554,"3":-0.0877646654844284,"4":-0.03774494305253029}],[{"0":0.06814052909612656,"1":0.02598685398697853,"2":-0.09936409443616867,"3":-0.1179434210062027,"4":-0.08626484125852585},{"0":0.07729167491197586,"1":0.03868813440203667,"2":0.06085802987217903,"3":0.07892954349517822,"4":-0.04675639420747757},{"0":0.19758428633213043,"1":0.18587595224380493,"2":0.10089850425720215,"3":0.031173674389719963,"4":-0.06164372339844704},{"0":-0.11313652992248535,"1":-0.10639268159866333,"2":-0.0851704552769661,"3":-0.04529985785484314,"4":-0.0794052928686142},{"0":0.0072304317727684975,"1":0.039872780442237854,"2":0.04946279153227806,"3":0.0926847755908966,"4":-0.01938815973699093}],[{"0":0.028215527534484863,"1":0.0012351868208497763,"2":-0.07594630122184753,"3":-0.07714778184890747,"4":0.025099940598011017},{"0":-0.011960497125983238,"1":0.005990981124341488,"2":-0.06424742937088013,"3":-0.16333258152008057,"4":0.007551348302513361},{"0":-0.149680033326149,"1":-0.041287876665592194,"2":0.027737198397517204,"3":-0.09519512951374054,"4":-0.06918082386255264},{"0":-0.057874903082847595,"1":0.018235450610518456,"2":-0.027090463787317276,"3":-0.055226728320121765,"4":-0.04207439348101616},{"0":0.0446198396384716,"1":-0.060147468000650406,"2":0.03592744097113609,"3":-0.021607745438814163,"4":-0.00542759383097291}]],[[{"0":-6.28061971710383e-42,"1":-6.773876776546166e-42,"2":-6.539859933003921e-42,"3":-6.593109274648264e-42,"4":-6.904197533728374e-42},{"0":-6.630944333185034e-42,"1":-6.483807994430929e-42,"2":-6.546866425325545e-42,"3":-6.660371600935856e-42,"4":-6.884579355227826e-42},{"0":-6.811711835082936e-42,"1":-6.651963810149907e-42,"2":-6.717824837973173e-42,"3":-6.514636560646075e-42,"4":6.656167705542881e-42},{"0":-6.70521315179425e-42,"1":-6.942032592265144e-42,"2":-6.206350898494615e-42,"3":-6.677187182507753e-42,"4":6.46979500978768e-42},{"0":-6.62393784086341e-42,"1":-6.520241754503374e-42,"2":-6.388519698856841e-42,"3":-6.909802727585673e-42,"4":-6.807507939689961e-42}],[{"0":-6.943433890729469e-42,"1":6.786488462725089e-42,"2":-6.720627434901823e-42,"3":6.471196308252005e-42,"4":-6.887381952156476e-42},{"0":6.08583923056268e-42,"1":6.671581988650454e-42,"2":6.08583923056268e-42,"3":6.884579355227826e-42,"4":-6.594510573112589e-42},{"0":-6.671581988650454e-42,"1":6.925217010693246e-42,"2":6.181127526136768e-42,"3":6.333869058748173e-42,"4":-6.759863791902918e-42},{"0":-6.213357390816239e-42,"1":-6.560879409968794e-42,"2":6.577694991540691e-42,"3":5.879848356306932e-42,"4":6.750054702652644e-42},{"0":6.977065053873264e-42,"1":6.643556019363958e-42,"2":6.20775219695894e-42,"3":-5.771948374553922e-42,"4":-6.773876776546166e-42}],[{"0":6.504827471395801e-42,"1":-6.926618309157571e-42,"2":6.688397570222352e-42,"3":-6.625339139327735e-42,"4":-6.307244387926002e-42},{"0":6.458584622073082e-42,"1":6.650562511685582e-42,"2":-6.850948192084031e-42,"3":-6.3240599694979e-42,"4":-6.799100148904012e-42},{"0":-6.832731312047808e-42,"1":-6.329665163355199e-42,"2":-6.963052069230016e-42,"3":-6.374506714213593e-42,"4":-6.991078038516512e-42},{"0":6.685594973293702e-42,"1":-6.441769040501184e-42,"2":-6.625339139327735e-42,"3":-6.506228769860126e-42,"4":-6.895789742942425e-42},{"0":-6.402532683500089e-42,"1":-6.55107032071852e-42,"2":-6.54826772378987e-42,"3":-6.389920997321166e-42,"4":-6.483807994430929e-42}],[{"0":-6.996683232373812e-42,"1":-6.701009256401275e-42,"2":-6.381513206535217e-42,"3":-6.710818345651549e-42,"4":7.003689724695436e-42},{"0":-6.866362475191604e-42,"1":-6.70521315179425e-42,"2":-6.919611816835947e-42,"3":7.00509102315976e-42,"4":6.825724819726184e-42},{"0":-5.577167888012772e-42,"1":-6.381513206535217e-42,"2":-6.884579355227826e-42,"3":6.282021015568155e-42,"4":-6.820119625868885e-42},{"0":-6.804705342761312e-42,"1":-6.441769040501184e-42,"2":-6.282021015568155e-42,"3":6.981268949266239e-42,"4":-6.622536542399085e-42},{"0":-6.772475478081841e-42,"1":-6.82152092433321e-42,"2":6.614128751613137e-42,"3":6.814514432011585e-42,"4":6.801902745832662e-42}],[{"0":-6.794896253511038e-42,"1":-6.647759914756932e-42,"2":-6.647759914756932e-42,"3":-6.730436524152096e-42,"4":6.730436524152096e-42},{"0":-6.671581988650454e-42,"1":-6.719226136437498e-42,"2":-6.901394936799724e-42,"3":-6.947637786122443e-42,"4":6.803304044296987e-42},{"0":-6.668779391721804e-42,"1":-6.911204026049998e-42,"2":-6.866362475191604e-42,"3":6.85655338594133e-42,"4":-6.679989779436403e-42},{"0":-6.612727453148812e-42,"1":-6.447374234358483e-42,"2":-6.581898886933666e-42,"3":6.657569004007206e-42,"4":-6.619733945470436e-42},{"0":-6.771074179617516e-42,"1":-6.773876776546166e-42,"2":-6.928019607621896e-42,"3":6.415144369679013e-42,"4":6.958848173837042e-42}],[{"0":-6.535656037610947e-42,"1":6.651963810149907e-42,"2":-6.628141736256385e-42,"3":-6.473998905180655e-42,"4":-6.635148228578009e-42},{"0":-6.546866425325545e-42,"1":-6.845342998226731e-42,"2":6.482406695966604e-42,"3":-6.881776758299177e-42,"4":6.74024561340237e-42},{"0":-6.73744301647372e-42,"1":-6.531452142217972e-42,"2":-6.607122259291512e-42,"3":-6.566484603826093e-42,"4":-6.930822204550545e-42},{"0":6.794896253511038e-42,"1":6.936427398407845e-42,"2":-6.336671655676823e-42,"3":-6.503426172931476e-42,"4":-6.58330018539799e-42},{"0":6.181127526136768e-42,"1":6.642154720899633e-42,"2":6.810310536618611e-42,"3":6.489413188288228e-42,"4":6.249791150888684e-42}],[{"0":6.457183323608757e-42,"1":6.999485829302461e-42,"2":6.518840456039049e-42,"3":6.869165072120253e-42,"4":-6.731837822616421e-42},{"0":6.549669022254195e-42,"1":6.949039084586768e-42,"2":6.436163846643885e-42,"3":-6.459985920537407e-42,"4":-6.440367742036859e-42},{"0":-6.640753422435308e-42,"1":-6.845342998226731e-42,"2":-6.758462493438593e-42,"3":6.939229995336494e-42,"4":6.748653404188319e-42},{"0":-6.912605324514323e-42,"1":-6.58610278232664e-42,"2":-6.708015748722899e-42,"3":-6.878974161370527e-42,"4":-6.549669022254195e-42},{"0":-6.621135243934761e-42,"1":-6.755659896509943e-42,"2":6.715022241044523e-42,"3":6.790692358118064e-42,"4":6.441769040501184e-42}],[{"0":-6.452979428215783e-42,"1":6.433361249715235e-42,"2":6.549669022254195e-42,"3":6.594510573112589e-42,"4":6.663174197864505e-42},{"0":6.949039084586768e-42,"1":6.849546893619706e-42,"2":-6.678588480972078e-42,"3":6.679989779436403e-42,"4":6.916809219907297e-42},{"0":6.639352123970983e-42,"1":-6.621135243934761e-42,"2":-6.525846948360673e-42,"3":-6.806106641225637e-42,"4":-6.486610591359578e-42},{"0":6.81311313354726e-42,"1":-6.89719104140675e-42,"2":-6.713620942580199e-42,"3":-6.436163846643885e-42,"4":-6.908401429121348e-42},{"0":6.32125737256925e-42,"1":6.954644278444067e-42,"2":-6.8943884444781e-42,"3":-6.776679373474815e-42,"4":-6.601517065434213e-42}]],[[{"0":0.010043433867394924,"1":-0.035636186599731445,"2":-0.03701699525117874,"3":0.020714182406663895,"4":0.10916776210069656},{"0":-0.08207687735557556,"1":-0.06337705999612808,"2":-0.04501474276185036,"3":-0.09726252406835556,"4":0.049706436693668365},{"0":-0.09481823444366455,"1":-0.12549348175525665,"2":-0.14709362387657166,"3":-0.17132088541984558,"4":-0.04745503142476082},{"0":-0.1659618616104126,"1":-0.1254316121339798,"2":-0.2343105524778366,"3":-0.15329141914844513,"4":-0.022465521469712257},{"0":0.014698517508804798,"1":0.00880078412592411,"2":-0.08421563357114792,"3":-0.10562270134687424,"4":0.0902857631444931}],[{"0":0.03600765019655228,"1":0.018264582380652428,"2":0.09367852658033371,"3":0.08429423719644547,"4":0.06218832731246948},{"0":-0.013370800763368607,"1":0.01201612874865532,"2":0.02814728394150734,"3":-0.03491640090942383,"4":0.007986299693584442},{"0":-0.01609971933066845,"1":-0.025356557220220566,"2":-0.005792754236608744,"3":0.058527130633592606,"4":0.06876014918088913},{"0":-0.02972094714641571,"1":-0.03381010890007019,"2":0.0033162846229970455,"3":0.03486791253089905,"4":-0.011173834092915058},{"0":-0.0195805374532938,"1":0.0012712469324469566,"2":-0.05663105100393295,"3":-0.09575997292995453,"4":-0.041146643459796906}],[{"0":0.04742072522640228,"1":0.02739112265408039,"2":-0.05952885374426842,"3":-0.18608392775058746,"4":-0.10910475999116898},{"0":0.0910625010728836,"1":0.0017308396054431796,"2":0.00330576254054904,"3":-0.03402784839272499,"4":-0.11738500744104385},{"0":0.08203165978193283,"1":-0.009642699733376503,"2":0.04784226045012474,"3":-0.09703710675239563,"4":-0.0774708166718483},{"0":-0.05518316850066185,"1":-0.06214578077197075,"2":-0.10522408783435822,"3":-0.1667069047689438,"4":-0.11609553545713425},{"0":-0.0683426782488823,"1":-0.044618431478738785,"2":-0.08131790161132812,"3":-0.07067927718162537,"4":-0.07450777292251587}],[{"0":0.045605361461639404,"1":0.11079753190279007,"2":0.10009357333183289,"3":0.0756462961435318,"4":0.12274805456399918},{"0":0.004064592998474836,"1":0.0520179308950901,"2":0.015384195372462273,"3":0.1483549326658249,"4":0.032959286123514175},{"0":-0.014199834316968918,"1":0.0017298536840826273,"2":0.02865859493613243,"3":-0.006900230888277292,"4":-0.10774293541908264},{"0":0.003804014530032873,"1":-0.00016146294365171343,"2":-0.0844539925456047,"3":0.00846619438380003,"4":0.02018757537007332},{"0":0.06410939246416092,"1":0.10107060521841049,"2":0.1729809045791626,"3":0.14228753745555878,"4":0.12252331525087357}],[{"0":-0.10917291790246964,"1":0.03872695192694664,"2":0.08367088437080383,"3":0.10686298459768295,"4":0.2219727486371994},{"0":-0.08591452240943909,"1":0.014670834876596928,"2":0.07726111263036728,"3":0.07633499801158905,"4":0.050930533558130264},{"0":-0.1806066632270813,"1":-0.18622168898582458,"2":-0.19772401452064514,"3":-0.2837904393672943,"4":-0.039526909589767456},{"0":-0.2503105401992798,"1":-0.31989020109176636,"2":-0.23953372240066528,"3":-0.131707563996315,"4":-0.05411310866475105},{"0":0.002179955132305622,"1":-0.023901192471385002,"2":-0.03575994446873665,"3":-0.01078234426677227,"4":0.06805955618619919}],[{"0":0.0014591091312468052,"1":0.0671873688697815,"2":0.12230119854211807,"3":0.20241568982601166,"4":0.17073386907577515},{"0":-0.0352642685174942,"1":0.016168614849448204,"2":0.11108122766017914,"3":0.04976419731974602,"4":0.001889886916615069},{"0":-0.06486235558986664,"1":-0.08729005604982376,"2":-0.07043787837028503,"3":0.0270844716578722,"4":0.08198029547929764},{"0":0.012872220017015934,"1":-0.06264643371105194,"2":0.08797550201416016,"3":0.19458194077014923,"4":0.20008063316345215},{"0":0.18022339046001434,"1":0.22251273691654205,"2":0.2044607549905777,"3":0.0677514523267746,"4":0.10106021910905838}],[{"0":0.16294588148593903,"1":0.16593970358371735,"2":0.24681764841079712,"3":0.26841068267822266,"4":0.2534121572971344},{"0":0.014653175137937069,"1":0.05636580288410187,"2":0.09937383979558945,"3":0.23083293437957764,"4":0.24570919573307037},{"0":0.02183859422802925,"1":0.0778825432062149,"2":0.03395581617951393,"3":0.044066172093153,"4":-0.032763540744781494},{"0":-0.10255955159664154,"1":-0.030440693721175194,"2":0.04683448001742363,"3":0.18747012317180634,"4":0.1949700564146042},{"0":0.11037112027406693,"1":0.1873534768819809,"2":0.26358458399772644,"3":0.29728004336357117,"4":0.16310641169548035}],[{"0":-0.03586907312273979,"1":-0.04991500824689865,"2":-0.005411610938608646,"3":-0.02904212474822998,"4":-0.09869827330112457},{"0":-0.023309173062443733,"1":0.011255647987127304,"2":-0.056206680834293365,"3":-0.172845259308815,"4":-0.03281717002391815},{"0":-0.08125188946723938,"1":-0.1559508740901947,"2":-0.043523721396923065,"3":0.03328145295381546,"4":0.06335293501615524},{"0":-0.18626408278942108,"1":0.011057842522859573,"2":0.12305008620023727,"3":-0.024109946563839912,"4":0.0002593782264739275},{"0":-0.015376103110611439,"1":0.1216188594698906,"2":-0.010338913649320602,"3":-0.05018065869808197,"4":-0.01957099512219429}]],[[{"0":0.0558352991938591,"1":-0.06033051386475563,"2":-0.047040004283189774,"3":-0.08268862217664719,"4":-0.1037246584892273},{"0":0.09454421699047089,"1":0.04064042121171951,"2":-0.019371788948774338,"3":-0.04605691507458687,"4":-0.10421287268400192},{"0":0.12239235639572144,"1":0.08379034698009491,"2":0.08293194323778152,"3":-0.005545636173337698,"4":-0.03890037536621094},{"0":0.016999676823616028,"1":0.05429626628756523,"2":0.1588519960641861,"3":0.07095284759998322,"4":0.043553173542022705},{"0":-0.05224209651350975,"1":0.08346309512853622,"2":0.20594742894172668,"3":0.2971150279045105,"4":0.048745013773441315}],[{"0":0.03407283499836922,"1":-0.04010516777634621,"2":-0.019666872918605804,"3":-0.05035886541008949,"4":-0.04224364086985588},{"0":0.030401354655623436,"1":-0.0008163935854099691,"2":-0.007458888925611973,"3":-0.03839733824133873,"4":-0.04868633672595024},{"0":0.08157806098461151,"1":0.027222884818911552,"2":0.006662799511104822,"3":-0.024689938873052597,"4":-0.017130160704255104},{"0":0.056693121790885925,"1":0.07807767391204834,"2":0.05869458243250847,"3":-0.0171241145581007,"4":0.004810038488358259},{"0":-0.011471138335764408,"1":0.09669849276542664,"2":0.09492198377847672,"3":0.11576409637928009,"4":0.027792448177933693}],[{"0":0.023439588025212288,"1":-0.0528433658182621,"2":-0.049031417816877365,"3":-0.03162548691034317,"4":-0.10486152023077011},{"0":0.00012544987839646637,"1":-0.019703911617398262,"2":-0.010264887474477291,"3":-0.022294526919722557,"4":-0.07317400723695755},{"0":0.05780230835080147,"1":-0.002258451422676444,"2":0.023146657273173332,"3":0.0719158947467804,"4":0.04487745836377144},{"0":0.137186661362648,"1":0.014419076032936573,"2":-0.05154446139931679,"3":0.1134362667798996,"4":0.07854431122541428},{"0":0.14084771275520325,"1":0.09105763584375381,"2":0.0059928749687969685,"3":0.00037213368341326714,"4":0.18167801201343536}],[{"0":-0.1097886860370636,"1":-0.07122227549552917,"2":-0.07518701255321503,"3":-0.04297509416937828,"4":-0.07157658040523529},{"0":-0.0012788649182766676,"1":0.02843550778925419,"2":0.08660166710615158,"3":0.03410831466317177,"4":-0.03697339445352554},{"0":-0.05517907813191414,"1":0.15110436081886292,"2":0.13469140231609344,"3":0.02309858798980713,"4":-0.06341221183538437},{"0":-0.10799989849328995,"1":0.06264469772577286,"2":0.09472103416919708,"3":0.04269331321120262,"4":0.0016790241934359074},{"0":-0.08276427537202835,"1":0.01557828951627016,"2":0.044136106967926025,"3":0.1399574875831604,"4":0.07885308563709259}],[{"0":0.041966862976551056,"1":-0.062011267989873886,"2":-0.22527872025966644,"3":-0.31151244044303894,"4":-0.4401850700378418},{"0":-0.0706944614648819,"1":0.025485852733254433,"2":-0.11085452884435654,"3":-0.154060959815979,"4":-0.34306472539901733},{"0":-0.03767039254307747,"1":0.16148990392684937,"2":0.06262467056512833,"3":-0.02371538057923317,"4":-0.16534383594989777},{"0":0.036625273525714874,"1":0.0407835878431797,"2":0.019900549203157425,"3":-0.04398053139448166,"4":-0.09296000748872757},{"0":-0.06777883321046829,"1":0.14299345016479492,"2":0.051468249410390854,"3":0.16547641158103943,"4":0.07052557915449142}],[{"0":-0.08844766765832901,"1":-0.04368961602449417,"2":-0.06637842953205109,"3":-0.04641803726553917,"4":-0.10756748914718628},{"0":-0.05823919177055359,"1":0.1196591779589653,"2":0.05310821160674095,"3":-0.023229379206895828,"4":-0.16291841864585876},{"0":-0.0020172917284071445,"1":0.12022927403450012,"2":0.027149714529514313,"3":-0.02500923164188862,"4":-0.05423528328537941},{"0":0.00013268980546854436,"1":0.03703591600060463,"2":0.19733478128910065,"3":0.032560624182224274,"4":-0.009371288120746613},{"0":-0.04382557421922684,"1":-0.09441768378019333,"2":0.16634398698806763,"3":0.2258596122264862,"4":0.020373599603772163}],[{"0":-0.1007099449634552,"1":-0.013344367034733295,"2":-0.04154103994369507,"3":-0.03022681549191475,"4":0.019357074052095413},{"0":-0.24531938135623932,"1":-0.058052461594343185,"2":-0.07455568760633469,"3":-0.022520815953612328,"4":0.02035471983253956},{"0":-0.056146275252103806,"1":-0.03539586439728737,"2":-0.06813420355319977,"3":-0.010895582847297192,"4":-0.03610561788082123},{"0":0.0005853863549418747,"1":0.040557242929935455,"2":0.0399729423224926,"3":0.05746210739016533,"4":0.08698473870754242},{"0":0.0020686753559857607,"1":0.11659861356019974,"2":0.13274650275707245,"3":-0.004895314574241638,"4":0.017703453078866005}],[{"0":0.05027426406741142,"1":0.006830212660133839,"2":0.07397415488958359,"3":0.07406950742006302,"4":-0.004443951416760683},{"0":0.22560161352157593,"1":0.13914097845554352,"2":0.12946467101573944,"3":0.09164111316204071,"4":0.0395781435072422},{"0":0.15762636065483093,"1":0.08141456544399261,"2":0.16349832713603973,"3":0.15293951332569122,"4":0.13621880114078522},{"0":0.039359912276268005,"1":0.061591047793626785,"2":0.014491862617433071,"3":0.013703829608857632,"4":0.15278756618499756},{"0":-0.04317628964781761,"1":0.0880347415804863,"2":0.10227189213037491,"3":-0.11068708449602127,"4":-0.005041623022407293}]],[[{"0":-0.11396369338035583,"1":-0.1358310580253601,"2":-0.09272083640098572,"3":-0.06547678261995316,"4":0.018270617350935936},{"0":-0.057641707360744476,"1":-0.03802015632390976,"2":0.13533079624176025,"3":0.06467188149690628,"4":0.20198214054107666},{"0":-0.005106624215841293,"1":-0.03214002028107643,"2":0.042937491089105606,"3":0.012780895456671715,"4":0.18189740180969238},{"0":0.03258004039525986,"1":0.05187397450208664,"2":-0.09366195648908615,"3":0.0023768243845552206,"4":0.13818299770355225},{"0":-0.08413057774305344,"1":-0.08345700055360794,"2":-0.02323983423411846,"3":0.14474283158779144,"4":0.01688452623784542}],[{"0":0.00004279404311091639,"1":-0.06484828144311905,"2":-0.07638990879058838,"3":-0.029401840642094612,"4":0.020020892843604088},{"0":-0.005075318273156881,"1":-0.042999595403671265,"2":-0.014410761184990406,"3":0.006462329998612404,"4":0.0018430306809023023},{"0":0.023251842707395554,"1":-0.010084840469062328,"2":0.09381657093763351,"3":0.07151352614164352,"4":0.04722025245428085},{"0":0.036412812769412994,"1":0.013147876597940922,"2":0.016488391906023026,"3":-0.07660769671201706,"4":-0.07485456019639969},{"0":-0.03131068870425224,"1":-0.02851221151649952,"2":-0.08223339170217514,"3":-0.041818588972091675,"4":-0.007007995620369911}],[{"0":-0.15075001120567322,"1":-0.10750599950551987,"2":-0.11884812265634537,"3":-0.09835045039653778,"4":-0.028776003047823906},{"0":-0.07600768655538559,"1":0.010144948959350586,"2":-0.03629365935921669,"3":-0.10275738686323166,"4":0.15327584743499756},{"0":-0.04439854994416237,"1":0.00989610981196165,"2":0.056997280567884445,"3":-0.009985806420445442,"4":0.09024441987276077},{"0":-0.1377873569726944,"1":-0.030599456280469894,"2":-0.008568950928747654,"3":-0.03527854382991791,"4":-0.0355149507522583},{"0":-0.031048843637108803,"1":-0.14337988197803497,"2":-0.1428655982017517,"3":-0.18160392343997955,"4":-0.029770996421575546}],[{"0":-0.047430992126464844,"1":0.023560862988233566,"2":0.09358678758144379,"3":-0.028959622606635094,"4":-0.023113321512937546},{"0":0.002939654514193535,"1":-0.0514909103512764,"2":-0.020397286862134933,"3":-0.08466337621212006,"4":-0.06216942146420479},{"0":0.030769530683755875,"1":-0.027578802779316902,"2":-0.15725308656692505,"3":-0.11686544120311737,"4":-0.02944404073059559},{"0":-0.04299721494317055,"1":-0.14421887695789337,"2":-0.03865823149681091,"3":0.12786836922168732,"4":0.09281117469072342},{"0":0.11515133827924728,"1":0.0010968976421281695,"2":0.1630226969718933,"3":0.11824484914541245,"4":-0.0021312530152499676}],[{"0":-0.0986139103770256,"1":0.002490371698513627,"2":-0.11183879524469376,"3":0.012037443928420544,"4":0.07317616045475006},{"0":-0.03428369760513306,"1":0.020266829058527946,"2":-0.013929896987974644,"3":-0.059664759784936905,"4":0.00017418481002096087},{"0":0.007233025506138802,"1":-0.11013461649417877,"2":-0.05246778577566147,"3":0.12752538919448853,"4":0.09529245644807816},{"0":-0.10238317400217056,"1":0.04431917890906334,"2":0.10509753227233887,"3":0.12932074069976807,"4":0.11327803879976273},{"0":0.004145530518144369,"1":0.08012930303812027,"2":0.1856691837310791,"3":0.10496868938207626,"4":-0.09974918514490128}],[{"0":-0.08835283666849136,"1":-0.008046628907322884,"2":0.05700991302728653,"3":-0.01301274448633194,"4":0.009113291278481483},{"0":-0.05329456925392151,"1":0.020866520702838898,"2":-0.00800654198974371,"3":0.002866989467293024,"4":-0.04969716817140579},{"0":-0.03565210476517677,"1":-0.09767718613147736,"2":-0.02636174112558365,"3":0.04638376459479332,"4":-0.0767633244395256},{"0":0.05643599480390549,"1":0.11107026040554047,"2":-0.013552255928516388,"3":-0.009394899010658264,"4":-0.041484639048576355},{"0":0.002681625774130225,"1":0.06280586123466492,"2":0.07688630372285843,"3":0.01215440034866333,"4":-0.10296544432640076}],[{"0":-0.05966203287243843,"1":-0.005777336191385984,"2":0.07906282693147659,"3":-0.0891229659318924,"4":0.015305236913263798},{"0":0.10160576552152634,"1":0.06543315201997757,"2":0.082212895154953,"3":0.02566138654947281,"4":-0.09703348577022552},{"0":-0.08194343000650406,"1":0.066792793571949,"2":-0.0031228838488459587,"3":-0.0013069347478449345,"4":0.036324694752693176},{"0":0.10762619972229004,"1":0.0973888412117958,"2":0.19129915535449982,"3":0.03756039962172508,"4":0.12253409624099731},{"0":0.27183783054351807,"1":0.3173808753490448,"2":0.2516886591911316,"3":0.09608585387468338,"4":-0.1242048367857933}],[{"0":0.0021811160258948803,"1":0.020090600475668907,"2":-0.04524381831288338,"3":-0.1500232219696045,"4":-0.07543256878852844},{"0":-0.018619779497385025,"1":0.08911740779876709,"2":-0.18064473569393158,"3":-0.24256493151187897,"4":-0.016031432896852493},{"0":-0.13780751824378967,"1":0.05680261552333832,"2":-0.1049877479672432,"3":-0.1149718165397644,"4":-0.0341811440885067},{"0":-0.05601401627063751,"1":-0.045910973101854324,"2":-0.0766170397400856,"3":-0.1135849803686142,"4":-0.047873131930828094},{"0":-0.030151426792144775,"1":-0.15157319605350494,"2":-0.2468649446964264,"3":-0.12269230931997299,"4":-0.18775509297847748}]],[[{"0":5.301112090540783e-42,"1":6.269409329389232e-42,"2":6.984071546194888e-42,"3":6.734640419545071e-42,"4":-6.694002764079651e-42},{"0":-6.134884676814049e-42,"1":6.773876776546166e-42,"2":6.977065053873264e-42,"3":6.466992412859031e-42,"4":6.831330013583483e-42},{"0":-6.963052069230016e-42,"1":-6.490814486752553e-42,"2":-6.325461267962224e-42,"3":-6.342276849534122e-42,"4":6.78088326886779e-42},{"0":-6.831330013583483e-42,"1":6.841139102833757e-42,"2":-6.873368967513228e-42,"3":-6.937828696872169e-42,"4":7.000887127766786e-42},{"0":-6.734640419545071e-42,"1":-6.562280708433118e-42,"2":-6.305843089461677e-42,"3":-6.380111908070892e-42,"4":6.567885902290418e-42}],[{"0":5.153975751786677e-42,"1":6.211956092351914e-42,"2":-6.727633927223447e-42,"3":6.5104326652531e-42,"4":-6.77527807501049e-42},{"0":-5.3585653275781005e-42,"1":-6.518840456039049e-42,"2":6.570688499219067e-42,"3":-6.884579355227826e-42,"4":-6.741646911866695e-42},{"0":-6.336671655676823e-42,"1":6.726232628759122e-42,"2":-6.312849581783301e-42,"3":-6.974262456944615e-42,"4":-6.991078038516512e-42},{"0":-6.375908012677918e-42,"1":6.824323521261859e-42,"2":6.694002764079651e-42,"3":-6.567885902290418e-42,"4":-6.712219644115874e-42},{"0":-6.579096290005016e-42,"1":6.269409329389232e-42,"2":-6.810310536618611e-42,"3":-6.85375078901268e-42,"4":-6.968657263087315e-42}],[{"0":6.679989779436403e-42,"1":-6.524445649896348e-42,"2":-6.486610591359578e-42,"3":-6.398328788107115e-42,"4":6.590306677719615e-42},{"0":6.999485829302461e-42,"1":-6.752857299581293e-42,"2":6.686996271758027e-42,"3":-6.50763006832445e-42,"4":-6.532853440682297e-42},{"0":6.413743071214688e-42,"1":6.581898886933666e-42,"2":-6.417946966607662e-42,"3":-6.468393711323356e-42,"4":-6.747252105723994e-42},{"0":-6.58890537925529e-42,"1":6.433361249715235e-42,"2":-6.831330013583483e-42,"3":-6.979867650801914e-42,"4":6.262402837067607e-42},{"0":6.478202800573629e-42,"1":-6.438966443572534e-42,"2":-6.493617083681202e-42,"3":-6.537057336075272e-42,"4":6.66737809325748e-42}],[{"0":6.608523557755837e-42,"1":5.750928897589049e-42,"2":6.447374234358483e-42,"3":6.965854666158666e-42,"4":-6.609924856220162e-42},{"0":-6.248389852424359e-42,"1":-6.974262456944615e-42,"2":-6.511833963717425e-42,"3":-6.611326154684487e-42,"4":-6.733239121080746e-42},{"0":-6.401131385035764e-42,"1":-6.77527807501049e-42,"2":6.622536542399085e-42,"3":-6.038195082775637e-42,"4":-6.576293693076367e-42},{"0":-6.759863791902918e-42,"1":-6.918210518371622e-42,"2":-5.637423721978739e-42,"3":6.870566370584578e-42,"4":-6.497820979074177e-42},{"0":-6.380111908070892e-42,"1":-6.684193674829377e-42,"2":-6.495018382145527e-42,"3":6.54826772378987e-42,"4":-6.660371600935856e-42}],[{"0":6.32125737256925e-42,"1":6.357691132641695e-42,"2":6.800501447368337e-42,"3":-6.729035225687772e-42,"4":-6.565083305361768e-42},{"0":6.832731312047808e-42,"1":6.643556019363958e-42,"2":-6.835533908976458e-42,"3":6.43476254817956e-42,"4":6.47540020364498e-42},{"0":6.716423539508848e-42,"1":6.694002764079651e-42,"2":-6.895789742942425e-42,"3":6.762666388831567e-42,"4":6.77808067193914e-42},{"0":-6.422150862000637e-42,"1":-6.642154720899633e-42,"2":-6.888783250620801e-42,"3":-6.541261231468246e-42,"4":-6.681391077900728e-42},{"0":-6.594510573112589e-42,"1":6.845342998226731e-42,"2":6.663174197864505e-42,"3":-6.902796235264049e-42,"4":-6.465591114394706e-42}],[{"0":-6.712219644115874e-42,"1":5.574365291084122e-42,"2":-6.806106641225637e-42,"3":-6.825724819726184e-42,"4":-6.403933981964414e-42},{"0":-6.808909238154286e-42,"1":-6.105457409063228e-42,"2":-6.871967669048903e-42,"3":-6.598714468505564e-42,"4":-6.525846948360673e-42},{"0":-6.949039084586768e-42,"1":-6.503426172931476e-42,"2":-6.616931348541786e-42,"3":-6.989676740052188e-42,"4":-6.542662529932571e-42},{"0":-6.338072954141148e-42,"1":-6.532853440682297e-42,"2":6.878974161370527e-42,"3":6.544063828396896e-42,"4":-6.530050843753648e-42},{"0":-6.642154720899633e-42,"1":6.800501447368337e-42,"2":6.779481970403465e-42,"3":-6.58330018539799e-42,"4":6.403933981964414e-42}],[{"0":6.647759914756932e-42,"1":6.786488462725089e-42,"2":-6.368901520356294e-42,"3":-6.811711835082936e-42,"4":6.416545668143337e-42},{"0":6.701009256401275e-42,"1":6.671581988650454e-42,"2":6.982670247730563e-42,"3":6.884579355227826e-42,"4":6.39973008657144e-42},{"0":-6.450176831287133e-42,"1":-6.81871832740456e-42,"2":-6.50763006832445e-42,"3":-6.520241754503374e-42,"4":-5.715896435980929e-42},{"0":6.350684640320071e-42,"1":-6.762666388831567e-42,"2":6.793494955046713e-42,"3":-6.429157354322261e-42,"4":-6.689798868686677e-42},{"0":6.750054702652644e-42,"1":-6.884579355227826e-42,"2":6.864961176727279e-42,"3":6.429157354322261e-42,"4":6.759863791902918e-42}],[{"0":6.885980653692151e-42,"1":-6.423552160464961e-42,"2":-6.375908012677918e-42,"3":-6.555274216111494e-42,"4":-6.939229995336494e-42},{"0":6.43476254817956e-42,"1":-6.562280708433118e-42,"2":-6.706614450258575e-42,"3":-6.846744296691056e-42,"4":-6.845342998226731e-42},{"0":-6.50763006832445e-42,"1":-6.520241754503374e-42,"2":-6.863559878262954e-42,"3":-6.490814486752553e-42,"4":-6.691200167151002e-42},{"0":-6.801902745832662e-42,"1":6.496419680609852e-42,"2":-6.797698850439688e-42,"3":6.717824837973173e-42,"4":-6.751456001116969e-42},{"0":-6.679989779436403e-42,"1":6.869165072120253e-42,"2":-6.829928715119158e-42,"3":-6.919611816835947e-42,"4":-6.81871832740456e-42}]],[[{"0":-0.014825270511209965,"1":-0.026642413809895515,"2":-0.05396777763962746,"3":-0.027616968378424644,"4":-0.06471259891986847},{"0":0.02420799247920513,"1":0.05653224512934685,"2":-0.07858230173587799,"3":-0.012783444486558437,"4":-0.070872001349926},{"0":0.005244348663836718,"1":0.1780851185321808,"2":-0.07735343277454376,"3":0.014302531257271767,"4":-0.026759695261716843},{"0":0.012195546180009842,"1":0.13493606448173523,"2":0.08068366348743439,"3":-0.012178167700767517,"4":-0.023993421345949173},{"0":0.023263167589902878,"1":0.09831378608942032,"2":0.11500000953674316,"3":-0.045774828642606735,"4":0.00202080886811018}],[{"0":-0.023962754756212234,"1":-0.006656804122030735,"2":-0.02449432946741581,"3":-0.022136520594358444,"4":-0.021207910031080246},{"0":-0.005674230866134167,"1":-0.0006137861637398601,"2":-0.012900331988930702,"3":-0.018261874094605446,"4":-0.03569936752319336},{"0":-0.00033641429035924375,"1":0.0592462494969368,"2":0.006749800872057676,"3":-0.019695179536938667,"4":0.001249356078915298},{"0":0.0038483012467622757,"1":0.10808195173740387,"2":0.010951448231935501,"3":-0.045728158205747604,"4":0.004490947350859642},{"0":0.006328439339995384,"1":0.03813280537724495,"2":0.06844473630189896,"3":0.01168875489383936,"4":0.008644480258226395}],[{"0":-0.07293783873319626,"1":-0.030232690274715424,"2":-0.05128441005945206,"3":-0.06661836802959442,"4":-0.034214891493320465},{"0":-0.056478921324014664,"1":0.05309577286243439,"2":-0.011877421289682388,"3":-0.05561362951993942,"4":-0.04610078036785126},{"0":0.033336952328681946,"1":0.05762100964784622,"2":0.10001036524772644,"3":-0.04050619900226593,"4":-0.0016664547147229314},{"0":0.19461707770824432,"1":0.01793215423822403,"2":0.1403631716966629,"3":-0.022461960092186928,"4":0.005219795275479555},{"0":0.2575864791870117,"1":0.12832799553871155,"2":0.03344595432281494,"3":0.05111940577626228,"4":-0.067084901034832}],[{"0":-0.009180144406855106,"1":-0.014574004337191582,"2":-0.04470168054103851,"3":-0.022126272320747375,"4":-0.032543547451496124},{"0":-0.006273692008107901,"1":0.024450531229376793,"2":-0.009655945934355259,"3":-0.03796078637242317,"4":-0.010087224654853344},{"0":-0.019266754388809204,"1":-0.009301154874265194,"2":0.05037477985024452,"3":-0.04317208752036095,"4":-0.02284044772386551},{"0":-0.032257840037345886,"1":-0.04937903583049774,"2":0.040149472653865814,"3":0.015292988158762455,"4":-0.01087918970733881},{"0":-0.05425526574254036,"1":-0.019034476950764656,"2":-0.01961664669215679,"3":0.018608784303069115,"4":0.000005847247848578263}],[{"0":-0.09567750245332718,"1":-0.03984757885336876,"2":-0.11231660842895508,"3":-0.09006458520889282,"4":-0.04074939340353012},{"0":-0.025990435853600502,"1":-0.11276544630527496,"2":-0.016401121392846107,"3":-0.10036328434944153,"4":-0.08593587577342987},{"0":0.03894444927573204,"1":0.011865321546792984,"2":0.0531797893345356,"3":-0.09324997663497925,"4":-0.0790180042386055},{"0":0.08057418465614319,"1":0.0024963433388620615,"2":0.1350717842578888,"3":-0.00935188215225935,"4":-0.03199173882603645},{"0":-0.14943291246891022,"1":-0.06475398689508438,"2":0.010395156219601631,"3":0.054717957973480225,"4":-0.015321483835577965}],[{"0":-0.0011843802640214562,"1":0.0038673169910907745,"2":-0.053941305726766586,"3":-0.03897479921579361,"4":-0.04012024402618408},{"0":0.051155105233192444,"1":0.09957966208457947,"2":-0.047483377158641815,"3":-0.0005898824892938137,"4":-0.04135030135512352},{"0":-0.011084090918302536,"1":0.06625723093748093,"2":-0.03464893996715546,"3":-0.0016626808792352676,"4":-0.03471311181783676},{"0":-0.05949247255921364,"1":0.016461003571748734,"2":-0.019538043066859245,"3":-0.01322953775525093,"4":0.00921654049307108},{"0":-0.08514383435249329,"1":-0.05315297469496727,"2":-0.027445804327726364,"3":-0.03586558997631073,"4":-0.022119084373116493}],[{"0":0.0029681052546948195,"1":0.023196490481495857,"2":-0.05310558155179024,"3":-0.047775525599718094,"4":-0.017572864890098572},{"0":0.010963307693600655,"1":0.030475236475467682,"2":0.022750522941350937,"3":-0.008562496863305569,"4":0.005879590287804604},{"0":-0.02274385280907154,"1":-0.050181612372398376,"2":0.015547432005405426,"3":-0.04700753465294838,"4":-0.04082581773400307},{"0":-0.019982047379016876,"1":0.014490293338894844,"2":0.04881742596626282,"3":0.0438423790037632,"4":-0.03023563139140606},{"0":-0.09182491898536682,"1":-0.03302851319313049,"2":0.006495197303593159,"3":0.008360719308257103,"4":-0.04302121326327324}],[{"0":-0.04327070713043213,"1":-0.09447457641363144,"2":-0.002462132601067424,"3":-0.019977327436208725,"4":-0.023842226713895798},{"0":-0.04315370321273804,"1":-0.07726588845252991,"2":-0.013780182227492332,"3":-0.041617993265390396,"4":-0.052650049328804016},{"0":0.05745437741279602,"1":-0.11352173984050751,"2":-0.04557511955499649,"3":-0.0005633204709738493,"4":-0.030301205813884735},{"0":0.1314210742712021,"1":-0.09133373200893402,"2":-0.007950951345264912,"3":-0.006176797207444906,"4":-0.02982221730053425},{"0":0.03954421356320381,"1":0.009523123502731323,"2":-0.0702560618519783,"3":-0.012973801232874393,"4":0.013258259743452072}]],[[{"0":-0.08657672256231308,"1":-0.14587464928627014,"2":0.12632368505001068,"3":0.07894928008317947,"4":0.00007641533738933504},{"0":-0.111932672560215,"1":-0.043227460235357285,"2":0.10442101210355759,"3":0.060162048786878586,"4":0.12090131640434265},{"0":-0.08432064950466156,"1":-0.07174958288669586,"2":0.12220702320337296,"3":0.04430517554283142,"4":-0.03563942015171051},{"0":-0.11532272398471832,"1":0.011897855438292027,"2":0.14008045196533203,"3":0.1637202352285385,"4":-0.012391133233904839},{"0":-0.09490424394607544,"1":0.015947842970490456,"2":0.13644427061080933,"3":0.1948850154876709,"4":-0.1179790049791336}],[{"0":-0.0863921195268631,"1":-0.04957122355699539,"2":-0.0017711493419483304,"3":-0.027411211282014847,"4":-0.08586681634187698},{"0":-0.09051834791898727,"1":-0.03317529335618019,"2":0.021529408171772957,"3":-0.0387861467897892,"4":-0.07416105270385742},{"0":-0.07461228221654892,"1":-0.052842091768980026,"2":-0.014902765862643719,"3":-0.054048072546720505,"4":-0.045872341841459274},{"0":-0.08914302289485931,"1":-0.021444004029035568,"2":0.03310096636414528,"3":0.03463035449385643,"4":-0.014027685858309269},{"0":-0.04748603329062462,"1":-0.020835597068071365,"2":0.04652656614780426,"3":0.06637256592512131,"4":-0.07375581562519073}],[{"0":0.09520692378282547,"1":0.08503621071577072,"2":-0.03081533871591091,"3":0.09948612004518509,"4":-0.045764923095703125},{"0":0.04531145468354225,"1":0.08559590578079224,"2":-0.16609272360801697,"3":0.021321086212992668,"4":0.0651344433426857},{"0":-0.012744681909680367,"1":0.1336372345685959,"2":-0.09097199887037277,"3":0.0477774515748024,"4":0.0053832391276955605},{"0":0.014900161884725094,"1":-0.019811030477285385,"2":0.030732331797480583,"3":-0.027091726660728455,"4":0.03077891282737255},{"0":-0.01393965631723404,"1":0.05490497872233391,"2":0.11690628528594971,"3":0.0945734828710556,"4":0.18435482680797577}],[{"0":-0.1585301160812378,"1":-0.09674866497516632,"2":-0.03241477161645889,"3":-0.09580469131469727,"4":-0.0889153704047203},{"0":-0.15991675853729248,"1":-0.0004204142314847559,"2":-0.02679958939552307,"3":0.06075708568096161,"4":-0.10747721046209335},{"0":-0.1539197415113449,"1":-0.03732777759432793,"2":0.007843819446861744,"3":0.07876549661159515,"4":-0.08577454835176468},{"0":-0.09012318402528763,"1":-0.029740100726485252,"2":0.05291721969842911,"3":0.07373147457838058,"4":-0.1032055988907814},{"0":-0.08138139545917511,"1":0.02843312732875347,"2":0.10069341212511063,"3":0.0519263856112957,"4":-0.06418893486261368}],[{"0":-0.4615083932876587,"1":-0.018461519852280617,"2":0.010566744953393936,"3":-0.06659983843564987,"4":-0.13404537737369537},{"0":-0.46769100427627563,"1":0.06864310055971146,"2":0.01527354959398508,"3":0.19347304105758667,"4":-0.10864780843257904},{"0":-0.40719595551490784,"1":-0.010507864877581596,"2":0.02290916070342064,"3":0.15350505709648132,"4":-0.05780617147684097},{"0":-0.268334299325943,"1":0.07580610364675522,"2":0.10169811546802521,"3":0.08620651811361313,"4":-0.21587076783180237},{"0":-0.047957196831703186,"1":0.2077019065618515,"2":0.2433716505765915,"3":-0.10622887313365936,"4":-0.28840699791908264}],[{"0":-0.1581537425518036,"1":-0.12844154238700867,"2":0.04447994753718376,"3":0.0006840897840447724,"4":0.035355955362319946},{"0":-0.1783822625875473,"1":-0.07505607604980469,"2":0.06989029794931412,"3":0.004147748462855816,"4":-0.09877333045005798},{"0":-0.09532203525304794,"1":-0.0010769038926810026,"2":-0.02730667218565941,"3":0.09540507942438126,"4":-0.13327288627624512},{"0":-0.08193102478981018,"1":0.0679718554019928,"2":0.17687629163265228,"3":-0.036482054740190506,"4":-0.21794763207435608},{"0":-0.0382499098777771,"1":0.02720467559993267,"2":-0.005653980188071728,"3":-0.1568019837141037,"4":-0.21073882281780243}],[{"0":-0.1521643102169037,"1":-0.016317026689648628,"2":-0.03816342353820801,"3":-0.10851503908634186,"4":-0.05270529165863991},{"0":-0.0673375129699707,"1":-0.04564297944307327,"2":-0.06934960186481476,"3":-0.13604514300823212,"4":-0.0901389867067337},{"0":-0.0951191708445549,"1":-0.11325903981924057,"2":-0.13607023656368256,"3":-0.0405522957444191,"4":-0.1057446151971817},{"0":-0.13600701093673706,"1":-0.1164250299334526,"2":-0.0972183346748352,"3":-0.013145223259925842,"4":-0.10212025046348572},{"0":-0.13383422791957855,"1":0.000776970642618835,"2":-0.06063707917928696,"3":-0.08390924334526062,"4":-0.16771841049194336}],[{"0":-0.009605864994227886,"1":0.2606123685836792,"2":0.1372348517179489,"3":0.1315365433692932,"4":0.015782566741108894},{"0":-0.013865699991583824,"1":0.1084962785243988,"2":0.1212494745850563,"3":0.2419145107269287,"4":-0.2030615657567978},{"0":-0.015400277450680733,"1":0.25017234683036804,"2":0.22873328626155853,"3":0.12580198049545288,"4":-0.2520740032196045},{"0":0.24385958909988403,"1":0.18731921911239624,"2":0.2063448131084442,"3":0.09986859560012817,"4":-0.2130468338727951},{"0":0.16768677532672882,"1":0.09420960396528244,"2":0.20990656316280365,"3":-0.023341048508882523,"4":-0.26761314272880554}]],[[{"0":0.0002447366714477539,"1":-0.17617371678352356,"2":-0.09589941054582596,"3":0.025591673329472542,"4":-0.08821620047092438},{"0":-0.07907352596521378,"1":-0.10132884979248047,"2":-0.07781226187944412,"3":0.0507042333483696,"4":0.03620021417737007},{"0":-0.008091895841062069,"1":-0.07798302173614502,"2":0.013366639614105225,"3":-0.01536747720092535,"4":0.08255989849567413},{"0":0.09384796023368835,"1":-0.02171839028596878,"2":0.05937701836228371,"3":0.007201064378023148,"4":0.17673802375793457},{"0":0.004633789416402578,"1":-0.02731354348361492,"2":0.1459946185350418,"3":-0.027148041874170303,"4":0.03194400295615196}],[{"0":-0.004244029056280851,"1":0.006083855405449867,"2":-0.011261660605669022,"3":0.0002716908638831228,"4":0.005590598564594984},{"0":-0.019344275817275047,"1":-0.08334144204854965,"2":-0.041182007640600204,"3":-0.018677331507205963,"4":0.009609037078917027},{"0":-0.0632743388414383,"1":-0.09838726371526718,"2":-0.13373026251792908,"3":-0.00009574647265253589,"4":0.05890386924147606},{"0":-0.0010576669592410326,"1":0.02025381661951542,"2":-0.056784581393003464,"3":0.0701024979352951,"4":0.05275750532746315},{"0":0.04957570508122444,"1":0.011361712589859962,"2":-0.06678107380867004,"3":0.005745270289480686,"4":-0.02917262725532055}],[{"0":-0.14800086617469788,"1":-0.1770603060722351,"2":-0.2112177014350891,"3":-0.2932989001274109,"4":-0.22897711396217346},{"0":-0.20866765081882477,"1":-0.2908347249031067,"2":-0.2801884412765503,"3":-0.14661793410778046,"4":-0.11554088443517685},{"0":-0.2738187313079834,"1":-0.17255453765392303,"2":-0.09462208300828934,"3":0.052799660712480545,"4":0.023168763145804405},{"0":-0.11515185981988907,"1":-0.08353909850120544,"2":0.04228309169411659,"3":0.1533786505460739,"4":0.05931778624653816},{"0":-0.08230875432491302,"1":0.021290605887770653,"2":-0.06089318171143532,"3":0.08044027537107468,"4":0.03578496351838112}],[{"0":0.028824470937252045,"1":-0.03186976909637451,"2":-0.09685185551643372,"3":-0.10482974350452423,"4":0.021098561584949493},{"0":0.06091995909810066,"1":0.09652269631624222,"2":-0.00858180969953537,"3":-0.0779927596449852,"4":0.1740078181028366},{"0":0.0767703652381897,"1":-0.03995677828788757,"2":-0.09762582182884216,"3":-0.07166028022766113,"4":-0.09644988924264908},{"0":0.06913230568170547,"1":-0.0608414001762867,"2":-0.062270063906908035,"3":-0.13991060853004456,"4":-0.08270060271024704},{"0":0.022577805444598198,"1":-0.03233577683568001,"2":0.019583526998758316,"3":-0.0814959779381752,"4":-0.11289273202419281}],[{"0":0.03221110999584198,"1":0.09216764569282532,"2":-0.0011233641998842359,"3":0.04633462801575661,"4":0.12815536558628082},{"0":0.18888618052005768,"1":0.13702590763568878,"2":0.1390790194272995,"3":0.1649468094110489,"4":0.22911131381988525},{"0":0.17194794118404388,"1":0.041189149022102356,"2":0.04657648876309395,"3":0.2093198001384735,"4":0.18580657243728638},{"0":0.1479572206735611,"1":0.10729339718818665,"2":0.11330799758434296,"3":0.06992250680923462,"4":0.14527811110019684},{"0":-0.03519449383020401,"1":-0.08736686408519745,"2":0.07300809770822525,"3":0.011835840530693531,"4":0.04267844930291176}],[{"0":0.01591138355433941,"1":0.027719909325242043,"2":0.04059557244181633,"3":0.10535939037799835,"4":0.13142013549804688},{"0":0.031363021582365036,"1":0.059424128383398056,"2":-0.010476668365299702,"3":0.08886530995368958,"4":0.13660579919815063},{"0":-0.03262766823172569,"1":-0.058895885944366455,"2":-0.11067173629999161,"3":-0.09552952647209167,"4":-0.06805172562599182},{"0":-0.034254975616931915,"1":-0.057908300310373306,"2":-0.08583202213048935,"3":-0.0761888176202774,"4":-0.021459827199578285},{"0":-0.10511940717697144,"1":-0.18298758566379547,"2":-0.08788659423589706,"3":-0.10816040635108948,"4":-0.11548952013254166}],[{"0":0.0955519750714302,"1":0.11514266580343246,"2":0.05276518315076828,"3":0.03822443261742592,"4":0.017546307295560837},{"0":0.07610563933849335,"1":-0.007237364072352648,"2":-0.010420303791761398,"3":-0.09411030262708664,"4":-0.07119031995534897},{"0":-0.06564687937498093,"1":-0.1452404260635376,"2":-0.18232190608978271,"3":-0.05635140836238861,"4":-0.019239386543631554},{"0":-0.11185645312070847,"1":-0.09231743216514587,"2":-0.2142854779958725,"3":-0.12155868113040924,"4":-0.08635057508945465},{"0":0.0016042422503232956,"1":-0.1287718564271927,"2":-0.07507649064064026,"3":-0.14940285682678223,"4":-0.11544204503297806}],[{"0":-0.022523118183016777,"1":-0.0018281203228980303,"2":-0.2892002463340759,"3":-0.2374996840953827,"4":-0.22463186085224152},{"0":0.032154474407434464,"1":-0.10127998143434525,"2":-0.23377303779125214,"3":-0.27502763271331787,"4":-0.15416373312473297},{"0":0.04518745839595795,"1":0.02870817482471466,"2":0.061819180846214294,"3":-0.12020326405763626,"4":-0.1524347960948944},{"0":-0.011554104276001453,"1":0.047617148607969284,"2":0.010609090328216553,"3":-0.12336902320384979,"4":-0.05355793982744217},{"0":0.02964581921696663,"1":0.1639508754014969,"2":-0.01876692846417427,"3":-0.07820902019739151,"4":0.024858707562088966}]],[[{"0":0.11532779783010483,"1":0.04351925849914551,"2":-0.17011234164237976,"3":-0.07549456506967545,"4":0.24148230254650116},{"0":0.10694561153650284,"1":0.02412024885416031,"2":-0.02843005582690239,"3":-0.07462206482887268,"4":0.22301219403743744},{"0":0.014510256238281727,"1":0.05461066588759422,"2":0.03742028400301933,"3":-0.0466284453868866,"4":0.2389855980873108},{"0":0.06580019742250443,"1":0.07637201994657516,"2":0.2117404043674469,"3":-0.020080920308828354,"4":0.14744219183921814},{"0":0.08003834635019302,"1":0.058335259556770325,"2":0.14885090291500092,"3":-0.01590382494032383,"4":0.1540173888206482}],[{"0":-0.014353230595588684,"1":0.06333371996879578,"2":-0.033651016652584076,"3":-0.012032538652420044,"4":0.1681165248155594},{"0":0.008072324097156525,"1":-0.009251562878489494,"2":0.027276871725916862,"3":-0.06093619018793106,"4":0.14240528643131256},{"0":0.012736851349473,"1":-0.023776812478899956,"2":0.06735344231128693,"3":-0.013437346555292606,"4":0.10466960072517395},{"0":-0.016725707799196243,"1":0.0503329336643219,"2":0.08130168169736862,"3":-0.004660442471504211,"4":-0.02652621828019619},{"0":0.033509403467178345,"1":0.05237352475523949,"2":0.08560780435800552,"3":0.023013778030872345,"4":-0.023250019177794456}],[{"0":-0.011993750929832458,"1":-0.14011819660663605,"2":-0.030841508880257607,"3":0.03471697121858597,"4":0.17107675969600677},{"0":-0.039622463285923004,"1":-0.16431033611297607,"2":0.05062940716743469,"3":0.1356891542673111,"4":0.18486160039901733},{"0":-0.15915322303771973,"1":0.017270952463150024,"2":-0.0750134065747261,"3":0.1904878467321396,"4":0.23204956948757172},{"0":-0.03171643242239952,"1":0.09882324188947678,"2":-0.03780988231301308,"3":0.13720610737800598,"4":0.23913942277431488},{"0":-0.05665092542767525,"1":0.11211463063955307,"2":-0.084633968770504,"3":0.07580991089344025,"4":0.12649483978748322}],[{"0":-0.038180023431777954,"1":-0.029479527845978737,"2":-0.007792228367179632,"3":-0.025347523391246796,"4":-0.15792040526866913},{"0":-0.0586189366877079,"1":0.030508220195770264,"2":0.020121309906244278,"3":0.022101156413555145,"4":-0.1294933557510376},{"0":-0.031608812510967255,"1":0.026753604412078857,"2":-0.020264070481061935,"3":-0.021325120702385902,"4":-0.0977044627070427},{"0":0.026123397052288055,"1":0.014211934991180897,"2":-0.012980340048670769,"3":-0.0010440333280712366,"4":-0.0359303243458271},{"0":0.01647040620446205,"1":0.01556375902146101,"2":-0.02363511361181736,"3":0.021390100941061974,"4":-0.025973698124289513}],[{"0":0.01483079418540001,"1":0.003268949221819639,"2":0.07159978151321411,"3":0.05875731259584427,"4":0.09875039756298065},{"0":-0.016014792025089264,"1":0.042992688715457916,"2":-0.0278419591486454,"3":0.007411473896354437,"4":0.07507989555597305},{"0":-0.05459816753864288,"1":0.007640722673386335,"2":-0.11199242621660233,"3":0.02507086470723152,"4":-0.0010700764833018184},{"0":-0.06053360551595688,"1":0.03947507217526436,"2":-0.024439586326479912,"3":-0.029929252341389656,"4":-0.040455494076013565},{"0":-0.013430076651275158,"1":-0.004100860562175512,"2":-0.003550230758264661,"3":0.09554948657751083,"4":0.02244592271745205}],[{"0":-0.006244228221476078,"1":-0.017390042543411255,"2":-0.011919819749891758,"3":-0.04929610714316368,"4":0.006646170746535063},{"0":-0.0045751892030239105,"1":-0.0006333849742077291,"2":-0.15232986211776733,"3":-0.0799667090177536,"4":-0.11676017940044403},{"0":-0.06037251651287079,"1":0.019514085724949837,"2":-0.07057999074459076,"3":-0.0874534472823143,"4":-0.11402284353971481},{"0":-0.029534364119172096,"1":-0.06405142694711685,"2":-0.03014708310365677,"3":-0.054903361946344376,"4":-0.1651565283536911},{"0":-0.03739951550960541,"1":-0.06877144426107407,"2":-0.026396365836262703,"3":-0.07298380881547928,"4":-0.03756816312670708}],[{"0":0.008849467150866985,"1":-0.07864803820848465,"2":-0.08347900211811066,"3":0.02140142023563385,"4":-0.14741607010364532},{"0":0.06461787968873978,"1":0.0008189479121938348,"2":-0.0414322204887867,"3":-0.05138417333364487,"4":-0.20804233849048615},{"0":-0.013433917425572872,"1":0.000019434248315519653,"2":-0.06551064550876617,"3":-0.13338138163089752,"4":-0.16160640120506287},{"0":-0.028436310589313507,"1":-0.09426228702068329,"2":-0.09940118342638016,"3":-0.09853126108646393,"4":-0.21313302218914032},{"0":-0.10199657827615738,"1":-0.1149749681353569,"2":-0.09528323262929916,"3":0.01863635890185833,"4":-0.08903023600578308}],[{"0":0.11319023370742798,"1":-0.07871668040752411,"2":-0.16745567321777344,"3":0.06521697342395782,"4":-0.07300981879234314},{"0":-0.09780935943126678,"1":-0.18565617501735687,"2":-0.15142259001731873,"3":0.1389426440000534,"4":0.003638796741142869},{"0":-0.018718942999839783,"1":-0.010933616198599339,"2":-0.13456237316131592,"3":0.16135115921497345,"4":0.14419473707675934},{"0":0.0036521870642900467,"1":0.20252594351768494,"2":-0.11077341437339783,"3":0.134078711271286,"4":0.15914353728294373},{"0":-0.02867555059492588,"1":0.1895512193441391,"2":-0.1129508763551712,"3":0.04022395238280296,"4":0.039178889244794846}]]],"bias":{"0":-0.034113772213459015,"1":-0.26181331276893616,"2":-0.16002725064754486,"3":-0.24625732004642487,"4":0.03653400391340256,"5":-0.1995449811220169,"6":-0.01863916590809822,"7":-0.25981631875038147,"8":-0.02403872273862362,"9":0.09083325415849686,"10":-0.11756400763988495,"11":-0.3147929012775421,"12":-0.20842723548412323,"13":0.053361233323812485,"14":-0.2026093751192093,"15":-0.2414257526397705}},{"tipo":"relu"},{"tipo":"maxPool","size":2},{"tipo":"conv2d","inChannels":16,"outChannels":64,"kernelSize":3,"lastOutputShape":[64,3,3],"kernels":[[[{"0":-0.01341469120234251,"1":-0.021328674629330635,"2":-0.0024326650891453028},{"0":-0.014780471101403236,"1":-0.021600991487503052,"2":-0.11286380887031555},{"0":-0.02184930443763733,"1":-0.032870449125766754,"2":-0.00643781665712595}],[{"0":-0.017407169565558434,"1":-0.021704567596316338,"2":-0.025803135707974434},{"0":-0.015717368572950363,"1":-0.0003512291586957872,"2":-0.01940722018480301},{"0":0.007433771621435881,"1":0.045274972915649414,"2":-0.0008062405395321548}],[{"0":0.02734725922346115,"1":-0.008154556155204773,"2":-0.055472321808338165},{"0":0.0473419688642025,"1":0.07009448856115341,"2":0.0866333469748497},{"0":0.02863537333905697,"1":0.03736947104334831,"2":0.11312323808670044}],[{"0":-0.004398136865347624,"1":0.08225050568580627,"2":-0.0350521020591259},{"0":-0.029182562604546547,"1":0.016802649945020676,"2":0.031831976026296616},{"0":-0.0445481576025486,"1":0.06245087832212448,"2":0.04968232288956642}],[{"0":-0.012647131457924843,"1":0.006384592037647963,"2":0.18289482593536377},{"0":-0.05399257317185402,"1":-0.07095299661159515,"2":0.12150149792432785},{"0":-0.07563142478466034,"1":-0.08734707534313202,"2":0.03081192448735237}],[{"0":0.005099752452224493,"1":-0.008861132897436619,"2":-0.011247836984694004},{"0":0.0022780578583478928,"1":0.004915429744869471,"2":-0.0014276317087933421},{"0":-0.008720947429537773,"1":0.04591226950287819,"2":0.06281427294015884}],[{"0":-0.035498183220624924,"1":-0.07587062567472458,"2":-0.021495874971151352},{"0":0.006856130436062813,"1":0.026086267083883286,"2":-0.012186950072646141},{"0":-0.005255643744021654,"1":0.11744145303964615,"2":-0.034805428236722946}],[{"0":-5.706087346730655e-42,"1":6.772475478081841e-42,"2":-5.898065236343155e-42},{"0":-6.556675514575819e-42,"1":-6.828527416654834e-42,"2":5.417419863079743e-42},{"0":-6.692601465615326e-42,"1":-6.644957317828283e-42,"2":-6.675785884043429e-42}],[{"0":-0.039263512939214706,"1":-0.045785266906023026,"2":0.0032404600642621517},{"0":-0.0741332620382309,"1":-0.08322805911302567,"2":-0.0806918516755104},{"0":-0.08603178709745407,"1":-0.12490052729845047,"2":-0.0817948579788208}],[{"0":-0.050501611083745956,"1":-0.05279628932476044,"2":-0.017413126304745674},{"0":-0.056161604821681976,"1":0.005143740214407444,"2":0.021021375432610512},{"0":-0.048081401735544205,"1":-0.04030654579401016,"2":0.04790671169757843}],[{"0":-0.031900279223918915,"1":-0.011502999812364578,"2":0.03380340710282326},{"0":-0.025145169347524643,"1":-0.032151855528354645,"2":0.05196155235171318},{"0":-0.028501182794570923,"1":-0.024973295629024506,"2":0.09579203277826309}],[{"0":-6.143292467599998e-42,"1":-5.909275624057754e-42,"2":4.779829061811951e-42},{"0":-6.005965218096166e-42,"1":-5.97233405495237e-42,"2":6.989676740052188e-42},{"0":6.831330013583483e-42,"1":-6.518840456039049e-42,"2":-5.453853623152188e-42}],[{"0":-0.010245049372315407,"1":-0.022313227877020836,"2":-0.01645258069038391},{"0":-0.015507642179727554,"1":-0.04689750820398331,"2":-0.00905965268611908},{"0":-0.02452894113957882,"1":-0.029046718031167984,"2":-0.02647453546524048}],[{"0":0.02990906499326229,"1":0.0779094249010086,"2":0.0026321837212890387},{"0":-0.022157223895192146,"1":0.05359755456447601,"2":0.009394274093210697},{"0":-0.05948035791516304,"1":-0.05436010658740997,"2":-0.034027695655822754}],[{"0":-0.024549799039959908,"1":-0.03851313889026642,"2":-0.06269486248493195},{"0":-0.03202670067548752,"1":-0.03495028614997864,"2":0.04203513264656067},{"0":-0.017749188467860222,"1":-0.051934726536273956,"2":-0.018072189763188362}],[{"0":-0.0038939579389989376,"1":-0.08484712243080139,"2":-0.030401740223169327},{"0":-0.00749645521864295,"1":-0.013728118501603603,"2":0.0425272062420845},{"0":0.08076164871454239,"1":0.00978721771389246,"2":0.02425185963511467}]],[[{"0":0.008800618350505829,"1":-0.037146031856536865,"2":-0.0298567246645689},{"0":-0.002079515252262354,"1":-0.054683949798345566,"2":-0.0335254967212677},{"0":-0.02954871393740177,"1":-0.02643757499754429,"2":-0.024020468816161156}],[{"0":-0.02226758934557438,"1":-0.003253478556871414,"2":-0.005265223328024149},{"0":-0.023244205862283707,"1":-0.012322504073381424,"2":-0.01068822294473648},{"0":-0.01771034486591816,"1":0.009323867037892342,"2":-0.008763600140810013}],[{"0":0.03542578965425491,"1":-0.03225826099514961,"2":-0.006633345503360033},{"0":0.005621423479169607,"1":-0.022683119401335716,"2":0.008852814324200153},{"0":-0.012268118560314178,"1":-0.014984366483986378,"2":0.029157768934965134}],[{"0":0.011163108982145786,"1":-0.039613015949726105,"2":0.0014621313894167542},{"0":-0.0281952153891325,"1":-0.013154151849448681,"2":-0.003255259245634079},{"0":0.011668100953102112,"1":0.028900310397148132,"2":0.005334365647286177}],[{"0":0.018103986978530884,"1":-0.07028947025537491,"2":-0.022327845916152},{"0":-0.03577359393239021,"1":-0.06862745434045792,"2":-0.017334917560219765},{"0":-0.027210652828216553,"1":-0.02998184598982334,"2":-0.020622102543711662}],[{"0":-0.006400846876204014,"1":-0.01187323871999979,"2":0.00038916972698643804},{"0":-0.017275849357247353,"1":-0.03073040023446083,"2":-0.01448631938546896},{"0":-0.03110325150191784,"1":-0.01661653071641922,"2":0.021045198664069176}],[{"0":-0.04101287201046944,"1":-0.026039311662316322,"2":-0.007565618492662907},{"0":0.016022704541683197,"1":-0.01449984684586525,"2":-0.026551809161901474},{"0":-0.037633609026670456,"1":0.0564161017537117,"2":0.04070992022752762}],[{"0":6.649161213221257e-42,"1":-6.961650770765691e-42,"2":-6.654766407078556e-42},{"0":-6.836935207440782e-42,"1":-6.55107032071852e-42,"2":-6.133483378349724e-42},{"0":6.419348265071987e-42,"1":6.422150862000637e-42,"2":-6.692601465615326e-42}],[{"0":0.0841999426484108,"1":0.07285325974225998,"2":0.02974514663219452},{"0":-0.04418447986245155,"1":0.003315168432891369,"2":-0.009945605881512165},{"0":-0.0033433001954108477,"1":-0.03133869543671608,"2":-0.04319418966770172}],[{"0":-0.025619685649871826,"1":-0.036585353314876556,"2":-0.032118283212184906},{"0":-0.03955770656466484,"1":-0.001141632441431284,"2":0.034909117966890335},{"0":0.003913366235792637,"1":-0.005718452390283346,"2":0.025898391380906105}],[{"0":-0.0043454342521727085,"1":-0.03975820168852806,"2":-0.03747642785310745},{"0":0.011883308179676533,"1":-0.029501894488930702,"2":-0.03617868199944496},{"0":0.041400935500860214,"1":0.0011833833996206522,"2":0.0023800767958164215}],[{"0":6.514636560646075e-42,"1":6.451578129751458e-42,"2":-5.847618491627462e-42},{"0":-5.24786274889644e-42,"1":-5.278691315111586e-42,"2":-4.0637655465419695e-42},{"0":6.957446875372717e-42,"1":-4.2403291530468965e-42,"2":-5.2590731366110385e-42}],[{"0":-0.0012284228578209877,"1":-0.016026640310883522,"2":-0.016243871301412582},{"0":-0.020090194419026375,"1":0.003105293260887265,"2":0.00870006438344717},{"0":-0.03308577835559845,"1":-0.016706014052033424,"2":0.003664687043055892}],[{"0":-0.04993921145796776,"1":-0.040163274854421616,"2":-0.01865493506193161},{"0":-0.027183715254068375,"1":0.001040075090713799,"2":0.014396014623343945},{"0":-0.007765680551528931,"1":-0.012875502929091454,"2":-0.014327672310173512}],[{"0":0.10242006927728653,"1":0.05304335430264473,"2":-0.012844439595937729},{"0":-0.023749172687530518,"1":-0.017778610810637474,"2":-0.0061317854560911655},{"0":0.01890883408486843,"1":0.0591953881084919,"2":0.00409558555111289}],[{"0":-0.0017158588161692023,"1":-0.026182470843195915,"2":0.006614372134208679},{"0":-0.0410364493727684,"1":-0.021347811445593834,"2":0.011483137495815754},{"0":-0.0007903804071247578,"1":0.032286785542964935,"2":0.006007681135088205}]],[[{"0":0.06246002018451691,"1":0.07303294539451599,"2":0.14758239686489105},{"0":-0.12359604239463806,"1":-0.049549613147974014,"2":0.021885670721530914},{"0":-0.08169272541999817,"1":-0.052891071885824203,"2":-0.0666334331035614}],[{"0":0.01573190651834011,"1":0.05090780928730965,"2":0.057438112795352936},{"0":0.012608039192855358,"1":0.021804045885801315,"2":0.03200360760092735},{"0":-0.010135909542441368,"1":-0.014306210912764072,"2":0.005351310130208731}],[{"0":0.015753252431750298,"1":0.02224622294306755,"2":-0.14013485610485077},{"0":0.006273843348026276,"1":0.11139319092035294,"2":-0.008560934104025364},{"0":-0.014023746363818645,"1":0.04220135882496834,"2":0.008830387145280838}],[{"0":-0.12357315421104431,"1":-0.07375039905309677,"2":-0.04013719782233238},{"0":-0.002685698913410306,"1":-0.022279808297753334,"2":0.029094699770212173},{"0":-0.018471963703632355,"1":-0.01327292900532484,"2":0.08638892322778702}],[{"0":0.06160670891404152,"1":-0.052434805780649185,"2":0.12838031351566315},{"0":-0.0283531341701746,"1":-0.06054864451289177,"2":0.08115056902170181},{"0":-0.028694750741124153,"1":-0.04178936779499054,"2":-0.03194412216544151}],[{"0":0.04740453138947487,"1":0.03941738232970238,"2":0.06062250956892967},{"0":-0.03346100449562073,"1":-0.025967763736844063,"2":-0.05665607005357742},{"0":-0.019578974694013596,"1":-0.0438329316675663,"2":-0.04919837787747383}],[{"0":0.11131098866462708,"1":-0.060903605073690414,"2":0.29743263125419617},{"0":-0.03715156763792038,"1":-0.058650992810726166,"2":-0.07059411704540253},{"0":-0.026618175208568573,"1":-0.04028337448835373,"2":-0.08491895347833633}],[{"0":-6.060615858204834e-42,"1":-6.696805361008301e-42,"2":-6.433361249715235e-42},{"0":6.546866425325545e-42,"1":-6.392723594249815e-42,"2":-6.462788517466056e-42},{"0":5.998958725774542e-42,"1":-5.7425211068031e-42,"2":6.828527416654834e-42}],[{"0":-0.09700620919466019,"1":-0.04556211829185486,"2":-0.016961032524704933},{"0":-0.06744521111249924,"1":-0.020348763093352318,"2":0.10134930908679962},{"0":-0.06034897267818451,"1":-0.12801076471805573,"2":0.021900231018662453}],[{"0":-0.12121540307998657,"1":-0.11805269867181778,"2":-0.05662326514720917},{"0":-0.07983507961034775,"1":-0.10751800984144211,"2":-0.1144571453332901},{"0":-0.01816757582128048,"1":-0.04385584220290184,"2":-0.027060747146606445}],[{"0":-0.07240577042102814,"1":-0.08144069463014603,"2":0.050954606384038925},{"0":-0.0478108674287796,"1":-0.03963063284754753,"2":-0.08073510974645615},{"0":-0.016774488613009453,"1":-0.01786537654697895,"2":-0.027599025517702103}],[{"0":6.866362475191604e-42,"1":-6.227370375459487e-42,"2":-6.029787291989688e-42},{"0":-5.162383542572626e-42,"1":-6.609924856220162e-42,"2":-6.473998905180655e-42},{"0":4.2249148699393235e-42,"1":-6.719226136437498e-42,"2":6.3240599694979e-42}],[{"0":-0.007015866693109274,"1":0.008322128094732761,"2":-0.007089175283908844},{"0":-0.017254047095775604,"1":-0.008671124465763569,"2":-0.011632096953690052},{"0":0.0018164360662922263,"1":-0.006869682110846043,"2":-0.019692540168762207}],[{"0":0.10628059506416321,"1":0.05823769047856331,"2":-0.04460196569561958},{"0":0.03536289557814598,"1":-0.03756847605109215,"2":0.024572303518652916},{"0":0.005854918155819178,"1":0.01841673254966736,"2":0.08965576440095901}],[{"0":0.05265352129936218,"1":0.04323842376470566,"2":0.2713959813117981},{"0":-0.0411393977701664,"1":0.03553289920091629,"2":0.04646378755569458},{"0":-0.05029081925749779,"1":-0.05733479931950569,"2":-0.09338714927434921}],[{"0":0.07364003360271454,"1":0.11367788910865784,"2":0.0295124389231205},{"0":-0.029417896643280983,"1":-0.006612057331949472,"2":0.03043162077665329},{"0":-0.09959826618432999,"1":-0.1301381140947342,"2":-0.016723308712244034}]],[[{"0":0.04906458780169487,"1":-0.03530367463827133,"2":0.0275527685880661},{"0":0.05100979655981064,"1":0.0032440859358757734,"2":-0.041879232972860336},{"0":0.021964270621538162,"1":0.013333088718354702,"2":-0.01743813045322895}],[{"0":-0.04640946909785271,"1":0.03122929483652115,"2":0.025436779484152794},{"0":-0.04410291835665703,"1":-0.04390719160437584,"2":-0.041209131479263306},{"0":-0.022276006639003754,"1":-0.047983743250370026,"2":-0.032525479793548584}],[{"0":0.07766702026128769,"1":-0.033414434641599655,"2":0.02257961593568325},{"0":-0.06744033098220825,"1":-0.07616590708494186,"2":0.045352015644311905},{"0":-0.047950342297554016,"1":-0.00034683430567383766,"2":0.030579948797822}],[{"0":0.030689135193824768,"1":-0.04062435030937195,"2":-0.03201327100396156},{"0":-0.011343581601977348,"1":-0.0040517328307032585,"2":-0.05588055029511452},{"0":-0.014443938620388508,"1":-0.0426076240837574,"2":-0.10772792249917984}],[{"0":-0.05287281051278114,"1":-0.11939645558595657,"2":-0.05787380412220955},{"0":0.041890520602464676,